<?xml version="1.0"?>
<MethodSetup Method="BDT::BDTG">
  <GeneralInfo>
    <Info name="TMVA Release" value="4.2.1 [262657]"/>
    <Info name="ROOT Release" value="6.12/06 [396294]"/>
    <Info name="Creator" value="kduffy"/>
    <Info name="Date" value="Mon Feb  4 13:51:36 2019"/>
    <Info name="Host" value="Linux buildservice002.fnal.gov 2.6.32-696.20.1.el6.x86_64 #1 SMP Thu Jan 25 08:47:49 CST 2018 x86_64 x86_64 x86_64 GNU/Linux"/>
    <Info name="Dir" value="/uboone/app/users/kduffy/CC1pi/CC1pi_uboonecode/srcs/uboonecode/uboone/CC1pi/ignore/2019-01-28"/>
    <Info name="Training events" value="2000"/>
    <Info name="TrainingTime" value="9.99680042e-01"/>
    <Info name="AnalysisType" value="Classification"/>
  </GeneralInfo>
  <Options>
    <Option name="V" modified="Yes">False</Option>
    <Option name="VerbosityLevel" modified="No">Default</Option>
    <Option name="VarTransform" modified="No">None</Option>
    <Option name="H" modified="Yes">False</Option>
    <Option name="CreateMVAPdfs" modified="Yes">True</Option>
    <Option name="IgnoreNegWeightsInTraining" modified="No">False</Option>
    <Option name="NTrees" modified="Yes">1000</Option>
    <Option name="MaxDepth" modified="Yes">2</Option>
    <Option name="MinNodeSize" modified="Yes">2.5%</Option>
    <Option name="nCuts" modified="Yes">20</Option>
    <Option name="BoostType" modified="Yes">Grad</Option>
    <Option name="AdaBoostR2Loss" modified="No">quadratic</Option>
    <Option name="UseBaggedBoost" modified="Yes">True</Option>
    <Option name="Shrinkage" modified="Yes">1.000000e-01</Option>
    <Option name="AdaBoostBeta" modified="No">5.000000e-01</Option>
    <Option name="UseRandomisedTrees" modified="No">False</Option>
    <Option name="UseNvars" modified="No">2</Option>
    <Option name="UsePoissonNvars" modified="No">True</Option>
    <Option name="BaggedSampleFraction" modified="Yes">5.000000e-01</Option>
    <Option name="UseYesNoLeaf" modified="No">True</Option>
    <Option name="NegWeightTreatment" modified="No">pray</Option>
    <Option name="Css" modified="No">1.000000e+00</Option>
    <Option name="Cts_sb" modified="No">1.000000e+00</Option>
    <Option name="Ctb_ss" modified="No">1.000000e+00</Option>
    <Option name="Cbb" modified="No">1.000000e+00</Option>
    <Option name="NodePurityLimit" modified="No">5.000000e-01</Option>
    <Option name="SeparationType" modified="No">giniindex</Option>
    <Option name="RegressionLossFunctionBDTG" modified="No">huber</Option>
    <Option name="HuberQuantile" modified="No">7.000000e-01</Option>
    <Option name="DoBoostMonitor" modified="No">False</Option>
    <Option name="UseFisherCuts" modified="No">False</Option>
    <Option name="MinLinCorrForFisher" modified="No">8.000000e-01</Option>
    <Option name="UseExclusiveVars" modified="No">False</Option>
    <Option name="DoPreselection" modified="No">False</Option>
    <Option name="SigToBkgFraction" modified="No">1.000000e+00</Option>
    <Option name="PruneMethod" modified="No">nopruning</Option>
    <Option name="PruneStrength" modified="No">0.000000e+00</Option>
    <Option name="PruningValFraction" modified="No">5.000000e-01</Option>
    <Option name="SkipNormalization" modified="No">False</Option>
    <Option name="nEventsMin" modified="No">0</Option>
    <Option name="UseBaggedGrad" modified="No">False</Option>
    <Option name="GradBaggingFraction" modified="No">5.000000e-01</Option>
    <Option name="UseNTrainEvents" modified="No">0</Option>
    <Option name="NNodesMax" modified="No">0</Option>
  </Options>
  <Variables NVar="5">
    <Variable VarIndex="0" Expression="length_over_startend" Label="length_over_startend" Title="length_over_startend" Unit="" Internal="length_over_startend" Type="D" Min="8.75552475e-01" Max="2.56703591e+00"/>
    <Variable VarIndex="1" Expression="track_length_over_longest" Label="track_length_over_longest" Title="track_length_over_longest" Unit="" Internal="track_length_over_longest" Type="D" Min="2.66797398e-03" Max="1.00000000e+00"/>
    <Variable VarIndex="2" Expression="perc_used_hits" Label="perc_used_hits" Title="perc_used_hits" Unit="" Internal="perc_used_hits" Type="D" Min="1.27516776e-01" Max="1.00000000e+00"/>
    <Variable VarIndex="3" Expression="MCS_pi_maxScatter" Label="MCS_pi_maxScatter" Title="MCS_pi_maxScatter" Unit="" Internal="MCS_pi_maxScatter" Type="D" Min="-9.99000000e+02" Max="2.67741821e+03"/>
    <Variable VarIndex="4" Expression="MCS_pi_meanScatter" Label="MCS_pi_meanScatter" Title="MCS_pi_meanScatter" Unit="" Internal="MCS_pi_meanScatter" Type="D" Min="-9.99000000e+02" Max="1.52658960e+03"/>
  </Variables>
  <Spectators NSpec="7">
    <Spectator SpecIndex="0" Expression="track_length" Label="track_length" Title="track_length" Unit="" Internal="track_length" Type="F" Min="9.73554373e-01" Max="9.32965271e+02"/>
    <Spectator SpecIndex="1" Expression="pandoraclassedastrack" Label="pandoraclassedastrack" Title="pandoraclassedastrack" Unit="" Internal="pandoraclassedastrack" Type="F" Min="0.00000000e+00" Max="1.00000000e+00"/>
    <Spectator SpecIndex="2" Expression="lnLmipovermu" Label="lnLmipovermu" Title="lnLmipovermu" Unit="" Internal="lnLmipovermu" Type="F" Min="-4.21780586e+01" Max="1.15048275e+01"/>
    <Spectator SpecIndex="3" Expression="lnLmipoverpi" Label="lnLmipoverpi" Title="lnLmipoverpi" Unit="" Internal="lnLmipoverpi" Type="F" Min="-4.26548538e+01" Max="1.69262638e+01"/>
    <Spectator SpecIndex="4" Expression="ndaughters" Label="ndaughters" Title="ndaughters" Unit="" Internal="ndaughters" Type="F" Min="0.00000000e+00" Max="2.00000000e+00"/>
    <Spectator SpecIndex="5" Expression="n_unused_hits_nearend" Label="n_unused_hits_nearend" Title="n_unused_hits_nearend" Unit="" Internal="n_unused_hits_nearend" Type="F" Min="0.00000000e+00" Max="3.00000000e+01"/>
    <Spectator SpecIndex="6" Expression="unmatched_charge_nearend_plane2" Label="unmatched_charge_nearend_plane2" Title="unmatched_charge_nearend_plane2" Unit="" Internal="unmatched_charge_nearend_plane2" Type="F" Min="0.00000000e+00" Max="3.64457520e+03"/>
  </Spectators>
  <Classes NClass="2">
    <Class Name="Signal" Index="0"/>
    <Class Name="Background" Index="1"/>
  </Classes>
  <Transformations NTransformations="0"/>
  <MVAPdfs>
    <PDF Name="BDTG_PDFSig" MinNSmooth="0" MaxNSmooth="0" InterpolMethod="2" KDE_type="1" KDE_iter="1" KDE_border="1" KDE_finefactor="1.0000000000000000e+00">
      <Histogram Name="BDT_tr_S_original" NBins="40" XMin="-9.8823988437652588e-01" XMax="9.9945741891860962e-01" HasEquidistantBins="1">
        0.00000000e+00 6.04317971e-02 1.00719662e-01 6.04317971e-02 2.01439324e-01 2.21583256e-01 2.01439324e-01 1.81295391e-01 1.41007527e-01 2.01439324e-01 2.21583256e-01 3.22302918e-01 1.61151459e-01 2.82015053e-01 2.61871121e-01 3.02158985e-01 1.81295391e-01 3.02158985e-01 3.42446850e-01 3.42446850e-01 1.81295391e-01 3.22302918e-01 3.62590783e-01 3.82734715e-01 1.81295391e-01 3.82734715e-01 1.81295391e-01 2.82015053e-01 3.82734715e-01 2.41727188e-01 4.83454377e-01 6.04317971e-01 4.02878647e-01 3.62590783e-01 4.83454377e-01 6.44605836e-01 1.00719662e+00 1.59137066e+00 2.37698402e+00 5.17699062e+00 
      </Histogram>
    </PDF>
    <PDF Name="BDTG_PDFBkg" MinNSmooth="0" MaxNSmooth="0" InterpolMethod="2" KDE_type="1" KDE_iter="1" KDE_border="1" KDE_finefactor="1.0000000000000000e+00">
      <Histogram Name="BDT_tr_B_original" NBins="40" XMin="-9.8823988437652588e-01" XMax="9.9945741891860962e-01" HasEquidistantBins="1">
        6.84208807e-01 1.58977929e+00 1.75076959e+00 1.93188369e+00 1.99225505e+00 1.73064581e+00 1.32817004e+00 1.00618942e+00 9.45818056e-01 8.45199114e-01 5.23218499e-01 6.23837441e-01 6.03713653e-01 4.62847134e-01 2.81733038e-01 3.62228192e-01 3.01856826e-01 3.21980615e-01 3.42104403e-01 3.62228192e-01 2.61609250e-01 2.61609250e-01 1.60990307e-01 1.81114096e-01 1.60990307e-01 2.01237884e-01 1.40866519e-01 4.02475769e-02 8.04951537e-02 6.03713653e-02 1.20742731e-01 1.20742731e-01 2.01237884e-02 8.04951537e-02 1.20742731e-01 2.01237884e-02 0.00000000e+00 2.01237884e-02 6.03713653e-02 2.01237884e-02 
      </Histogram>
    </PDF>
  </MVAPdfs>
  <Weights NTrees="1000" AnalysisType="1">
    <BinaryTree type="DecisionTree" boostWeight="1.0000000000000000e+00" itree="0">
      <Node pos="s" depth="0" NCoef="0" IVar="1" Cut="9.5257496833801270e-01" cType="1" res="-1.5564202331006527e-02" rms="4.9975770711898804e-01" purity="4.8443579673767090e-01" nType="0">
        <Node pos="l" depth="1" NCoef="0" IVar="1" Cut="2.7348411083221436e-01" cType="1" res="4.2068964242935181e-01" rms="2.7022251486778259e-01" purity="9.2068964242935181e-01" nType="0">
          <Node pos="l" depth="2" NCoef="0" IVar="-1" Cut="0.0000000000000000e+00" cType="1" res="9.2857144773006439e-02" rms="1.8557687103748322e-01" purity="9.6428573131561279e-01" nType="-99"/>
          <Node pos="r" depth="2" NCoef="0" IVar="-1" Cut="0.0000000000000000e+00" cType="1" res="7.5999997556209564e-02" rms="3.2496154308319092e-01" purity="8.7999999523162842e-01" nType="-99"/>
        </Node>
        <Node pos="r" depth="1" NCoef="0" IVar="4" Cut="2.9383237838745117e+01" cType="1" res="-1.8699187040328979e-01" rms="4.6371763944625854e-01" purity="3.1300812959671021e-01" nType="0">
          <Node pos="l" depth="2" NCoef="0" IVar="-1" Cut="0.0000000000000000e+00" cType="1" res="-7.4125871062278748e-02" rms="3.3560970425605774e-01" purity="1.2937062978744507e-01" nType="-99"/>
          <Node pos="r" depth="2" NCoef="0" IVar="-1" Cut="0.0000000000000000e+00" cType="1" res="-1.4159291982650757e-02" rms="4.9496248364448547e-01" purity="4.2920354008674622e-01" nType="-99"/>
        </Node>
      </Node>
    </BinaryTree>
    <BinaryTree type="DecisionTree" boostWeight="1.0000000000000000e+00" itree="1">
      <Node pos="s" depth="0" NCoef="0" IVar="1" Cut="9.0576457977294922e-01" cType="1" res="2.6152795180678368e-02" rms="4.8155862092971802e-01" purity="5.2653062343597412e-01" nType="0">
        <Node pos="l" depth="1" NCoef="0" IVar="4" Cut="3.2245716094970703e+01" cType="1" res="4.0840896964073181e-01" rms="2.1678088605403900e-01" purity="9.5065790414810181e-01" nType="0">
          <Node pos="l" depth="2" NCoef="0" IVar="-1" Cut="0.0000000000000000e+00" cType="1" res="7.3037698864936829e-02" rms="2.9251593351364136e-01" purity="9.0526318550109863e-01" nType="-99"/>
          <Node pos="r" depth="2" NCoef="0" IVar="-1" Cut="0.0000000000000000e+00" cType="1" res="8.6472660303115845e-02" rms="1.6753324866294861e-01" purity="9.7129184007644653e-01" nType="-99"/>
        </Node>
        <Node pos="r" depth="1" NCoef="0" IVar="4" Cut="6.7766273498535156e+01" cType="1" res="-1.4574939012527466e-01" rms="4.6881780028343201e-01" purity="3.3579882979393005e-01" nType="0">
          <Node pos="l" depth="2" NCoef="0" IVar="-1" Cut="0.0000000000000000e+00" cType="1" res="-4.2653810232877731e-02" rms="4.3964245915412903e-01" purity="2.6605504751205444e-01" nType="-99"/>
          <Node pos="r" depth="2" NCoef="0" IVar="-1" Cut="0.0000000000000000e+00" cType="1" res="2.6544410735368729e-02" rms="4.8362576961517334e-01" purity="6.2595421075820923e-01" nType="-99"/>
        </Node>
      </Node>
    </BinaryTree>
    <BinaryTree type="DecisionTree" boostWeight="1.0000000000000000e+00" itree="2">
      <Node pos="s" depth="0" NCoef="0" IVar="1" Cut="9.0501600503921509e-01" cType="1" res="-5.5490024387836456e-03" rms="4.6522560715675354e-01" purity="4.9505928158760071e-01" nType="0">
        <Node pos="l" depth="1" NCoef="0" IVar="1" Cut="2.1687227487564087e-01" cType="1" res="3.7494713068008423e-01" rms="2.0184782147407532e-01" purity="9.5709568262100220e-01" nType="0">
          <Node pos="l" depth="2" NCoef="0" IVar="-1" Cut="0.0000000000000000e+00" cType="1" res="8.5349544882774353e-02" rms="3.2364134676754475e-03" purity="1.0000000000000000e+00" nType="-99"/>
          <Node pos="r" depth="2" NCoef="0" IVar="-1" Cut="0.0000000000000000e+00" cType="1" res="7.2578683495521545e-02" rms="2.4835860729217529e-01" purity="9.3367344141006470e-01" nType="-99"/>
        </Node>
        <Node pos="r" depth="1" NCoef="0" IVar="4" Cut="7.5689758300781250e+01" cType="1" res="-1.6815876960754395e-01" rms="4.5078247785568237e-01" purity="2.9760226607322693e-01" nType="0">
          <Node pos="l" depth="2" NCoef="0" IVar="-1" Cut="0.0000000000000000e+00" cType="1" res="-4.0281996130943298e-02" rms="4.3411299586296082e-01" purity="2.5907590985298157e-01" nType="-99"/>
          <Node pos="r" depth="2" NCoef="0" IVar="-1" Cut="0.0000000000000000e+00" cType="1" res="3.6164734046906233e-03" rms="4.9941053986549377e-01" purity="5.2427184581756592e-01" nType="-99"/>
        </Node>
      </Node>
    </BinaryTree>
    <BinaryTree type="DecisionTree" boostWeight="1.0000000000000000e+00" itree="3">
      <Node pos="s" depth="0" NCoef="0" IVar="1" Cut="9.5257496833801270e-01" cType="1" res="-2.8861714527010918e-03" rms="4.4986188411712646e-01" purity="5.0000000000000000e-01" nType="0">
        <Node pos="l" depth="1" NCoef="0" IVar="1" Cut="2.6336106657981873e-01" cType="1" res="3.2718887925148010e-01" rms="2.2594343125820160e-01" purity="9.4585984945297241e-01" nType="0">
          <Node pos="l" depth="2" NCoef="0" IVar="-1" Cut="0.0000000000000000e+00" cType="1" res="7.8405231237411499e-02" rms="8.2821294665336609e-02" purity="9.9315071105957031e-01" nType="-99"/>
          <Node pos="r" depth="2" NCoef="0" IVar="-1" Cut="0.0000000000000000e+00" cType="1" res="6.1638880521059036e-02" rms="2.9473549127578735e-01" purity="9.0476191043853760e-01" nType="-99"/>
        </Node>
        <Node pos="r" depth="1" NCoef="0" IVar="4" Cut="7.4782707214355469e+01" cType="1" res="-1.5850713849067688e-01" rms="4.4512557983398438e-01" purity="2.8978979587554932e-01" nType="0">
          <Node pos="l" depth="2" NCoef="0" IVar="-1" Cut="0.0000000000000000e+00" cType="1" res="-4.0026798844337463e-02" rms="4.2441427707672119e-01" purity="2.4119718372821808e-01" nType="-99"/>
          <Node pos="r" depth="2" NCoef="0" IVar="-1" Cut="0.0000000000000000e+00" cType="1" res="1.2733804062008858e-02" rms="4.9461793899536133e-01" purity="5.7142859697341919e-01" nType="-99"/>
        </Node>
      </Node>
    </BinaryTree>
    <BinaryTree type="DecisionTree" boostWeight="1.0000000000000000e+00" itree="4">
      <Node pos="s" depth="0" NCoef="0" IVar="1" Cut="9.5282292366027832e-01" cType="1" res="-2.6698108762502670e-02" rms="4.4147667288780212e-01" purity="4.6673595905303955e-01" nType="0">
        <Node pos="l" depth="1" NCoef="0" IVar="0" Cut="1.0079612731933594e+00" cType="1" res="2.8945061564445496e-01" rms="2.3731374740600586e-01" purity="9.3984961509704590e-01" nType="0">
          <Node pos="l" depth="2" NCoef="0" IVar="-1" Cut="0.0000000000000000e+00" cType="1" res="6.0660451650619507e-02" rms="2.6210111379623413e-01" purity="9.2558139562606812e-01" nType="-99"/>
          <Node pos="r" depth="2" NCoef="0" IVar="-1" Cut="0.0000000000000000e+00" cType="1" res="7.6547659933567047e-02" rms="1.0090499185025692e-02" purity="1.0000000000000000e+00" nType="-99"/>
        </Node>
        <Node pos="r" depth="1" NCoef="0" IVar="4" Cut="5.3129112243652344e+01" cType="1" res="-1.4752505719661713e-01" rms="4.4166469573974609e-01" purity="2.8591954708099365e-01" nType="0">
          <Node pos="l" depth="2" NCoef="0" IVar="-1" Cut="0.0000000000000000e+00" cType="1" res="-4.5054428279399872e-02" rms="3.9600294828414917e-01" purity="1.9681908190250397e-01" nType="-99"/>
          <Node pos="r" depth="2" NCoef="0" IVar="-1" Cut="0.0000000000000000e+00" cType="1" res="7.6210540719330311e-03" rms="4.9720883369445801e-01" purity="5.1813471317291260e-01" nType="-99"/>
        </Node>
      </Node>
    </BinaryTree>
    <BinaryTree type="DecisionTree" boostWeight="1.0000000000000000e+00" itree="5">
      <Node pos="s" depth="0" NCoef="0" IVar="1" Cut="9.5282292366027832e-01" cType="1" res="-1.5732239931821823e-02" rms="4.3206289410591125e-01" purity="4.8055833578109741e-01" nType="0">
        <Node pos="l" depth="1" NCoef="0" IVar="0" Cut="9.4808357954025269e-01" cType="1" res="2.5754010677337646e-01" rms="2.4371866881847382e-01" purity="9.3624162673950195e-01" nType="0">
          <Node pos="l" depth="2" NCoef="0" IVar="-1" Cut="0.0000000000000000e+00" cType="1" res="7.3436066508293152e-02" rms="9.1183511540293694e-03" purity="1.0000000000000000e+00" nType="-99"/>
          <Node pos="r" depth="2" NCoef="0" IVar="-1" Cut="0.0000000000000000e+00" cType="1" res="5.6982818990945816e-02" rms="2.6015132665634155e-01" purity="9.2664092779159546e-01" nType="-99"/>
        </Node>
        <Node pos="r" depth="1" NCoef="0" IVar="2" Cut="8.9467787742614746e-01" cType="1" res="-1.3124309480190277e-01" rms="4.4223308563232422e-01" purity="2.8794327378273010e-01" nType="0">
          <Node pos="l" depth="2" NCoef="0" IVar="-1" Cut="0.0000000000000000e+00" cType="1" res="5.1832843571901321e-02" rms="4.4551512598991394e-01" purity="7.1153843402862549e-01" nType="-99"/>
          <Node pos="r" depth="2" NCoef="0" IVar="-1" Cut="0.0000000000000000e+00" cType="1" res="-3.3592462539672852e-02" rms="4.2729756236076355e-01" purity="2.5421133637428284e-01" nType="-99"/>
        </Node>
      </Node>
    </BinaryTree>
    <BinaryTree type="DecisionTree" boostWeight="1.0000000000000000e+00" itree="6">
      <Node pos="s" depth="0" NCoef="0" IVar="1" Cut="9.5257496833801270e-01" cType="1" res="1.8412986537441611e-03" rms="4.2495226860046387e-01" purity="5.0557243824005127e-01" nType="0">
        <Node pos="l" depth="1" NCoef="0" IVar="0" Cut="9.7381567955017090e-01" cType="1" res="2.1689182519912720e-01" rms="2.6784417033195496e-01" purity="9.2163008451461792e-01" nType="0">
          <Node pos="l" depth="2" NCoef="0" IVar="-1" Cut="0.0000000000000000e+00" cType="1" res="3.5231605172157288e-02" rms="3.5164752602577209e-01" purity="8.5321098566055298e-01" nType="-99"/>
          <Node pos="r" depth="2" NCoef="0" IVar="-1" Cut="0.0000000000000000e+00" cType="1" res="6.0899741947650909e-02" rms="2.0199699699878693e-01" purity="9.5714282989501953e-01" nType="-99"/>
        </Node>
        <Node pos="r" depth="1" NCoef="0" IVar="4" Cut="3.1567611694335938e+01" cType="1" res="-1.0085498541593552e-01" rms="4.4713628292083740e-01" purity="3.0688622593879700e-01" nType="0">
          <Node pos="l" depth="2" NCoef="0" IVar="-1" Cut="0.0000000000000000e+00" cType="1" res="-5.0547990947961807e-02" rms="3.3953025937080383e-01" purity="1.3448275625705719e-01" nType="-99"/>
          <Node pos="r" depth="2" NCoef="0" IVar="-1" Cut="0.0000000000000000e+00" cType="1" res="5.0584919517859817e-04" rms="4.9018928408622742e-01" purity="4.3915343284606934e-01" nType="-99"/>
        </Node>
      </Node>
    </BinaryTree>
    <BinaryTree type="DecisionTree" boostWeight="1.0000000000000000e+00" itree="7">
      <Node pos="s" depth="0" NCoef="0" IVar="1" Cut="9.5288228988647461e-01" cType="1" res="8.7597211822867393e-03" rms="4.1768524050712585e-01" purity="5.0984454154968262e-01" nType="0">
        <Node pos="l" depth="1" NCoef="0" IVar="1" Cut="6.3875520229339600e-01" cType="1" res="2.1279615163803101e-01" rms="2.4080474674701691e-01" purity="9.3831169605255127e-01" nType="0">
          <Node pos="l" depth="2" NCoef="0" IVar="-1" Cut="0.0000000000000000e+00" cType="1" res="5.6967195123434067e-02" rms="2.0951314270496368e-01" purity="9.5384615659713745e-01" nType="-99"/>
          <Node pos="r" depth="2" NCoef="0" IVar="-1" Cut="0.0000000000000000e+00" cType="1" res="3.5633675754070282e-02" rms="3.5925546288490295e-01" purity="8.5416668653488159e-01" nType="-99"/>
        </Node>
        <Node pos="r" depth="1" NCoef="0" IVar="4" Cut="6.0942863464355469e+01" cType="1" res="-8.6892060935497284e-02" rms="4.4765833020210266e-01" purity="3.0898022651672363e-01" nType="0">
          <Node pos="l" depth="2" NCoef="0" IVar="-1" Cut="0.0000000000000000e+00" cType="1" res="-2.9238801449537277e-02" rms="4.1712319850921631e-01" purity="2.3246492445468903e-01" nType="-99"/>
          <Node pos="r" depth="2" NCoef="0" IVar="-1" Cut="0.0000000000000000e+00" cType="1" res="1.3447278179228306e-02" rms="5.0269061326980591e-01" purity="5.5063289403915405e-01" nType="-99"/>
        </Node>
      </Node>
    </BinaryTree>
    <BinaryTree type="DecisionTree" boostWeight="1.0000000000000000e+00" itree="8">
      <Node pos="s" depth="0" NCoef="0" IVar="1" Cut="9.5250797271728516e-01" cType="1" res="9.2163980007171631e-03" rms="4.1517344117164612e-01" purity="5.0637882947921753e-01" nType="0">
        <Node pos="l" depth="1" NCoef="0" IVar="1" Cut="1.8254235386848450e-01" cType="1" res="1.8635517358779907e-01" rms="2.4800720810890198e-01" purity="9.3354427814483643e-01" nType="0">
          <Node pos="l" depth="2" NCoef="0" IVar="-1" Cut="0.0000000000000000e+00" cType="1" res="6.1330836266279221e-02" rms="1.3079614937305450e-01" purity="9.8275864124298096e-01" nType="-99"/>
          <Node pos="r" depth="2" NCoef="0" IVar="-1" Cut="0.0000000000000000e+00" cType="1" res="4.2727816849946976e-02" rms="2.9303267598152161e-01" purity="9.0499997138977051e-01" nType="-99"/>
        </Node>
        <Node pos="r" depth="1" NCoef="0" IVar="2" Cut="9.0147781372070312e-01" cType="1" res="-7.0407859981060028e-02" rms="4.4917353987693787e-01" purity="3.1436699628829956e-01" nType="0">
          <Node pos="l" depth="2" NCoef="0" IVar="-1" Cut="0.0000000000000000e+00" cType="1" res="5.2849903702735901e-02" rms="4.7020071744918823e-01" purity="7.2000002861022949e-01" nType="-99"/>
          <Node pos="r" depth="2" NCoef="0" IVar="-1" Cut="0.0000000000000000e+00" cType="1" res="-2.0598821341991425e-02" rms="4.3748602271080017e-01" purity="2.8330782055854797e-01" nType="-99"/>
        </Node>
      </Node>
    </BinaryTree>
    <BinaryTree type="DecisionTree" boostWeight="1.0000000000000000e+00" itree="9">
      <Node pos="s" depth="0" NCoef="0" IVar="1" Cut="9.0501600503921509e-01" cType="1" res="7.7565172687172890e-03" rms="4.0903851389884949e-01" purity="5.0415802001953125e-01" nType="0">
        <Node pos="l" depth="1" NCoef="0" IVar="3" Cut="5.0753410339355469e+01" cType="1" res="1.7373569309711456e-01" rms="2.3402465879917145e-01" purity="9.4117647409439087e-01" nType="0">
          <Node pos="l" depth="2" NCoef="0" IVar="-1" Cut="0.0000000000000000e+00" cType="1" res="3.6913894116878510e-02" rms="3.0175000429153442e-01" purity="8.9719623327255249e-01" nType="-99"/>
          <Node pos="r" depth="2" NCoef="0" IVar="-1" Cut="0.0000000000000000e+00" cType="1" res="5.5765278637409210e-02" rms="1.7853394150733948e-01" purity="9.6703296899795532e-01" nType="-99"/>
        </Node>
        <Node pos="r" depth="1" NCoef="0" IVar="2" Cut="8.7514519691467285e-01" cType="1" res="-6.3518345355987549e-02" rms="4.4579297304153442e-01" purity="3.1649330258369446e-01" nType="0">
          <Node pos="l" depth="2" NCoef="0" IVar="-1" Cut="0.0000000000000000e+00" cType="1" res="4.9158684909343719e-02" rms="4.2763480544090271e-01" purity="7.2500002384185791e-01" nType="-99"/>
          <Node pos="r" depth="2" NCoef="0" IVar="-1" Cut="0.0000000000000000e+00" cType="1" res="-1.7983170226216316e-02" rms="4.3999499082565308e-01" purity="2.9067930579185486e-01" nType="-99"/>
        </Node>
      </Node>
    </BinaryTree>
    <BinaryTree type="DecisionTree" boostWeight="1.0000000000000000e+00" itree="10">
      <Node pos="s" depth="0" NCoef="0" IVar="1" Cut="7.6253998279571533e-01" cType="1" res="-1.9076891243457794e-02" rms="4.0475952625274658e-01" purity="4.7430831193923950e-01" nType="0">
        <Node pos="l" depth="1" NCoef="0" IVar="1" Cut="5.6341361999511719e-01" cType="1" res="1.6062068939208984e-01" rms="2.2663670778274536e-01" purity="9.4505494832992554e-01" nType="0">
          <Node pos="l" depth="2" NCoef="0" IVar="-1" Cut="0.0000000000000000e+00" cType="1" res="5.1112364977598190e-02" rms="2.0006100833415985e-01" purity="9.5798319578170776e-01" nType="-99"/>
          <Node pos="r" depth="2" NCoef="0" IVar="-1" Cut="0.0000000000000000e+00" cType="1" res="2.4428937584161758e-02" rms="3.4947386384010315e-01" purity="8.5714286565780640e-01" nType="-99"/>
        </Node>
        <Node pos="r" depth="1" NCoef="0" IVar="0" Cut="1.0064414739608765e+00" cType="1" res="-8.5460439324378967e-02" rms="4.3478909134864807e-01" purity="3.0040594935417175e-01" nType="0">
          <Node pos="l" depth="2" NCoef="0" IVar="-1" Cut="0.0000000000000000e+00" cType="1" res="-2.3775316774845123e-02" rms="4.2292237281799316e-01" purity="2.6916524767875671e-01" nType="-99"/>
          <Node pos="r" depth="2" NCoef="0" IVar="-1" Cut="0.0000000000000000e+00" cType="1" res="-1.7342792125418782e-04" rms="4.6832221746444702e-01" purity="4.2105263471603394e-01" nType="-99"/>
        </Node>
      </Node>
    </BinaryTree>
    <BinaryTree type="DecisionTree" boostWeight="1.0000000000000000e+00" itree="11">
      <Node pos="s" depth="0" NCoef="0" IVar="1" Cut="9.5288228988647461e-01" cType="1" res="8.0839041620492935e-03" rms="4.0134379267692566e-01" purity="5.0000000000000000e-01" nType="0">
        <Node pos="l" depth="1" NCoef="0" IVar="3" Cut="5.6712665557861328e+01" cType="1" res="1.4311575889587402e-01" rms="2.4470563232898712e-01" purity="9.3639576435089111e-01" nType="0">
          <Node pos="l" depth="2" NCoef="0" IVar="-1" Cut="0.0000000000000000e+00" cType="1" res="2.6728244498372078e-02" rms="3.2143437862396240e-01" purity="8.8034188747406006e-01" nType="-99"/>
          <Node pos="r" depth="2" NCoef="0" IVar="-1" Cut="0.0000000000000000e+00" cType="1" res="5.6266311556100845e-02" rms="1.5993334352970123e-01" purity="9.7590363025665283e-01" nType="-99"/>
        </Node>
        <Node pos="r" depth="1" NCoef="0" IVar="4" Cut="5.0377521514892578e+01" cType="1" res="-4.9037195742130280e-02" rms="4.3921375274658203e-01" purity="3.1539610028266907e-01" nType="0">
          <Node pos="l" depth="2" NCoef="0" IVar="-1" Cut="0.0000000000000000e+00" cType="1" res="-2.7985399588942528e-02" rms="3.9758834242820740e-01" purity="2.0459289848804474e-01" nType="-99"/>
          <Node pos="r" depth="2" NCoef="0" IVar="-1" Cut="0.0000000000000000e+00" cType="1" res="2.8019145131111145e-02" rms="4.8213955760002136e-01" purity="5.9473681449890137e-01" nType="-99"/>
        </Node>
      </Node>
    </BinaryTree>
    <BinaryTree type="DecisionTree" boostWeight="1.0000000000000000e+00" itree="12">
      <Node pos="s" depth="0" NCoef="0" IVar="1" Cut="9.0564578771591187e-01" cType="1" res="2.9602635186165571e-03" rms="4.1725251078605652e-01" purity="4.8932039737701416e-01" nType="0">
        <Node pos="l" depth="1" NCoef="0" IVar="3" Cut="6.2763950347900391e+01" cType="1" res="9.5627948641777039e-02" rms="2.8826820850372314e-01" purity="9.0714287757873535e-01" nType="0">
          <Node pos="l" depth="2" NCoef="0" IVar="-1" Cut="0.0000000000000000e+00" cType="1" res="2.0790770649909973e-02" rms="3.3572009205818176e-01" purity="8.6923074722290039e-01" nType="-99"/>
          <Node pos="r" depth="2" NCoef="0" IVar="-1" Cut="0.0000000000000000e+00" cType="1" res="4.0983904153108597e-02" rms="2.3657733201980591e-01" purity="9.3999999761581421e-01" nType="-99"/>
        </Node>
        <Node pos="r" depth="1" NCoef="0" IVar="0" Cut="9.6657079458236694e-01" cType="1" res="-3.1635671854019165e-02" rms="4.5129880309104919e-01" purity="3.3333334326744080e-01" nType="0">
          <Node pos="l" depth="2" NCoef="0" IVar="-1" Cut="0.0000000000000000e+00" cType="1" res="1.7518255859613419e-02" rms="4.7960743308067322e-01" purity="4.5985400676727295e-01" nType="-99"/>
          <Node pos="r" depth="2" NCoef="0" IVar="-1" Cut="0.0000000000000000e+00" cType="1" res="-1.2670912779867649e-02" rms="4.4086050987243652e-01" purity="3.0505710840225220e-01" nType="-99"/>
        </Node>
      </Node>
    </BinaryTree>
    <BinaryTree type="DecisionTree" boostWeight="1.0000000000000000e+00" itree="13">
      <Node pos="s" depth="0" NCoef="0" IVar="1" Cut="9.0501600503921509e-01" cType="1" res="-9.1109592467546463e-03" rms="3.9038568735122681e-01" purity="4.9287748336791992e-01" nType="0">
        <Node pos="l" depth="1" NCoef="0" IVar="3" Cut="1.1340351867675781e+02" cType="1" res="1.1901108175516129e-01" rms="2.3647883534431458e-01" purity="9.3883794546127319e-01" nType="0">
          <Node pos="l" depth="2" NCoef="0" IVar="-1" Cut="0.0000000000000000e+00" cType="1" res="3.4159664064645767e-02" rms="2.7187603712081909e-01" purity="9.1774892807006836e-01" nType="-99"/>
          <Node pos="r" depth="2" NCoef="0" IVar="-1" Cut="0.0000000000000000e+00" cType="1" res="5.6471578776836395e-02" rms="1.0230877995491028e-01" purity="9.8958331346511841e-01" nType="-99"/>
        </Node>
        <Node pos="r" depth="1" NCoef="0" IVar="4" Cut="5.0377521514892578e+01" cType="1" res="-6.6818818449974060e-02" rms="4.3027022480964661e-01" purity="2.9201102256774902e-01" nType="0">
          <Node pos="l" depth="2" NCoef="0" IVar="-1" Cut="0.0000000000000000e+00" cType="1" res="-3.0700623989105225e-02" rms="3.8018751144409180e-01" purity="1.7835670709609985e-01" nType="-99"/>
          <Node pos="r" depth="2" NCoef="0" IVar="-1" Cut="0.0000000000000000e+00" cType="1" res="1.4913586899638176e-02" rms="4.9590507149696350e-01" purity="5.4185020923614502e-01" nType="-99"/>
        </Node>
      </Node>
    </BinaryTree>
    <BinaryTree type="DecisionTree" boostWeight="1.0000000000000000e+00" itree="14">
      <Node pos="s" depth="0" NCoef="0" IVar="1" Cut="9.5250797271728516e-01" cType="1" res="5.8466494083404541e-03" rms="4.0271097421646118e-01" purity="5.1583248376846313e-01" nType="0">
        <Node pos="l" depth="1" NCoef="0" IVar="1" Cut="6.7719686031341553e-01" cType="1" res="8.4303259849548340e-02" rms="2.7563509345054626e-01" purity="9.1639870405197144e-01" nType="0">
          <Node pos="l" depth="2" NCoef="0" IVar="-1" Cut="0.0000000000000000e+00" cType="1" res="2.6345288380980492e-02" rms="2.8651365637779236e-01" purity="9.0780138969421387e-01" nType="-99"/>
          <Node pos="r" depth="2" NCoef="0" IVar="-1" Cut="0.0000000000000000e+00" cType="1" res="6.3156791031360626e-02" rms="3.7625391036272049e-02" purity="1.0000000000000000e+00" nType="-99"/>
        </Node>
        <Node pos="r" depth="1" NCoef="0" IVar="2" Cut="9.5005804300308228e-01" cType="1" res="-3.0680306255817413e-02" rms="4.4509416818618774e-01" purity="3.2934132218360901e-01" nType="0">
          <Node pos="l" depth="2" NCoef="0" IVar="-1" Cut="0.0000000000000000e+00" cType="1" res="1.5921877697110176e-02" rms="4.8753887414932251e-01" purity="4.9242424964904785e-01" nType="-99"/>
          <Node pos="r" depth="2" NCoef="0" IVar="-1" Cut="0.0000000000000000e+00" cType="1" res="-1.2800669297575951e-02" rms="4.3019002676010132e-01" purity="2.8917911648750305e-01" nType="-99"/>
        </Node>
      </Node>
    </BinaryTree>
    <BinaryTree type="DecisionTree" boostWeight="1.0000000000000000e+00" itree="15">
      <Node pos="s" depth="0" NCoef="0" IVar="1" Cut="9.5250797271728516e-01" cType="1" res="2.5322446599602699e-02" rms="3.9078271389007568e-01" purity="5.3150409460067749e-01" nType="0">
        <Node pos="l" depth="1" NCoef="0" IVar="1" Cut="6.7929154634475708e-01" cType="1" res="1.1234597116708755e-01" rms="2.1362580358982086e-01" purity="9.5207667350769043e-01" nType="0">
          <Node pos="l" depth="2" NCoef="0" IVar="-1" Cut="0.0000000000000000e+00" cType="1" res="3.9485469460487366e-02" rms="2.2294580936431885e-01" purity="9.4699645042419434e-01" nType="-99"/>
          <Node pos="r" depth="2" NCoef="0" IVar="-1" Cut="0.0000000000000000e+00" cType="1" res="6.1927277594804764e-02" rms="3.8708668202161789e-02" purity="1.0000000000000000e+00" nType="-99"/>
        </Node>
        <Node pos="r" depth="1" NCoef="0" IVar="2" Cut="8.6834734678268433e-01" cType="1" res="-1.5271239914000034e-02" rms="4.4438475370407104e-01" purity="3.3532041311264038e-01" nType="0">
          <Node pos="l" depth="2" NCoef="0" IVar="-1" Cut="0.0000000000000000e+00" cType="1" res="5.7767268270254135e-02" rms="4.1132211685180664e-01" purity="8.0555558204650879e-01" nType="-99"/>
          <Node pos="r" depth="2" NCoef="0" IVar="-1" Cut="0.0000000000000000e+00" cType="1" res="-7.2987121529877186e-03" rms="4.4040676951408386e-01" purity="3.0866143107414246e-01" nType="-99"/>
        </Node>
      </Node>
    </BinaryTree>
    <BinaryTree type="DecisionTree" boostWeight="1.0000000000000000e+00" itree="16">
      <Node pos="s" depth="0" NCoef="0" IVar="1" Cut="9.5282292366027832e-01" cType="1" res="-2.2186279296875000e-02" rms="3.8755482435226440e-01" purity="4.8484849929809570e-01" nType="0">
        <Node pos="l" depth="1" NCoef="0" IVar="1" Cut="3.6208245158195496e-01" cType="1" res="8.2000970840454102e-02" rms="2.5074493885040283e-01" purity="9.3290734291076660e-01" nType="0">
          <Node pos="l" depth="2" NCoef="0" IVar="-1" Cut="0.0000000000000000e+00" cType="1" res="2.1109931170940399e-02" rms="2.8557765483856201e-01" purity="9.0909093618392944e-01" nType="-99"/>
          <Node pos="r" depth="2" NCoef="0" IVar="-1" Cut="0.0000000000000000e+00" cType="1" res="4.7738950699567795e-02" rms="1.7808151245117188e-01" purity="9.6825397014617920e-01" nType="-99"/>
        </Node>
        <Node pos="r" depth="1" NCoef="0" IVar="3" Cut="2.5894412231445312e+02" cType="1" res="-7.0355571806430817e-02" rms="4.2805778980255127e-01" purity="2.7769571542739868e-01" nType="0">
          <Node pos="l" depth="2" NCoef="0" IVar="-1" Cut="0.0000000000000000e+00" cType="1" res="-1.3083877973258495e-02" rms="4.2645773291587830e-01" purity="2.8070175647735596e-01" nType="-99"/>
          <Node pos="r" depth="2" NCoef="0" IVar="-1" Cut="0.0000000000000000e+00" cType="1" res="-5.0013121217489243e-02" rms="4.0966096520423889e-01" purity="2.3999999463558197e-01" nType="-99"/>
        </Node>
      </Node>
    </BinaryTree>
    <BinaryTree type="DecisionTree" boostWeight="1.0000000000000000e+00" itree="17">
      <Node pos="s" depth="0" NCoef="0" IVar="1" Cut="4.7758799791336060e-01" cType="1" res="-4.0981540223583579e-04" rms="4.0050458908081055e-01" purity="5.0238776206970215e-01" nType="0">
        <Node pos="l" depth="1" NCoef="0" IVar="0" Cut="9.8488479852676392e-01" cType="1" res="7.6593637466430664e-02" rms="2.4200829863548279e-01" purity="9.3697476387023926e-01" nType="0">
          <Node pos="l" depth="2" NCoef="0" IVar="-1" Cut="0.0000000000000000e+00" cType="1" res="9.3804122880101204e-03" rms="3.2395672798156738e-01" purity="8.7999999523162842e-01" nType="-99"/>
          <Node pos="r" depth="2" NCoef="0" IVar="-1" Cut="0.0000000000000000e+00" cType="1" res="4.8840764909982681e-02" rms="1.4616264402866364e-01" purity="9.7826087474822998e-01" nType="-99"/>
        </Node>
        <Node pos="r" depth="1" NCoef="0" IVar="4" Cut="7.2700942993164062e+01" cType="1" res="-2.3063490167260170e-02" rms="4.3371129035949707e-01" purity="3.7453645467758179e-01" nType="0">
          <Node pos="l" depth="2" NCoef="0" IVar="-1" Cut="0.0000000000000000e+00" cType="1" res="-1.0742746293544769e-02" rms="4.2425656318664551e-01" purity="3.1523379683494568e-01" nType="-99"/>
          <Node pos="r" depth="2" NCoef="0" IVar="-1" Cut="0.0000000000000000e+00" cType="1" res="1.5988273546099663e-02" rms="4.6285399794578552e-01" purity="6.4383560419082642e-01" nType="-99"/>
        </Node>
      </Node>
    </BinaryTree>
    <BinaryTree type="DecisionTree" boostWeight="1.0000000000000000e+00" itree="18">
      <Node pos="s" depth="0" NCoef="0" IVar="4" Cut="7.2704910278320312e+01" cType="1" res="-5.5615687742829323e-03" rms="3.8876965641975403e-01" purity="4.9651741981506348e-01" nType="0">
        <Node pos="l" depth="1" NCoef="0" IVar="4" Cut="2.3916450500488281e+01" cType="1" res="-3.3008828759193420e-02" rms="3.8901865482330322e-01" purity="4.0450927615165710e-01" nType="0">
          <Node pos="l" depth="2" NCoef="0" IVar="-1" Cut="0.0000000000000000e+00" cType="1" res="-3.1687736511230469e-02" rms="3.2755300402641296e-01" purity="3.1448763608932495e-01" nType="-99"/>
          <Node pos="r" depth="2" NCoef="0" IVar="-1" Cut="0.0000000000000000e+00" cType="1" res="3.5649654455482960e-03" rms="4.1470396518707275e-01" purity="4.5859873294830322e-01" nType="-99"/>
        </Node>
        <Node pos="r" depth="1" NCoef="0" IVar="0" Cut="1.0280376672744751e+00" cType="1" res="7.6889567077159882e-02" rms="3.7616321444511414e-01" purity="7.7290838956832886e-01" nType="0">
          <Node pos="l" depth="2" NCoef="0" IVar="-1" Cut="0.0000000000000000e+00" cType="1" res="2.8546245768666267e-02" rms="3.6316874623298645e-01" purity="7.9245281219482422e-01" nType="-99"/>
          <Node pos="r" depth="2" NCoef="0" IVar="-1" Cut="0.0000000000000000e+00" cType="1" res="-1.6470745205879211e-02" rms="4.1608074307441711e-01" purity="6.6666668653488159e-01" nType="-99"/>
        </Node>
      </Node>
    </BinaryTree>
    <BinaryTree type="DecisionTree" boostWeight="1.0000000000000000e+00" itree="19">
      <Node pos="s" depth="0" NCoef="0" IVar="0" Cut="9.5262140035629272e-01" cType="1" res="-1.5352519229054451e-02" rms="3.8576534390449524e-01" purity="4.8440545797348022e-01" nType="0">
        <Node pos="l" depth="1" NCoef="0" IVar="2" Cut="9.2063492536544800e-01" cType="1" res="1.2694853544235229e-01" rms="3.6146533489227295e-01" purity="7.3873871564865112e-01" nType="0">
          <Node pos="l" depth="2" NCoef="0" IVar="-1" Cut="0.0000000000000000e+00" cType="1" res="-1.8770361784845591e-03" rms="3.1477198004722595e-01" purity="7.5000000000000000e-01" nType="-99"/>
          <Node pos="r" depth="2" NCoef="0" IVar="-1" Cut="0.0000000000000000e+00" cType="1" res="5.3506534546613693e-02" rms="3.6517620086669922e-01" purity="7.3333334922790527e-01" nType="-99"/>
        </Node>
        <Node pos="r" depth="1" NCoef="0" IVar="4" Cut="3.2243034362792969e+01" cType="1" res="-3.2615270465612411e-02" rms="3.8504952192306519e-01" purity="4.5355191826820374e-01" nType="0">
          <Node pos="l" depth="2" NCoef="0" IVar="-1" Cut="0.0000000000000000e+00" cType="1" res="-2.7516644448041916e-02" rms="3.4194067120552063e-01" purity="2.9899498820304871e-01" nType="-99"/>
          <Node pos="r" depth="2" NCoef="0" IVar="-1" Cut="0.0000000000000000e+00" cType="1" res="4.4971490278840065e-03" rms="4.0836519002914429e-01" purity="5.7253384590148926e-01" nType="-99"/>
        </Node>
      </Node>
    </BinaryTree>
    <BinaryTree type="DecisionTree" boostWeight="1.0000000000000000e+00" itree="20">
      <Node pos="s" depth="0" NCoef="0" IVar="2" Cut="9.4397759437561035e-01" cType="1" res="2.2503335028886795e-02" rms="3.9475741982460022e-01" purity="5.1274210214614868e-01" nType="0">
        <Node pos="l" depth="1" NCoef="0" IVar="2" Cut="9.1831594705581665e-01" cType="1" res="1.1011975258588791e-01" rms="3.4727320075035095e-01" purity="7.5697213411331177e-01" nType="0">
          <Node pos="l" depth="2" NCoef="0" IVar="-1" Cut="0.0000000000000000e+00" cType="1" res="4.1048377752304077e-02" rms="3.2734549045562744e-01" purity="8.4482759237289429e-01" nType="-99"/>
          <Node pos="r" depth="2" NCoef="0" IVar="-1" Cut="0.0000000000000000e+00" cType="1" res="1.6456149518489838e-02" rms="3.8406848907470703e-01" purity="5.5844157934188843e-01" nType="-99"/>
        </Node>
        <Node pos="r" depth="1" NCoef="0" IVar="3" Cut="3.2756915283203125e+02" cType="1" res="-7.6223108917474747e-03" rms="4.0546435117721558e-01" purity="4.2876711487770081e-01" nType="0">
          <Node pos="l" depth="2" NCoef="0" IVar="-1" Cut="0.0000000000000000e+00" cType="1" res="8.7443058146163821e-04" rms="4.0611174702644348e-01" purity="4.3105950951576233e-01" nType="-99"/>
          <Node pos="r" depth="2" NCoef="0" IVar="-1" Cut="0.0000000000000000e+00" cType="1" res="-4.7048632055521011e-02" rms="3.4634098410606384e-01" purity="3.9024388790130615e-01" nType="-99"/>
        </Node>
      </Node>
    </BinaryTree>
    <BinaryTree type="DecisionTree" boostWeight="1.0000000000000000e+00" itree="21">
      <Node pos="s" depth="0" NCoef="0" IVar="1" Cut="6.6976028680801392e-01" cType="1" res="4.7222473658621311e-03" rms="3.8426563143730164e-01" purity="5.0047755241394043e-01" nType="0">
        <Node pos="l" depth="1" NCoef="0" IVar="0" Cut="9.7705042362213135e-01" cType="1" res="1.0353003442287445e-01" rms="1.6512075066566467e-01" purity="9.7142857313156128e-01" nType="0">
          <Node pos="l" depth="2" NCoef="0" IVar="-1" Cut="0.0000000000000000e+00" cType="1" res="5.4022304713726044e-02" rms="1.0115410387516022e-01" purity="9.9000000953674316e-01" nType="-99"/>
          <Node pos="r" depth="2" NCoef="0" IVar="-1" Cut="0.0000000000000000e+00" cType="1" res="4.0197554975748062e-02" rms="1.9027991592884064e-01" purity="9.6111112833023071e-01" nType="-99"/>
        </Node>
        <Node pos="r" depth="1" NCoef="0" IVar="4" Cut="3.3598159790039062e+01" cType="1" res="-3.1348392367362976e-02" rms="4.3214148283004761e-01" purity="3.2855281233787537e-01" nType="0">
          <Node pos="l" depth="2" NCoef="0" IVar="-1" Cut="0.0000000000000000e+00" cType="1" res="-2.3124232888221741e-02" rms="3.7562656402587891e-01" purity="1.8956044316291809e-01" nType="-99"/>
          <Node pos="r" depth="2" NCoef="0" IVar="-1" Cut="0.0000000000000000e+00" cType="1" res="4.1243219748139381e-03" rms="4.7191187739372253e-01" purity="4.5409429073333740e-01" nType="-99"/>
        </Node>
      </Node>
    </BinaryTree>
    <BinaryTree type="DecisionTree" boostWeight="1.0000000000000000e+00" itree="22">
      <Node pos="s" depth="0" NCoef="0" IVar="4" Cut="8.3395545959472656e+01" cType="1" res="7.5266817584633827e-03" rms="3.9633128046989441e-01" purity="5.1041668653488159e-01" nType="0">
        <Node pos="l" depth="1" NCoef="0" IVar="3" Cut="1.5929548645019531e+02" cType="1" res="-5.5130342952907085e-03" rms="4.0472623705863953e-01" purity="4.4713374972343445e-01" nType="0">
          <Node pos="l" depth="2" NCoef="0" IVar="-1" Cut="0.0000000000000000e+00" cType="1" res="2.4947272613644600e-03" rms="4.0443074703216553e-01" purity="4.6603259444236755e-01" nType="-99"/>
          <Node pos="r" depth="2" NCoef="0" IVar="-1" Cut="0.0000000000000000e+00" cType="1" res="-4.9741271883249283e-02" rms="3.4302747249603271e-01" purity="1.6326530277729034e-01" nType="-99"/>
        </Node>
        <Node pos="r" depth="1" NCoef="0" IVar="3" Cut="2.2115463256835938e+02" cType="1" res="6.6019125282764435e-02" rms="3.5032656788825989e-01" purity="7.9428571462631226e-01" nType="0">
          <Node pos="l" depth="2" NCoef="0" IVar="-1" Cut="0.0000000000000000e+00" cType="1" res="3.8774523884057999e-02" rms="3.0459547042846680e-01" purity="8.7179487943649292e-01" nType="-99"/>
          <Node pos="r" depth="2" NCoef="0" IVar="-1" Cut="0.0000000000000000e+00" cType="1" res="7.0482185110449791e-03" rms="3.7788930535316467e-01" purity="7.3195874691009521e-01" nType="-99"/>
        </Node>
      </Node>
    </BinaryTree>
    <BinaryTree type="DecisionTree" boostWeight="1.0000000000000000e+00" itree="23">
      <Node pos="s" depth="0" NCoef="0" IVar="4" Cut="1.7219613647460938e+02" cType="1" res="5.6741423904895782e-03" rms="3.8742274045944214e-01" purity="5.0844091176986694e-01" nType="0">
        <Node pos="l" depth="1" NCoef="0" IVar="3" Cut="2.7610656738281250e+02" cType="1" res="-5.4473341442644596e-03" rms="3.9486578106880188e-01" purity="4.7446808218955994e-01" nType="0">
          <Node pos="l" depth="2" NCoef="0" IVar="-1" Cut="0.0000000000000000e+00" cType="1" res="1.0567876743152738e-03" rms="3.9216837286949158e-01" purity="4.8057714104652405e-01" nType="-99"/>
          <Node pos="r" depth="2" NCoef="0" IVar="-1" Cut="0.0000000000000000e+00" cType="1" res="-4.9109157174825668e-02" rms="3.9631810784339905e-01" purity="3.3333334326744080e-01" nType="-99"/>
        </Node>
        <Node pos="r" depth="1" NCoef="0" IVar="1" Cut="3.9972203969955444e-01" cType="1" res="1.6170680522918701e-01" rms="2.0572946965694427e-01" purity="9.8507463932037354e-01" nType="0">
          <Node pos="l" depth="2" NCoef="0" IVar="-1" Cut="0.0000000000000000e+00" cType="1" res="4.0146064013242722e-02" rms="1.6180294752120972e-01" purity="9.7297298908233643e-01" nType="-99"/>
          <Node pos="r" depth="2" NCoef="0" IVar="-1" Cut="0.0000000000000000e+00" cType="1" res="8.5921570658683777e-02" rms="1.9877375662326813e-01" purity="1.0000000000000000e+00" nType="-99"/>
        </Node>
      </Node>
    </BinaryTree>
    <BinaryTree type="DecisionTree" boostWeight="1.0000000000000000e+00" itree="24">
      <Node pos="s" depth="0" NCoef="0" IVar="1" Cut="9.5282292366027832e-01" cType="1" res="1.3758765533566475e-02" rms="3.8981616497039795e-01" purity="5.1333332061767578e-01" nType="0">
        <Node pos="l" depth="1" NCoef="0" IVar="1" Cut="3.2283425331115723e-01" cType="1" res="7.4613273143768311e-02" rms="2.1100682020187378e-01" purity="9.5222932100296021e-01" nType="0">
          <Node pos="l" depth="2" NCoef="0" IVar="-1" Cut="0.0000000000000000e+00" cType="1" res="2.6249781250953674e-02" rms="2.3586738109588623e-01" purity="9.3782383203506470e-01" nType="-99"/>
          <Node pos="r" depth="2" NCoef="0" IVar="-1" Cut="0.0000000000000000e+00" cType="1" res="4.7286048531532288e-02" rms="1.5793959796428680e-01" purity="9.7520661354064941e-01" nType="-99"/>
        </Node>
        <Node pos="r" depth="1" NCoef="0" IVar="4" Cut="3.8389736175537109e+01" cType="1" res="-1.2203617952764034e-02" rms="4.4219538569450378e-01" purity="3.2608696818351746e-01" nType="0">
          <Node pos="l" depth="2" NCoef="0" IVar="-1" Cut="0.0000000000000000e+00" cType="1" res="-1.8807735294103622e-02" rms="3.8547709584236145e-01" purity="1.8592964112758636e-01" nType="-99"/>
          <Node pos="r" depth="2" NCoef="0" IVar="-1" Cut="0.0000000000000000e+00" cType="1" res="1.2231782078742981e-02" rms="4.9175757169723511e-01" purity="4.9112427234649658e-01" nType="-99"/>
        </Node>
      </Node>
    </BinaryTree>
    <BinaryTree type="DecisionTree" boostWeight="1.0000000000000000e+00" itree="25">
      <Node pos="s" depth="0" NCoef="0" IVar="3" Cut="2.2647273254394531e+02" cType="1" res="1.5335738135036081e-04" rms="3.9327725768089294e-01" purity="4.8393574357032776e-01" nType="0">
        <Node pos="l" depth="1" NCoef="0" IVar="4" Cut="6.4298522949218750e+01" cType="1" res="1.3151356019079685e-02" rms="3.9640179276466370e-01" purity="4.7228637337684631e-01" nType="0">
          <Node pos="l" depth="2" NCoef="0" IVar="-1" Cut="0.0000000000000000e+00" cType="1" res="-3.2404412049800158e-03" rms="3.9681592583656311e-01" purity="3.9633285999298096e-01" nType="-99"/>
          <Node pos="r" depth="2" NCoef="0" IVar="-1" Cut="0.0000000000000000e+00" cType="1" res="3.6720272153615952e-02" rms="3.7455663084983826e-01" purity="8.1528663635253906e-01" nType="-99"/>
        </Node>
        <Node pos="r" depth="1" NCoef="0" IVar="4" Cut="1.0281155395507812e+02" cType="1" res="-8.6433313786983490e-02" rms="3.6001080274581909e-01" purity="5.6153845787048340e-01" nType="0">
          <Node pos="l" depth="2" NCoef="0" IVar="-1" Cut="0.0000000000000000e+00" cType="1" res="-6.9165021181106567e-02" rms="3.1334283947944641e-01" purity="1.7073170840740204e-01" nType="-99"/>
          <Node pos="r" depth="2" NCoef="0" IVar="-1" Cut="0.0000000000000000e+00" cType="1" res="3.7475735880434513e-03" rms="3.3685246109962463e-01" purity="7.4157303571701050e-01" nType="-99"/>
        </Node>
      </Node>
    </BinaryTree>
    <BinaryTree type="DecisionTree" boostWeight="1.0000000000000000e+00" itree="26">
      <Node pos="s" depth="0" NCoef="0" IVar="2" Cut="9.1690635681152344e-01" cType="1" res="-8.4799276664853096e-03" rms="3.8504803180694580e-01" purity="4.8129424452781677e-01" nType="0">
        <Node pos="l" depth="1" NCoef="0" IVar="2" Cut="8.0364906787872314e-01" cType="1" res="8.3249539136886597e-02" rms="3.0174866318702698e-01" purity="8.4705883264541626e-01" nType="0">
          <Node pos="l" depth="2" NCoef="0" IVar="-1" Cut="0.0000000000000000e+00" cType="1" res="1.5105550177395344e-02" rms="2.8820827603340149e-01" purity="8.9743590354919434e-01" nType="-99"/>
          <Node pos="r" depth="2" NCoef="0" IVar="-1" Cut="0.0000000000000000e+00" cType="1" res="3.9471417665481567e-02" rms="3.0639448761940002e-01" purity="8.0434781312942505e-01" nType="-99"/>
        </Node>
        <Node pos="r" depth="1" NCoef="0" IVar="1" Cut="9.5297336578369141e-01" cType="1" res="-2.7520231902599335e-02" rms="3.9752727746963501e-01" purity="4.0537241101264954e-01" nType="0">
          <Node pos="l" depth="2" NCoef="0" IVar="-1" Cut="0.0000000000000000e+00" cType="1" res="1.9128423184156418e-02" rms="2.6622733473777771e-01" purity="9.2000001668930054e-01" nType="-99"/>
          <Node pos="r" depth="2" NCoef="0" IVar="-1" Cut="0.0000000000000000e+00" cType="1" res="-1.1239459738135338e-02" rms="4.2441469430923462e-01" purity="2.6552796363830566e-01" nType="-99"/>
        </Node>
      </Node>
    </BinaryTree>
    <BinaryTree type="DecisionTree" boostWeight="1.0000000000000000e+00" itree="27">
      <Node pos="s" depth="0" NCoef="0" IVar="1" Cut="7.6411449909210205e-01" cType="1" res="4.9818335101008415e-03" rms="3.8702264428138733e-01" purity="5.1010102033615112e-01" nType="0">
        <Node pos="l" depth="1" NCoef="0" IVar="0" Cut="9.7378861904144287e-01" cType="1" res="5.4948356002569199e-02" rms="2.1937821805477142e-01" purity="9.4773519039154053e-01" nType="0">
          <Node pos="l" depth="2" NCoef="0" IVar="-1" Cut="0.0000000000000000e+00" cType="1" res="1.0258529335260391e-02" rms="2.7979576587677002e-01" purity="9.1011238098144531e-01" nType="-99"/>
          <Node pos="r" depth="2" NCoef="0" IVar="-1" Cut="0.0000000000000000e+00" cType="1" res="3.7466403096914291e-02" rms="1.8377581238746643e-01" purity="9.6464645862579346e-01" nType="-99"/>
        </Node>
        <Node pos="r" depth="1" NCoef="0" IVar="3" Cut="1.3022421264648438e+02" cType="1" res="-1.5417017042636871e-02" rms="4.3572214245796204e-01" purity="3.3143669366836548e-01" nType="0">
          <Node pos="l" depth="2" NCoef="0" IVar="-1" Cut="0.0000000000000000e+00" cType="1" res="1.7159921117126942e-03" rms="4.3291974067687988e-01" purity="3.1698113679885864e-01" nType="-99"/>
          <Node pos="r" depth="2" NCoef="0" IVar="-1" Cut="0.0000000000000000e+00" cType="1" res="-1.8450116738677025e-02" rms="4.3723899126052856e-01" purity="3.7572255730628967e-01" nType="-99"/>
        </Node>
      </Node>
    </BinaryTree>
    <BinaryTree type="DecisionTree" boostWeight="1.0000000000000000e+00" itree="28">
      <Node pos="s" depth="0" NCoef="0" IVar="4" Cut="3.8542285919189453e+01" cType="1" res="1.3620789162814617e-02" rms="3.8343369960784912e-01" purity="5.0256413221359253e-01" nType="0">
        <Node pos="l" depth="1" NCoef="0" IVar="3" Cut="7.8497215270996094e+01" cType="1" res="-4.6737559139728546e-02" rms="3.5982495546340942e-01" purity="3.4432989358901978e-01" nType="0">
          <Node pos="l" depth="2" NCoef="0" IVar="-1" Cut="0.0000000000000000e+00" cType="1" res="-7.2185527533292770e-03" rms="3.6942154169082642e-01" purity="3.8592234253883362e-01" nType="-99"/>
          <Node pos="r" depth="2" NCoef="0" IVar="-1" Cut="0.0000000000000000e+00" cType="1" res="-4.7301165759563446e-02" rms="2.6457357406616211e-01" purity="1.0958904027938843e-01" nType="-99"/>
        </Node>
        <Node pos="r" depth="1" NCoef="0" IVar="3" Cut="9.5071418762207031e+01" cType="1" res="7.3363237082958221e-02" rms="3.9650303125381470e-01" purity="6.5918368101119995e-01" nType="0">
          <Node pos="l" depth="2" NCoef="0" IVar="-1" Cut="0.0000000000000000e+00" cType="1" res="3.9692446589469910e-02" rms="4.3055540323257446e-01" purity="6.7500001192092896e-01" nType="-99"/>
          <Node pos="r" depth="2" NCoef="0" IVar="-1" Cut="0.0000000000000000e+00" cType="1" res="1.0580605827271938e-02" rms="3.7358880043029785e-01" purity="6.5151512622833252e-01" nType="-99"/>
        </Node>
      </Node>
    </BinaryTree>
    <BinaryTree type="DecisionTree" boostWeight="1.0000000000000000e+00" itree="29">
      <Node pos="s" depth="0" NCoef="0" IVar="1" Cut="9.5257496833801270e-01" cType="1" res="1.8201908096671104e-02" rms="3.8239476084709167e-01" purity="5.0487327575683594e-01" nType="0">
        <Node pos="l" depth="1" NCoef="0" IVar="1" Cut="1.8423944711685181e-01" cType="1" res="6.1091002076864243e-02" rms="1.9672410190105438e-01" purity="9.5945948362350464e-01" nType="0">
          <Node pos="l" depth="2" NCoef="0" IVar="-1" Cut="0.0000000000000000e+00" cType="1" res="5.0532080233097076e-02" rms="9.1334298253059387e-02" purity="9.9159663915634155e-01" nType="-99"/>
          <Node pos="r" depth="2" NCoef="0" IVar="-1" Cut="0.0000000000000000e+00" cType="1" res="2.3485446348786354e-02" rms="2.4168196320533752e-01" purity="9.3785309791564941e-01" nType="-99"/>
        </Node>
        <Node pos="r" depth="1" NCoef="0" IVar="2" Cut="8.9467787742614746e-01" cType="1" res="8.1126083387061954e-04" rms="4.3448451161384583e-01" purity="3.2054793834686279e-01" nType="0">
          <Node pos="l" depth="2" NCoef="0" IVar="-1" Cut="0.0000000000000000e+00" cType="1" res="3.0998157337307930e-02" rms="4.8465985059738159e-01" purity="6.7391306161880493e-01" nType="-99"/>
          <Node pos="r" depth="2" NCoef="0" IVar="-1" Cut="0.0000000000000000e+00" cType="1" res="-2.1532336249947548e-03" rms="4.2923593521118164e-01" purity="2.9678362607955933e-01" nType="-99"/>
        </Node>
      </Node>
    </BinaryTree>
    <BinaryTree type="DecisionTree" boostWeight="1.0000000000000000e+00" itree="30">
      <Node pos="s" depth="0" NCoef="0" IVar="4" Cut="1.6446025085449219e+02" cType="1" res="6.2106372788548470e-03" rms="3.8804984092712402e-01" purity="5.1126348972320557e-01" nType="0">
        <Node pos="l" depth="1" NCoef="0" IVar="3" Cut="3.0744451904296875e+02" cType="1" res="-3.7491481634788215e-04" rms="3.9379093050956726e-01" purity="4.8159831762313843e-01" nType="0">
          <Node pos="l" depth="2" NCoef="0" IVar="-1" Cut="0.0000000000000000e+00" cType="1" res="1.7902110703289509e-03" rms="3.9314913749694824e-01" purity="4.8908296227455139e-01" nType="-99"/>
          <Node pos="r" depth="2" NCoef="0" IVar="-1" Cut="0.0000000000000000e+00" cType="1" res="-3.9605099707841873e-02" rms="3.7146994471549988e-01" purity="2.8571429848670959e-01" nType="-99"/>
        </Node>
        <Node pos="r" depth="1" NCoef="0" IVar="1" Cut="7.2294861078262329e-01" cType="1" res="9.5680065453052521e-02" rms="2.8461849689483643e-01" purity="9.1428571939468384e-01" nType="0">
          <Node pos="l" depth="2" NCoef="0" IVar="-1" Cut="0.0000000000000000e+00" cType="1" res="1.9253365695476532e-02" rms="2.0762030780315399e-01" purity="9.5454543828964233e-01" nType="-99"/>
          <Node pos="r" depth="2" NCoef="0" IVar="-1" Cut="0.0000000000000000e+00" cType="1" res="5.1480300724506378e-02" rms="3.5011649131774902e-01" purity="8.4615385532379150e-01" nType="-99"/>
        </Node>
      </Node>
    </BinaryTree>
    <BinaryTree type="DecisionTree" boostWeight="1.0000000000000000e+00" itree="31">
      <Node pos="s" depth="0" NCoef="0" IVar="0" Cut="9.6380120515823364e-01" cType="1" res="-2.5294176302850246e-03" rms="3.8945999741554260e-01" purity="4.8936170339584351e-01" nType="0">
        <Node pos="l" depth="1" NCoef="0" IVar="3" Cut="3.5045730590820312e+01" cType="1" res="7.5681999325752258e-02" rms="3.9342746138572693e-01" purity="6.7391306161880493e-01" nType="0">
          <Node pos="l" depth="2" NCoef="0" IVar="-1" Cut="0.0000000000000000e+00" cType="1" res="-8.2841003313660622e-03" rms="3.7696060538291931e-01" purity="6.2222224473953247e-01" nType="-99"/>
          <Node pos="r" depth="2" NCoef="0" IVar="-1" Cut="0.0000000000000000e+00" cType="1" res="3.0978530645370483e-02" rms="3.9344596862792969e-01" purity="6.9064748287200928e-01" nType="-99"/>
        </Node>
        <Node pos="r" depth="1" NCoef="0" IVar="3" Cut="5.1405204772949219e+01" cType="1" res="-2.0450837910175323e-02" rms="3.8632178306579590e-01" purity="4.4707345962524414e-01" nType="0">
          <Node pos="l" depth="2" NCoef="0" IVar="-1" Cut="0.0000000000000000e+00" cType="1" res="-2.3022595793008804e-02" rms="3.3831366896629333e-01" purity="3.2510289549827576e-01" nType="-99"/>
          <Node pos="r" depth="2" NCoef="0" IVar="-1" Cut="0.0000000000000000e+00" cType="1" res="5.1091855857521296e-04" rms="4.0335118770599365e-01" purity="5.0000000000000000e-01" nType="-99"/>
        </Node>
      </Node>
    </BinaryTree>
    <BinaryTree type="DecisionTree" boostWeight="1.0000000000000000e+00" itree="32">
      <Node pos="s" depth="0" NCoef="0" IVar="4" Cut="5.3940551757812500e+01" cType="1" res="1.6428891569375992e-02" rms="3.8077819347381592e-01" purity="5.2620762586593628e-01" nType="0">
        <Node pos="l" depth="1" NCoef="0" IVar="2" Cut="9.1729325056076050e-01" cType="1" res="-8.5961929289624095e-04" rms="3.7839558720588684e-01" purity="4.2072212696075439e-01" nType="0">
          <Node pos="l" depth="2" NCoef="0" IVar="-1" Cut="0.0000000000000000e+00" cType="1" res="4.3836355209350586e-02" rms="3.2490119338035583e-01" purity="7.9104477167129517e-01" nType="-99"/>
          <Node pos="r" depth="2" NCoef="0" IVar="-1" Cut="0.0000000000000000e+00" cType="1" res="-5.2515957504510880e-03" rms="3.8067385554313660e-01" purity="3.7719297409057617e-01" nType="-99"/>
        </Node>
        <Node pos="r" depth="1" NCoef="0" IVar="3" Cut="1.6642408752441406e+02" cType="1" res="4.9205023795366287e-02" rms="3.8311919569969177e-01" purity="7.2619044780731201e-01" nType="0">
          <Node pos="l" depth="2" NCoef="0" IVar="-1" Cut="0.0000000000000000e+00" cType="1" res="2.5033138692378998e-02" rms="4.0356168150901794e-01" purity="7.5722545385360718e-01" nType="-99"/>
          <Node pos="r" depth="2" NCoef="0" IVar="-1" Cut="0.0000000000000000e+00" cType="1" res="2.9513684567064047e-03" rms="3.5590547323226929e-01" purity="6.9325155019760132e-01" nType="-99"/>
        </Node>
      </Node>
    </BinaryTree>
    <BinaryTree type="DecisionTree" boostWeight="1.0000000000000000e+00" itree="33">
      <Node pos="s" depth="0" NCoef="0" IVar="0" Cut="9.7844743728637695e-01" cType="1" res="4.6262973919510841e-03" rms="3.9193767309188843e-01" purity="5.0410676002502441e-01" nType="0">
        <Node pos="l" depth="1" NCoef="0" IVar="0" Cut="9.7416621446609497e-01" cType="1" res="4.7951098531484604e-02" rms="4.2394822835922241e-01" purity="6.0416668653488159e-01" nType="0">
          <Node pos="l" depth="2" NCoef="0" IVar="-1" Cut="0.0000000000000000e+00" cType="1" res="2.4165073409676552e-02" rms="4.2196354269981384e-01" purity="6.6804981231689453e-01" nType="-99"/>
          <Node pos="r" depth="2" NCoef="0" IVar="-1" Cut="0.0000000000000000e+00" cType="1" res="-2.6372782886028290e-02" rms="4.0226903557777405e-01" purity="2.7659574151039124e-01" nType="-99"/>
        </Node>
        <Node pos="r" depth="1" NCoef="0" IVar="4" Cut="8.3395545959472656e+01" cType="1" res="-1.3562539592385292e-02" rms="3.7620702385902405e-01" purity="4.6209913492202759e-01" nType="0">
          <Node pos="l" depth="2" NCoef="0" IVar="-1" Cut="0.0000000000000000e+00" cType="1" res="-9.7487075254321098e-03" rms="3.8388246297836304e-01" purity="3.6813187599182129e-01" nType="-99"/>
          <Node pos="r" depth="2" NCoef="0" IVar="-1" Cut="0.0000000000000000e+00" cType="1" res="2.3184109479188919e-02" rms="3.3305540680885315e-01" purity="8.2857143878936768e-01" nType="-99"/>
        </Node>
      </Node>
    </BinaryTree>
    <BinaryTree type="DecisionTree" boostWeight="1.0000000000000000e+00" itree="34">
      <Node pos="s" depth="0" NCoef="0" IVar="0" Cut="1.0146093368530273e+00" cType="1" res="-3.7724091671407223e-03" rms="3.7738436460494995e-01" purity="5.0303030014038086e-01" nType="0">
        <Node pos="l" depth="1" NCoef="0" IVar="1" Cut="2.8761997818946838e-01" cType="1" res="-1.6873639076948166e-02" rms="3.7936356663703918e-01" purity="4.6332946419715881e-01" nType="0">
          <Node pos="l" depth="2" NCoef="0" IVar="-1" Cut="0.0000000000000000e+00" cType="1" res="4.0786452591419220e-02" rms="1.5395054221153259e-01" purity="9.7540986537933350e-01" nType="-99"/>
          <Node pos="r" depth="2" NCoef="0" IVar="-1" Cut="0.0000000000000000e+00" cType="1" res="-8.4603279829025269e-03" rms="4.0300816297531128e-01" purity="3.7856173515319824e-01" nType="-99"/>
        </Node>
        <Node pos="r" depth="1" NCoef="0" IVar="3" Cut="1.0918567657470703e+02" cType="1" res="8.2135654985904694e-02" rms="3.5226696729660034e-01" purity="7.6335877180099487e-01" nType="0">
          <Node pos="l" depth="2" NCoef="0" IVar="-1" Cut="0.0000000000000000e+00" cType="1" res="5.8904625475406647e-02" rms="3.9330106973648071e-01" purity="7.0833331346511841e-01" nType="-99"/>
          <Node pos="r" depth="2" NCoef="0" IVar="-1" Cut="0.0000000000000000e+00" cType="1" res="4.4609722681343555e-03" rms="3.0423527956008911e-01" purity="7.9518073797225952e-01" nType="-99"/>
        </Node>
      </Node>
    </BinaryTree>
    <BinaryTree type="DecisionTree" boostWeight="1.0000000000000000e+00" itree="35">
      <Node pos="s" depth="0" NCoef="0" IVar="1" Cut="8.5752397775650024e-01" cType="1" res="-1.1558368802070618e-02" rms="3.7099507451057434e-01" purity="5.0045913457870483e-01" nType="0">
        <Node pos="l" depth="1" NCoef="0" IVar="1" Cut="6.8994796276092529e-01" cType="1" res="4.4222004711627960e-02" rms="2.0557500422000885e-01" purity="9.5495498180389404e-01" nType="0">
          <Node pos="l" depth="2" NCoef="0" IVar="-1" Cut="0.0000000000000000e+00" cType="1" res="2.3043237626552582e-02" rms="2.1571837365627289e-01" purity="9.4966441392898560e-01" nType="-99"/>
          <Node pos="r" depth="2" NCoef="0" IVar="-1" Cut="0.0000000000000000e+00" cType="1" res="5.6702133268117905e-02" rms="2.4081941694021225e-02" purity="1.0000000000000000e+00" nType="-99"/>
        </Node>
        <Node pos="r" depth="1" NCoef="0" IVar="3" Cut="1.3165600585937500e+02" cType="1" res="-3.6128293722867966e-02" rms="4.2151409387588501e-01" purity="3.0026453733444214e-01" nType="0">
          <Node pos="l" depth="2" NCoef="0" IVar="-1" Cut="0.0000000000000000e+00" cType="1" res="-1.6310671344399452e-03" rms="4.1545495390892029e-01" purity="2.9522183537483215e-01" nType="-99"/>
          <Node pos="r" depth="2" NCoef="0" IVar="-1" Cut="0.0000000000000000e+00" cType="1" res="-3.0720099806785583e-02" rms="4.2611795663833618e-01" purity="3.1764706969261169e-01" nType="-99"/>
        </Node>
      </Node>
    </BinaryTree>
    <BinaryTree type="DecisionTree" boostWeight="1.0000000000000000e+00" itree="36">
      <Node pos="s" depth="0" NCoef="0" IVar="3" Cut="5.6852392578125000e+02" cType="1" res="-6.5410006791353226e-03" rms="3.9251464605331421e-01" purity="4.9320387840270996e-01" nType="0">
        <Node pos="l" depth="1" NCoef="0" IVar="0" Cut="1.0080819129943848e+00" cType="1" res="-3.2672814995748922e-05" rms="3.9173585176467896e-01" purity="4.9250748753547668e-01" nType="0">
          <Node pos="l" depth="2" NCoef="0" IVar="-1" Cut="0.0000000000000000e+00" cType="1" res="-3.7906283978372812e-03" rms="3.8665238022804260e-01" purity="4.6401986479759216e-01" nType="-99"/>
          <Node pos="r" depth="2" NCoef="0" IVar="-1" Cut="0.0000000000000000e+00" cType="1" res="1.5043399296700954e-02" rms="4.0796765685081482e-01" purity="6.1025643348693848e-01" nType="-99"/>
        </Node>
        <Node pos="r" depth="1" NCoef="0" IVar="-1" Cut="0.0000000000000000e+00" cType="1" res="-7.7924355864524841e-02" rms="3.5102665424346924e-01" purity="5.1724135875701904e-01" nType="-99"/>
      </Node>
    </BinaryTree>
    <BinaryTree type="DecisionTree" boostWeight="1.0000000000000000e+00" itree="37">
      <Node pos="s" depth="0" NCoef="0" IVar="2" Cut="9.5845317840576172e-01" cType="1" res="3.5616777837276459e-02" rms="3.8218948245048523e-01" purity="5.2843844890594482e-01" nType="0">
        <Node pos="l" depth="1" NCoef="0" IVar="3" Cut="3.8250009155273438e+02" cType="1" res="7.8468374907970428e-02" rms="3.6051219701766968e-01" purity="7.1385544538497925e-01" nType="0">
          <Node pos="l" depth="2" NCoef="0" IVar="-1" Cut="0.0000000000000000e+00" cType="1" res="3.2479166984558105e-02" rms="3.6523684859275818e-01" purity="7.0731705427169800e-01" nType="-99"/>
          <Node pos="r" depth="2" NCoef="0" IVar="-1" Cut="0.0000000000000000e+00" cType="1" res="-1.9232498481869698e-02" rms="2.9918792843818665e-01" purity="7.5555557012557983e-01" nType="-99"/>
        </Node>
        <Node pos="r" depth="1" NCoef="0" IVar="2" Cut="9.9803227186203003e-01" cType="1" res="1.3212479650974274e-02" rms="3.9118319749832153e-01" purity="4.3149605393409729e-01" nType="0">
          <Node pos="l" depth="2" NCoef="0" IVar="-1" Cut="0.0000000000000000e+00" cType="1" res="-4.5076496899127960e-03" rms="3.8863396644592285e-01" purity="3.5234215855598450e-01" nType="-99"/>
          <Node pos="r" depth="2" NCoef="0" IVar="-1" Cut="0.0000000000000000e+00" cType="1" res="3.6186181008815765e-02" rms="3.8307979702949524e-01" purity="7.0138889551162720e-01" nType="-99"/>
        </Node>
      </Node>
    </BinaryTree>
    <BinaryTree type="DecisionTree" boostWeight="1.0000000000000000e+00" itree="38">
      <Node pos="s" depth="0" NCoef="0" IVar="0" Cut="1.0132883787155151e+00" cType="1" res="-9.5910113304853439e-03" rms="3.7854105234146118e-01" purity="5.0400799512863159e-01" nType="0">
        <Node pos="l" depth="1" NCoef="0" IVar="0" Cut="9.5807754993438721e-01" cType="1" res="-2.1402239799499512e-02" rms="3.7959772348403931e-01" purity="4.7141191363334656e-01" nType="0">
          <Node pos="l" depth="2" NCoef="0" IVar="-1" Cut="0.0000000000000000e+00" cType="1" res="1.1440712027251720e-02" rms="4.1316920518875122e-01" purity="6.8656718730926514e-01" nType="-99"/>
          <Node pos="r" depth="2" NCoef="0" IVar="-1" Cut="0.0000000000000000e+00" cType="1" res="-9.5833325758576393e-03" rms="3.7211513519287109e-01" purity="4.3153527379035950e-01" nType="-99"/>
        </Node>
        <Node pos="r" depth="1" NCoef="0" IVar="3" Cut="5.4112036132812500e+02" cType="1" res="6.2197804450988770e-02" rms="3.6389926075935364e-01" purity="7.0212763547897339e-01" nType="0">
          <Node pos="l" depth="2" NCoef="0" IVar="-1" Cut="0.0000000000000000e+00" cType="1" res="3.3416111022233963e-02" rms="3.7778547406196594e-01" purity="6.9607841968536377e-01" nType="-99"/>
          <Node pos="r" depth="2" NCoef="0" IVar="-1" Cut="0.0000000000000000e+00" cType="1" res="-2.8168926015496254e-02" rms="2.8356251120567322e-01" purity="7.1794873476028442e-01" nType="-99"/>
        </Node>
      </Node>
    </BinaryTree>
    <BinaryTree type="DecisionTree" boostWeight="1.0000000000000000e+00" itree="39">
      <Node pos="s" depth="0" NCoef="0" IVar="4" Cut="1.4539361572265625e+02" cType="1" res="-2.5500790216028690e-03" rms="3.8883939385414124e-01" purity="4.9856182932853699e-01" nType="0">
        <Node pos="l" depth="1" NCoef="0" IVar="0" Cut="9.6895992755889893e-01" cType="1" res="-1.0958972387015820e-02" rms="4.0058392286300659e-01" purity="4.5872518420219421e-01" nType="0">
          <Node pos="l" depth="2" NCoef="0" IVar="-1" Cut="0.0000000000000000e+00" cType="1" res="2.0764579996466637e-02" rms="4.2235153913497925e-01" purity="6.5573769807815552e-01" nType="-99"/>
          <Node pos="r" depth="2" NCoef="0" IVar="-1" Cut="0.0000000000000000e+00" cType="1" res="-8.8701620697975159e-03" rms="3.9284041523933411e-01" purity="4.1214469075202942e-01" nType="-99"/>
        </Node>
        <Node pos="r" depth="1" NCoef="0" IVar="2" Cut="9.6703296899795532e-01" cType="1" res="9.1023303568363190e-02" rms="1.9616852700710297e-01" purity="9.4186043739318848e-01" nType="0">
          <Node pos="l" depth="2" NCoef="0" IVar="-1" Cut="0.0000000000000000e+00" cType="1" res="2.2782268002629280e-02" rms="1.8847504258155823e-01" purity="9.0909093618392944e-01" nType="-99"/>
          <Node pos="r" depth="2" NCoef="0" IVar="-1" Cut="0.0000000000000000e+00" cType="1" res="7.8081101179122925e-02" rms="1.7978833615779877e-01" purity="1.0000000000000000e+00" nType="-99"/>
        </Node>
      </Node>
    </BinaryTree>
    <BinaryTree type="DecisionTree" boostWeight="1.0000000000000000e+00" itree="40">
      <Node pos="s" depth="0" NCoef="0" IVar="3" Cut="6.5509002685546875e+02" cType="1" res="4.8183454200625420e-03" rms="3.8709557056427002e-01" purity="4.9750748276710510e-01" nType="0">
        <Node pos="l" depth="1" NCoef="0" IVar="0" Cut="1.0103685855865479e+00" cType="1" res="1.1893576942384243e-02" rms="3.8622471690177917e-01" purity="4.9795082211494446e-01" nType="0">
          <Node pos="l" depth="2" NCoef="0" IVar="-1" Cut="0.0000000000000000e+00" cType="1" res="-1.1749528348445892e-03" rms="3.8053908944129944e-01" purity="4.6601942181587219e-01" nType="-99"/>
          <Node pos="r" depth="2" NCoef="0" IVar="-1" Cut="0.0000000000000000e+00" cType="1" res="2.8567718341946602e-02" rms="4.0518605709075928e-01" purity="6.7105263471603394e-01" nType="-99"/>
        </Node>
        <Node pos="r" depth="1" NCoef="0" IVar="-1" Cut="0.0000000000000000e+00" cType="1" res="-8.0828465521335602e-02" rms="3.2705622911453247e-01" purity="4.8148149251937866e-01" nType="-99"/>
      </Node>
    </BinaryTree>
    <BinaryTree type="DecisionTree" boostWeight="1.0000000000000000e+00" itree="41">
      <Node pos="s" depth="0" NCoef="0" IVar="1" Cut="9.5282292366027832e-01" cType="1" res="-4.0226418059319258e-04" rms="3.6973768472671509e-01" purity="5.1866406202316284e-01" nType="0">
        <Node pos="l" depth="1" NCoef="0" IVar="2" Cut="9.5845317840576172e-01" cType="1" res="3.9043869823217392e-02" rms="2.0398937165737152e-01" purity="9.5508980751037598e-01" nType="0">
          <Node pos="l" depth="2" NCoef="0" IVar="-1" Cut="0.0000000000000000e+00" cType="1" res="4.6568304300308228e-02" rms="1.0752170532941818e-01" purity="9.8863637447357178e-01" nType="-99"/>
          <Node pos="r" depth="2" NCoef="0" IVar="-1" Cut="0.0000000000000000e+00" cType="1" res="6.0808206908404827e-03" rms="2.7109548449516296e-01" purity="9.1772150993347168e-01" nType="-99"/>
        </Node>
        <Node pos="r" depth="1" NCoef="0" IVar="3" Cut="3.2999819946289062e+02" cType="1" res="-1.9663972780108452e-02" rms="4.2662638425827026e-01" purity="3.0555555224418640e-01" nType="0">
          <Node pos="l" depth="2" NCoef="0" IVar="-1" Cut="0.0000000000000000e+00" cType="1" res="-2.1756328642368317e-03" rms="4.2591917514801025e-01" purity="3.1029185652732849e-01" nType="-99"/>
          <Node pos="r" depth="2" NCoef="0" IVar="-1" Cut="0.0000000000000000e+00" cType="1" res="-5.2320528775453568e-02" rms="3.7923625111579895e-01" purity="2.1212121844291687e-01" nType="-99"/>
        </Node>
      </Node>
    </BinaryTree>
    <BinaryTree type="DecisionTree" boostWeight="1.0000000000000000e+00" itree="42">
      <Node pos="s" depth="0" NCoef="0" IVar="4" Cut="3.8925052642822266e+01" cType="1" res="1.8531447276473045e-02" rms="3.7214708328247070e-01" purity="5.3543305397033691e-01" nType="0">
        <Node pos="l" depth="1" NCoef="0" IVar="3" Cut="4.7436519622802734e+01" cType="1" res="-1.5513093210756779e-02" rms="3.5998857021331787e-01" purity="3.8911288976669312e-01" nType="0">
          <Node pos="l" depth="2" NCoef="0" IVar="-1" Cut="0.0000000000000000e+00" cType="1" res="8.7649449706077576e-03" rms="3.6514967679977417e-01" purity="4.8208469152450562e-01" nType="-99"/>
          <Node pos="r" depth="2" NCoef="0" IVar="-1" Cut="0.0000000000000000e+00" cType="1" res="-2.3137602955102921e-02" rms="3.4139394760131836e-01" purity="2.3809523880481720e-01" nType="-99"/>
        </Node>
        <Node pos="r" depth="1" NCoef="0" IVar="4" Cut="1.1328424835205078e+02" cType="1" res="5.1004700362682343e-02" rms="3.8055780529975891e-01" purity="6.7500001192092896e-01" nType="0">
          <Node pos="l" depth="2" NCoef="0" IVar="-1" Cut="0.0000000000000000e+00" cType="1" res="9.8144430667161942e-03" rms="4.0995982289314270e-01" purity="5.9793812036514282e-01" nType="-99"/>
          <Node pos="r" depth="2" NCoef="0" IVar="-1" Cut="0.0000000000000000e+00" cType="1" res="3.9330337196588516e-02" rms="2.7188450098037720e-01" purity="9.0151512622833252e-01" nType="-99"/>
        </Node>
      </Node>
    </BinaryTree>
    <BinaryTree type="DecisionTree" boostWeight="1.0000000000000000e+00" itree="43">
      <Node pos="s" depth="0" NCoef="0" IVar="3" Cut="2.5500331115722656e+02" cType="1" res="-1.0025530122220516e-02" rms="3.7714746594429016e-01" purity="5.1271617412567139e-01" nType="0">
        <Node pos="l" depth="1" NCoef="0" IVar="4" Cut="2.2923114776611328e+01" cType="1" res="2.8502747882157564e-03" rms="3.8024827837944031e-01" purity="5.0115209817886353e-01" nType="0">
          <Node pos="l" depth="2" NCoef="0" IVar="-1" Cut="0.0000000000000000e+00" cType="1" res="-2.1871350705623627e-02" rms="3.0989480018615723e-01" purity="3.5177865624427795e-01" nType="-99"/>
          <Node pos="r" depth="2" NCoef="0" IVar="-1" Cut="0.0000000000000000e+00" cType="1" res="8.6892284452915192e-03" rms="4.0261134505271912e-01" purity="5.6260162591934204e-01" nType="-99"/>
        </Node>
        <Node pos="r" depth="1" NCoef="0" IVar="4" Cut="3.1393081665039062e+02" cType="1" res="-1.0720986872911453e-01" rms="3.3736872673034668e-01" purity="6.0000002384185791e-01" nType="0">
          <Node pos="l" depth="2" NCoef="0" IVar="-1" Cut="0.0000000000000000e+00" cType="1" res="-5.7868681848049164e-02" rms="3.5962045192718506e-01" purity="4.5121949911117554e-01" nType="-99"/>
          <Node pos="r" depth="2" NCoef="0" IVar="-1" Cut="0.0000000000000000e+00" cType="1" res="4.8923946917057037e-02" rms="1.5619246661663055e-01" purity="9.6969699859619141e-01" nType="-99"/>
        </Node>
      </Node>
    </BinaryTree>
    <BinaryTree type="DecisionTree" boostWeight="1.0000000000000000e+00" itree="44">
      <Node pos="s" depth="0" NCoef="0" IVar="0" Cut="1.0067512989044189e+00" cType="1" res="2.7456739917397499e-03" rms="3.7348115444183350e-01" purity="5.1178783178329468e-01" nType="0">
        <Node pos="l" depth="1" NCoef="0" IVar="3" Cut="8.3395545959472656e+01" cType="1" res="-1.0888067074120045e-02" rms="3.7418451905250549e-01" purity="4.7395834326744080e-01" nType="0">
          <Node pos="l" depth="2" NCoef="0" IVar="-1" Cut="0.0000000000000000e+00" cType="1" res="7.1995090693235397e-03" rms="3.7472683191299438e-01" purity="4.8642534017562866e-01" nType="-99"/>
          <Node pos="r" depth="2" NCoef="0" IVar="-1" Cut="0.0000000000000000e+00" cType="1" res="-1.5845302492380142e-02" rms="3.6877456307411194e-01" purity="4.5705521106719971e-01" nType="-99"/>
        </Node>
        <Node pos="r" depth="1" NCoef="0" IVar="2" Cut="9.7502905130386353e-01" cType="1" res="4.4628527015447617e-02" rms="3.6816772818565369e-01" purity="6.2800002098083496e-01" nType="0">
          <Node pos="l" depth="2" NCoef="0" IVar="-1" Cut="0.0000000000000000e+00" cType="1" res="3.3167608082294464e-02" rms="3.4549468755722046e-01" purity="7.3949581384658813e-01" nType="-99"/>
          <Node pos="r" depth="2" NCoef="0" IVar="-1" Cut="0.0000000000000000e+00" cType="1" res="-1.5340188983827829e-03" rms="3.8077196478843689e-01" purity="5.2671754360198975e-01" nType="-99"/>
        </Node>
      </Node>
    </BinaryTree>
    <BinaryTree type="DecisionTree" boostWeight="1.0000000000000000e+00" itree="45">
      <Node pos="s" depth="0" NCoef="0" IVar="1" Cut="7.6287484169006348e-01" cType="1" res="-7.2326641529798508e-03" rms="3.7852644920349121e-01" purity="5.0342130661010742e-01" nType="0">
        <Node pos="l" depth="1" NCoef="0" IVar="2" Cut="9.1690635681152344e-01" cType="1" res="3.7713374942541122e-02" rms="1.9178165495395660e-01" purity="9.6193772554397583e-01" nType="0">
          <Node pos="l" depth="2" NCoef="0" IVar="-1" Cut="0.0000000000000000e+00" cType="1" res="2.3979307152330875e-03" rms="2.3765589296817780e-01" purity="9.3999999761581421e-01" nType="-99"/>
          <Node pos="r" depth="2" NCoef="0" IVar="-1" Cut="0.0000000000000000e+00" cType="1" res="3.7456952035427094e-02" rms="1.5928295254707336e-01" purity="9.7354495525360107e-01" nType="-99"/>
        </Node>
        <Node pos="r" depth="1" NCoef="0" IVar="2" Cut="9.4733893871307373e-01" cType="1" res="-2.4929400533437729e-02" rms="4.2907699942588806e-01" purity="3.2288828492164612e-01" nType="0">
          <Node pos="l" depth="2" NCoef="0" IVar="-1" Cut="0.0000000000000000e+00" cType="1" res="-2.4854712188243866e-02" rms="4.3703132867813110e-01" purity="3.7012988328933716e-01" nType="-99"/>
          <Node pos="r" depth="2" NCoef="0" IVar="-1" Cut="0.0000000000000000e+00" cType="1" res="-1.0829864768311381e-03" rms="4.2452621459960938e-01" purity="3.1034481525421143e-01" nType="-99"/>
        </Node>
      </Node>
    </BinaryTree>
    <BinaryTree type="DecisionTree" boostWeight="1.0000000000000000e+00" itree="46">
      <Node pos="s" depth="0" NCoef="0" IVar="2" Cut="9.6703296899795532e-01" cType="1" res="4.9993828870356083e-03" rms="3.8050785660743713e-01" purity="5.0430619716644287e-01" nType="0">
        <Node pos="l" depth="1" NCoef="0" IVar="4" Cut="3.0690298080444336e+01" cType="1" res="4.4465336948633194e-02" rms="3.5836642980575562e-01" purity="6.6430258750915527e-01" nType="0">
          <Node pos="l" depth="2" NCoef="0" IVar="-1" Cut="0.0000000000000000e+00" cType="1" res="-2.7337805368006229e-03" rms="3.3826804161071777e-01" purity="4.8026314377784729e-01" nType="-99"/>
          <Node pos="r" depth="2" NCoef="0" IVar="-1" Cut="0.0000000000000000e+00" cType="1" res="2.5652097538113594e-02" rms="3.6592596769332886e-01" purity="7.6752769947052002e-01" nType="-99"/>
        </Node>
        <Node pos="r" depth="1" NCoef="0" IVar="2" Cut="9.9843871593475342e-01" cType="1" res="-2.1840004250407219e-02" rms="3.9259684085845947e-01" purity="3.9549839496612549e-01" nType="0">
          <Node pos="l" depth="2" NCoef="0" IVar="-1" Cut="0.0000000000000000e+00" cType="1" res="-1.8342180177569389e-02" rms="3.7208405137062073e-01" purity="2.7433627843856812e-01" nType="-99"/>
          <Node pos="r" depth="2" NCoef="0" IVar="-1" Cut="0.0000000000000000e+00" cType="1" res="2.8472434729337692e-02" rms="4.2360043525695801e-01" purity="7.1764707565307617e-01" nType="-99"/>
        </Node>
      </Node>
    </BinaryTree>
    <BinaryTree type="DecisionTree" boostWeight="1.0000000000000000e+00" itree="47">
      <Node pos="s" depth="0" NCoef="0" IVar="4" Cut="3.6347720336914062e+02" cType="1" res="1.2778309173882008e-02" rms="3.7399604916572571e-01" purity="5.0778210163116455e-01" nType="0">
        <Node pos="l" depth="1" NCoef="0" IVar="4" Cut="3.2743129730224609e+01" cType="1" res="9.1945342719554901e-03" rms="3.7785279750823975e-01" purity="4.9399998784065247e-01" nType="0">
          <Node pos="l" depth="2" NCoef="0" IVar="-1" Cut="0.0000000000000000e+00" cType="1" res="-1.1390033178031445e-02" rms="3.4311327338218689e-01" purity="3.3842796087265015e-01" nType="-99"/>
          <Node pos="r" depth="2" NCoef="0" IVar="-1" Cut="0.0000000000000000e+00" cType="1" res="1.3397887349128723e-02" rms="4.0134027600288391e-01" purity="6.2546128034591675e-01" nType="-99"/>
        </Node>
        <Node pos="r" depth="1" NCoef="0" IVar="-1" Cut="0.0000000000000000e+00" cType="1" res="6.9357037544250488e-02" rms="1.3954094052314758e-01" purity="1.0000000000000000e+00" nType="-99"/>
      </Node>
    </BinaryTree>
    <BinaryTree type="DecisionTree" boostWeight="1.0000000000000000e+00" itree="48">
      <Node pos="s" depth="0" NCoef="0" IVar="0" Cut="1.0184218883514404e+00" cType="1" res="-2.0537968724966049e-02" rms="3.6163339018821716e-01" purity="4.7862356901168823e-01" nType="0">
        <Node pos="l" depth="1" NCoef="0" IVar="1" Cut="6.2006396055221558e-01" cType="1" res="-3.1893867999315262e-02" rms="3.5914045572280884e-01" purity="4.5669290423393250e-01" nType="0">
          <Node pos="l" depth="2" NCoef="0" IVar="-1" Cut="0.0000000000000000e+00" cType="1" res="2.4927487596869469e-02" rms="1.8824388086795807e-01" purity="9.6244132518768311e-01" nType="-99"/>
          <Node pos="r" depth="2" NCoef="0" IVar="-1" Cut="0.0000000000000000e+00" cType="1" res="-1.3951129280030727e-02" rms="3.9594301581382751e-01" purity="2.9733726382255554e-01" nType="-99"/>
        </Node>
        <Node pos="r" depth="1" NCoef="0" IVar="3" Cut="3.3881082153320312e+02" cType="1" res="1.2368196249008179e-01" rms="3.6216220259666443e-01" purity="7.5714284181594849e-01" nType="0">
          <Node pos="l" depth="2" NCoef="0" IVar="-1" Cut="0.0000000000000000e+00" cType="1" res="5.3528893738985062e-02" rms="3.7483635544776917e-01" purity="7.7777779102325439e-01" nType="-99"/>
          <Node pos="r" depth="2" NCoef="0" IVar="-1" Cut="0.0000000000000000e+00" cType="1" res="-5.9202685952186584e-03" rms="2.9018327593803406e-01" purity="7.2000002861022949e-01" nType="-99"/>
        </Node>
      </Node>
    </BinaryTree>
    <BinaryTree type="DecisionTree" boostWeight="1.0000000000000000e+00" itree="49">
      <Node pos="s" depth="0" NCoef="0" IVar="2" Cut="7.5071907043457031e-01" cType="1" res="-1.8202917650341988e-02" rms="3.7194088101387024e-01" purity="5.0199204683303833e-01" nType="0">
        <Node pos="l" depth="1" NCoef="0" IVar="0" Cut="9.9458706378936768e-01" cType="1" res="8.9810296893119812e-02" rms="1.1390908062458038e-01" purity="1.0000000000000000e+00" nType="0">
          <Node pos="l" depth="2" NCoef="0" IVar="-1" Cut="0.0000000000000000e+00" cType="1" res="7.1734048426151276e-02" rms="1.4644169807434082e-01" purity="1.0000000000000000e+00" nType="-99"/>
          <Node pos="r" depth="2" NCoef="0" IVar="-1" Cut="0.0000000000000000e+00" cType="1" res="5.7094302028417587e-02" rms="6.1871949583292007e-02" purity="1.0000000000000000e+00" nType="-99"/>
        </Node>
        <Node pos="r" depth="1" NCoef="0" IVar="2" Cut="9.1904759407043457e-01" cType="1" res="-2.4222580716013908e-02" rms="3.8031601905822754e-01" purity="4.7423765063285828e-01" nType="0">
          <Node pos="l" depth="2" NCoef="0" IVar="-1" Cut="0.0000000000000000e+00" cType="1" res="-3.9432194083929062e-02" rms="4.0061265230178833e-01" purity="6.7785233259201050e-01" nType="-99"/>
          <Node pos="r" depth="2" NCoef="0" IVar="-1" Cut="0.0000000000000000e+00" cType="1" res="-3.1760253477841616e-03" rms="3.7478294968605042e-01" purity="4.3640896677970886e-01" nType="-99"/>
        </Node>
      </Node>
    </BinaryTree>
    <BinaryTree type="DecisionTree" boostWeight="1.0000000000000000e+00" itree="50">
      <Node pos="s" depth="0" NCoef="0" IVar="3" Cut="5.1405204772949219e+01" cType="1" res="-2.8561688959598541e-03" rms="3.7824681401252747e-01" purity="4.9807691574096680e-01" nType="0">
        <Node pos="l" depth="1" NCoef="0" IVar="0" Cut="9.5344918966293335e-01" cType="1" res="3.4516301006078720e-02" rms="3.7171980738639832e-01" purity="4.6195653080940247e-01" nType="0">
          <Node pos="l" depth="2" NCoef="0" IVar="-1" Cut="0.0000000000000000e+00" cType="1" res="7.3492087423801422e-02" rms="3.8647922873497009e-01" purity="8.0769228935241699e-01" nType="-99"/>
          <Node pos="r" depth="2" NCoef="0" IVar="-1" Cut="0.0000000000000000e+00" cType="1" res="2.3621239233762026e-03" rms="3.6164885759353638e-01" purity="4.0506330132484436e-01" nType="-99"/>
        </Node>
        <Node pos="r" depth="1" NCoef="0" IVar="4" Cut="3.7317916870117188e+02" cType="1" res="-2.3322045803070068e-02" rms="3.8022038340568542e-01" purity="5.1785713434219360e-01" nType="0">
          <Node pos="l" depth="2" NCoef="0" IVar="-1" Cut="0.0000000000000000e+00" cType="1" res="-8.8122189044952393e-03" rms="3.8612148165702820e-01" purity="4.9767440557479858e-01" nType="-99"/>
          <Node pos="r" depth="2" NCoef="0" IVar="-1" Cut="0.0000000000000000e+00" cType="1" res="6.7834392189979553e-02" rms="1.3025481998920441e-01" purity="1.0000000000000000e+00" nType="-99"/>
        </Node>
      </Node>
    </BinaryTree>
    <BinaryTree type="DecisionTree" boostWeight="1.0000000000000000e+00" itree="51">
      <Node pos="s" depth="0" NCoef="0" IVar="4" Cut="4.7016181945800781e+01" cType="1" res="5.9934724122285843e-03" rms="3.8245657086372375e-01" purity="5.1279526948928833e-01" nType="0">
        <Node pos="l" depth="1" NCoef="0" IVar="0" Cut="9.5233476161956787e-01" cType="1" res="-2.3159332573413849e-02" rms="3.8386088609695435e-01" purity="3.8435938954353333e-01" nType="0">
          <Node pos="l" depth="2" NCoef="0" IVar="-1" Cut="0.0000000000000000e+00" cType="1" res="2.3635439574718475e-02" rms="4.1898033022880554e-01" purity="6.6129034757614136e-01" nType="-99"/>
          <Node pos="r" depth="2" NCoef="0" IVar="-1" Cut="0.0000000000000000e+00" cType="1" res="-1.1195394210517406e-02" rms="3.7805235385894775e-01" purity="3.5250464081764221e-01" nType="-99"/>
        </Node>
        <Node pos="r" depth="1" NCoef="0" IVar="3" Cut="1.5088984680175781e+02" cType="1" res="4.8212353140115738e-02" rms="3.7643232941627502e-01" purity="6.9879519939422607e-01" nType="0">
          <Node pos="l" depth="2" NCoef="0" IVar="-1" Cut="0.0000000000000000e+00" cType="1" res="2.5743253529071808e-02" rms="3.8964477181434631e-01" purity="7.2195124626159668e-01" nType="-99"/>
          <Node pos="r" depth="2" NCoef="0" IVar="-1" Cut="0.0000000000000000e+00" cType="1" res="2.2533857263624668e-03" rms="3.5824826359748840e-01" purity="6.7619049549102783e-01" nType="-99"/>
        </Node>
      </Node>
    </BinaryTree>
    <BinaryTree type="DecisionTree" boostWeight="1.0000000000000000e+00" itree="52">
      <Node pos="s" depth="0" NCoef="0" IVar="4" Cut="3.8542285919189453e+01" cType="1" res="-3.4605881664901972e-03" rms="3.7978050112724304e-01" purity="4.9403578042984009e-01" nType="0">
        <Node pos="l" depth="1" NCoef="0" IVar="2" Cut="9.4397759437561035e-01" cType="1" res="-3.2661817967891693e-02" rms="3.5832184553146362e-01" purity="3.6549165844917297e-01" nType="0">
          <Node pos="l" depth="2" NCoef="0" IVar="-1" Cut="0.0000000000000000e+00" cType="1" res="2.2585224360227585e-02" rms="3.3338531851768494e-01" purity="7.2277230024337769e-01" nType="-99"/>
          <Node pos="r" depth="2" NCoef="0" IVar="-1" Cut="0.0000000000000000e+00" cType="1" res="-1.7860518768429756e-02" rms="3.6061370372772217e-01" purity="2.8310501575469971e-01" nType="-99"/>
        </Node>
        <Node pos="r" depth="1" NCoef="0" IVar="2" Cut="9.1690635681152344e-01" cType="1" res="3.0242757871747017e-02" rms="4.0049189329147339e-01" purity="6.4239829778671265e-01" nType="0">
          <Node pos="l" depth="2" NCoef="0" IVar="-1" Cut="0.0000000000000000e+00" cType="1" res="-2.0383564755320549e-02" rms="3.3695289492607117e-01" purity="7.8021979331970215e-01" nType="-99"/>
          <Node pos="r" depth="2" NCoef="0" IVar="-1" Cut="0.0000000000000000e+00" cType="1" res="1.3427742756903172e-02" rms="4.1234141588211060e-01" purity="6.0904252529144287e-01" nType="-99"/>
        </Node>
      </Node>
    </BinaryTree>
    <BinaryTree type="DecisionTree" boostWeight="1.0000000000000000e+00" itree="53">
      <Node pos="s" depth="0" NCoef="0" IVar="0" Cut="9.6481543779373169e-01" cType="1" res="2.5319652631878853e-03" rms="3.5916212201118469e-01" purity="5.0000000000000000e-01" nType="0">
        <Node pos="l" depth="1" NCoef="0" IVar="2" Cut="9.7354495525360107e-01" cType="1" res="5.6502562016248703e-02" rms="3.3985128998756409e-01" purity="7.2826087474822998e-01" nType="0">
          <Node pos="l" depth="2" NCoef="0" IVar="-1" Cut="0.0000000000000000e+00" cType="1" res="3.5167146474123001e-02" rms="2.9746937751770020e-01" purity="8.3018869161605835e-01" nType="-99"/>
          <Node pos="r" depth="2" NCoef="0" IVar="-1" Cut="0.0000000000000000e+00" cType="1" res="1.9017047015950084e-03" rms="3.8447257876396179e-01" purity="5.8974361419677734e-01" nType="-99"/>
        </Node>
        <Node pos="r" depth="1" NCoef="0" IVar="3" Cut="5.1405204772949219e+01" cType="1" res="-9.9123828113079071e-03" rms="3.6233049631118774e-01" purity="4.4736841320991516e-01" nType="0">
          <Node pos="l" depth="2" NCoef="0" IVar="-1" Cut="0.0000000000000000e+00" cType="1" res="-2.1033635362982750e-02" rms="3.0842667818069458e-01" purity="3.2846716046333313e-01" nType="-99"/>
          <Node pos="r" depth="2" NCoef="0" IVar="-1" Cut="0.0000000000000000e+00" cType="1" res="4.1915555484592915e-03" rms="3.8537812232971191e-01" purity="5.0954198837280273e-01" nType="-99"/>
        </Node>
      </Node>
    </BinaryTree>
    <BinaryTree type="DecisionTree" boostWeight="1.0000000000000000e+00" itree="54">
      <Node pos="s" depth="0" NCoef="0" IVar="3" Cut="3.2799127197265625e+02" cType="1" res="-1.8366487696766853e-02" rms="3.7324523925781250e-01" purity="4.8481780290603638e-01" nType="0">
        <Node pos="l" depth="1" NCoef="0" IVar="0" Cut="1.0175482034683228e+00" cType="1" res="-1.0763452388346195e-02" rms="3.7256675958633423e-01" purity="4.8057714104652405e-01" nType="0">
          <Node pos="l" depth="2" NCoef="0" IVar="-1" Cut="0.0000000000000000e+00" cType="1" res="-6.2489220872521400e-03" rms="3.7232869863510132e-01" purity="4.6280992031097412e-01" nType="-99"/>
          <Node pos="r" depth="2" NCoef="0" IVar="-1" Cut="0.0000000000000000e+00" cType="1" res="3.4887153655290604e-02" rms="3.5017123818397522e-01" purity="7.5925928354263306e-01" nType="-99"/>
        </Node>
        <Node pos="r" depth="1" NCoef="0" IVar="4" Cut="3.0084860229492188e+02" cType="1" res="-9.7105965018272400e-02" rms="3.7115204334259033e-01" purity="5.2873563766479492e-01" nType="0">
          <Node pos="l" depth="2" NCoef="0" IVar="-1" Cut="0.0000000000000000e+00" cType="1" res="-3.6377862095832825e-02" rms="4.1511163115501404e-01" purity="3.6065572500228882e-01" nType="-99"/>
          <Node pos="r" depth="2" NCoef="0" IVar="-1" Cut="0.0000000000000000e+00" cType="1" res="9.2005282640457153e-03" rms="1.9842840731143951e-01" purity="9.2307692766189575e-01" nType="-99"/>
        </Node>
      </Node>
    </BinaryTree>
    <BinaryTree type="DecisionTree" boostWeight="1.0000000000000000e+00" itree="55">
      <Node pos="s" depth="0" NCoef="0" IVar="3" Cut="1.2750081634521484e+02" cType="1" res="2.3611230775713921e-02" rms="3.8260176777839661e-01" purity="5.3500002622604370e-01" nType="0">
        <Node pos="l" depth="1" NCoef="0" IVar="4" Cut="1.3631391525268555e+01" cType="1" res="3.7820059806108475e-02" rms="3.9981445670127869e-01" purity="5.1089918613433838e-01" nType="0">
          <Node pos="l" depth="2" NCoef="0" IVar="-1" Cut="0.0000000000000000e+00" cType="1" res="-2.5283522903919220e-02" rms="3.3942455053329468e-01" purity="4.0999999642372131e-01" nType="-99"/>
          <Node pos="r" depth="2" NCoef="0" IVar="-1" Cut="0.0000000000000000e+00" cType="1" res="1.7091142013669014e-02" rms="4.0624269843101501e-01" purity="5.2681386470794678e-01" nType="-99"/>
        </Node>
        <Node pos="r" depth="1" NCoef="0" IVar="4" Cut="7.9921394348144531e+01" cType="1" res="-1.5596595592796803e-02" rms="3.2730355858802795e-01" purity="6.0150372982025146e-01" nType="0">
          <Node pos="l" depth="2" NCoef="0" IVar="-1" Cut="0.0000000000000000e+00" cType="1" res="-3.3471282571554184e-02" rms="3.3177325129508972e-01" purity="2.2916667163372040e-01" nType="-99"/>
          <Node pos="r" depth="2" NCoef="0" IVar="-1" Cut="0.0000000000000000e+00" cType="1" res="1.7590409144759178e-02" rms="3.0845394730567932e-01" purity="8.1176471710205078e-01" nType="-99"/>
        </Node>
      </Node>
    </BinaryTree>
    <BinaryTree type="DecisionTree" boostWeight="1.0000000000000000e+00" itree="56">
      <Node pos="s" depth="0" NCoef="0" IVar="4" Cut="5.3643737792968750e+01" cType="1" res="-9.7695393487811089e-03" rms="3.6875921487808228e-01" purity="5.0626307725906372e-01" nType="0">
        <Node pos="l" depth="1" NCoef="0" IVar="3" Cut="7.7183471679687500e+01" cType="1" res="-3.8762696087360382e-02" rms="3.4748297929763794e-01" purity="3.8424438238143921e-01" nType="0">
          <Node pos="l" depth="2" NCoef="0" IVar="-1" Cut="0.0000000000000000e+00" cType="1" res="-6.9146389141678810e-03" rms="3.4685280919075012e-01" purity="4.3617022037506104e-01" nType="-99"/>
          <Node pos="r" depth="2" NCoef="0" IVar="-1" Cut="0.0000000000000000e+00" cType="1" res="-2.7398262172937393e-02" rms="3.4232184290885925e-01" purity="2.2368420660495758e-01" nType="-99"/>
        </Node>
        <Node pos="r" depth="1" NCoef="0" IVar="3" Cut="3.7401382446289062e+02" cType="1" res="4.3902315199375153e-02" rms="3.9969581365585327e-01" purity="7.3214286565780640e-01" nType="0">
          <Node pos="l" depth="2" NCoef="0" IVar="-1" Cut="0.0000000000000000e+00" cType="1" res="2.0276432856917381e-02" rms="4.0379142761230469e-01" purity="7.6140350103378296e-01" nType="-99"/>
          <Node pos="r" depth="2" NCoef="0" IVar="-1" Cut="0.0000000000000000e+00" cType="1" res="-2.7965532615780830e-02" rms="3.4944826364517212e-01" purity="5.6862747669219971e-01" nType="-99"/>
        </Node>
      </Node>
    </BinaryTree>
    <BinaryTree type="DecisionTree" boostWeight="1.0000000000000000e+00" itree="57">
      <Node pos="s" depth="0" NCoef="0" IVar="4" Cut="2.1808738708496094e+02" cType="1" res="-1.3877911493182182e-02" rms="3.6674463748931885e-01" purity="4.9449542164802551e-01" nType="0">
        <Node pos="l" depth="1" NCoef="0" IVar="3" Cut="2.3191105651855469e+02" cType="1" res="-1.8184294924139977e-02" rms="3.7303224205970764e-01" purity="4.7318008542060852e-01" nType="0">
          <Node pos="l" depth="2" NCoef="0" IVar="-1" Cut="0.0000000000000000e+00" cType="1" res="-2.9174631927162409e-03" rms="3.6856767535209656e-01" purity="4.8020833730697632e-01" nType="-99"/>
          <Node pos="r" depth="2" NCoef="0" IVar="-1" Cut="0.0000000000000000e+00" cType="1" res="-3.1618490815162659e-02" rms="4.0592390298843384e-01" purity="3.9285713434219360e-01" nType="-99"/>
        </Node>
        <Node pos="r" depth="1" NCoef="0" IVar="-1" Cut="0.0000000000000000e+00" cType="1" res="5.1729515194892883e-02" rms="1.3770130276679993e-01" purity="9.7826087474822998e-01" nType="-99"/>
      </Node>
    </BinaryTree>
    <BinaryTree type="DecisionTree" boostWeight="1.0000000000000000e+00" itree="58">
      <Node pos="s" depth="0" NCoef="0" IVar="0" Cut="9.4950300455093384e-01" cType="1" res="1.6528491396456957e-03" rms="3.7826153635978699e-01" purity="4.9000000953674316e-01" nType="0">
        <Node pos="l" depth="1" NCoef="0" IVar="1" Cut="8.1393855810165405e-01" cType="1" res="-6.5437249839305878e-02" rms="3.4011581540107727e-01" purity="6.4646464586257935e-01" nType="0">
          <Node pos="l" depth="2" NCoef="0" IVar="-1" Cut="0.0000000000000000e+00" cType="1" res="3.2302308827638626e-02" rms="1.3620437681674957e-01" purity="9.8039215803146362e-01" nType="-99"/>
          <Node pos="r" depth="2" NCoef="0" IVar="-1" Cut="0.0000000000000000e+00" cType="1" res="-3.6445729434490204e-02" rms="4.4571006298065186e-01" purity="2.9166665673255920e-01" nType="-99"/>
        </Node>
        <Node pos="r" depth="1" NCoef="0" IVar="3" Cut="1.8054780578613281e+02" cType="1" res="9.0245697647333145e-03" rms="3.8150212168693542e-01" purity="4.7280800342559814e-01" nType="0">
          <Node pos="l" depth="2" NCoef="0" IVar="-1" Cut="0.0000000000000000e+00" cType="1" res="5.2768676541745663e-03" rms="3.9012181758880615e-01" purity="4.5338442921638489e-01" nType="-99"/>
          <Node pos="r" depth="2" NCoef="0" IVar="-1" Cut="0.0000000000000000e+00" cType="1" res="-1.4179929159581661e-02" rms="3.1369990110397339e-01" purity="6.0169494152069092e-01" nType="-99"/>
        </Node>
      </Node>
    </BinaryTree>
    <BinaryTree type="DecisionTree" boostWeight="1.0000000000000000e+00" itree="59">
      <Node pos="s" depth="0" NCoef="0" IVar="0" Cut="1.0234534740447998e+00" cType="1" res="-1.1526531539857388e-02" rms="3.7382140755653381e-01" purity="4.9143370985984802e-01" nType="0">
        <Node pos="l" depth="1" NCoef="0" IVar="4" Cut="8.3395545959472656e+01" cType="1" res="-1.7257019877433777e-02" rms="3.7777671217918396e-01" purity="4.6400779485702515e-01" nType="0">
          <Node pos="l" depth="2" NCoef="0" IVar="-1" Cut="0.0000000000000000e+00" cType="1" res="-8.0695739015936852e-03" rms="3.8136211037635803e-01" purity="4.1296929121017456e-01" nType="-99"/>
          <Node pos="r" depth="2" NCoef="0" IVar="-1" Cut="0.0000000000000000e+00" cType="1" res="9.7787277773022652e-03" rms="3.5228517651557922e-01" purity="7.6510065793991089e-01" nType="-99"/>
        </Node>
        <Node pos="r" depth="1" NCoef="0" IVar="3" Cut="5.4590991210937500e+02" cType="1" res="6.1201158910989761e-02" rms="3.1033483147621155e-01" purity="8.3950614929199219e-01" nType="0">
          <Node pos="l" depth="2" NCoef="0" IVar="-1" Cut="0.0000000000000000e+00" cType="1" res="5.1067229360342026e-02" rms="3.2889717817306519e-01" purity="9.0196079015731812e-01" nType="-99"/>
          <Node pos="r" depth="2" NCoef="0" IVar="-1" Cut="0.0000000000000000e+00" cType="1" res="-2.8526958078145981e-02" rms="2.2880575060844421e-01" purity="7.3333334922790527e-01" nType="-99"/>
        </Node>
      </Node>
    </BinaryTree>
    <BinaryTree type="DecisionTree" boostWeight="1.0000000000000000e+00" itree="60">
      <Node pos="s" depth="0" NCoef="0" IVar="3" Cut="7.7306983947753906e+01" cType="1" res="3.3213340793736279e-04" rms="3.7302607297897339e-01" purity="5.0503015518188477e-01" nType="0">
        <Node pos="l" depth="1" NCoef="0" IVar="4" Cut="3.2852481842041016e+01" cType="1" res="2.1716779097914696e-02" rms="3.5788300633430481e-01" purity="4.7912526130676270e-01" nType="0">
          <Node pos="l" depth="2" NCoef="0" IVar="-1" Cut="0.0000000000000000e+00" cType="1" res="-1.0322022717446089e-03" rms="3.3703309297561646e-01" purity="4.0053051710128784e-01" nType="-99"/>
          <Node pos="r" depth="2" NCoef="0" IVar="-1" Cut="0.0000000000000000e+00" cType="1" res="3.1140537932515144e-02" rms="4.0531828999519348e-01" purity="7.1428573131561279e-01" nType="-99"/>
        </Node>
        <Node pos="r" depth="1" NCoef="0" IVar="2" Cut="9.1612905263900757e-01" cType="1" res="-2.1575151011347771e-02" rms="3.8670241832733154e-01" purity="5.3156822919845581e-01" nType="0">
          <Node pos="l" depth="2" NCoef="0" IVar="-1" Cut="0.0000000000000000e+00" cType="1" res="-5.4075364023447037e-02" rms="3.3330976963043213e-01" purity="7.0707070827484131e-01" nType="-99"/>
          <Node pos="r" depth="2" NCoef="0" IVar="-1" Cut="0.0000000000000000e+00" cType="1" res="3.9385200943797827e-04" rms="3.9575934410095215e-01" purity="4.8724490404129028e-01" nType="-99"/>
        </Node>
      </Node>
    </BinaryTree>
    <BinaryTree type="DecisionTree" boostWeight="1.0000000000000000e+00" itree="61">
      <Node pos="s" depth="0" NCoef="0" IVar="2" Cut="9.7198879718780518e-01" cType="1" res="5.4284641519188881e-03" rms="3.8093319535255432e-01" purity="5.0301206111907959e-01" nType="0">
        <Node pos="l" depth="1" NCoef="0" IVar="1" Cut="5.7257199287414551e-01" cType="1" res="3.2379359006881714e-02" rms="3.7785592675209045e-01" purity="6.3123643398284912e-01" nType="0">
          <Node pos="l" depth="2" NCoef="0" IVar="-1" Cut="0.0000000000000000e+00" cType="1" res="-2.3534130305051804e-02" rms="2.7908563613891602e-01" purity="9.1304349899291992e-01" nType="-99"/>
          <Node pos="r" depth="2" NCoef="0" IVar="-1" Cut="0.0000000000000000e+00" cType="1" res="1.6743499785661697e-02" rms="4.1802340745925903e-01" purity="4.7999998927116394e-01" nType="-99"/>
        </Node>
        <Node pos="r" depth="1" NCoef="0" IVar="2" Cut="9.7736227512359619e-01" cType="1" res="-1.7794644460082054e-02" rms="3.8204309344291687e-01" purity="3.9252337813377380e-01" nType="0">
          <Node pos="l" depth="2" NCoef="0" IVar="-1" Cut="0.0000000000000000e+00" cType="1" res="2.0248487591743469e-02" rms="4.2099857330322266e-01" purity="4.3835616111755371e-01" nType="-99"/>
