<?xml version="1.0"?>
<MethodSetup Method="BDT::BDTG">
  <GeneralInfo>
    <Info name="TMVA Release" value="4.2.1 [262657]"/>
    <Info name="ROOT Release" value="6.12/06 [396294]"/>
    <Info name="Creator" value="kduffy"/>
    <Info name="Date" value="Mon Feb  4 13:51:33 2019"/>
    <Info name="Host" value="Linux buildservice002.fnal.gov 2.6.32-696.20.1.el6.x86_64 #1 SMP Thu Jan 25 08:47:49 CST 2018 x86_64 x86_64 x86_64 GNU/Linux"/>
    <Info name="Dir" value="/uboone/app/users/kduffy/CC1pi/CC1pi_uboonecode/srcs/uboonecode/uboone/CC1pi/ignore/2019-01-28"/>
    <Info name="Training events" value="2000"/>
    <Info name="TrainingTime" value="1.49181294e+00"/>
    <Info name="AnalysisType" value="Classification"/>
  </GeneralInfo>
  <Options>
    <Option name="V" modified="Yes">False</Option>
    <Option name="VerbosityLevel" modified="No">Default</Option>
    <Option name="VarTransform" modified="No">None</Option>
    <Option name="H" modified="Yes">False</Option>
    <Option name="CreateMVAPdfs" modified="Yes">True</Option>
    <Option name="IgnoreNegWeightsInTraining" modified="No">False</Option>
    <Option name="NTrees" modified="Yes">1000</Option>
    <Option name="MaxDepth" modified="Yes">2</Option>
    <Option name="MinNodeSize" modified="Yes">2.5%</Option>
    <Option name="nCuts" modified="Yes">20</Option>
    <Option name="BoostType" modified="Yes">Grad</Option>
    <Option name="AdaBoostR2Loss" modified="No">quadratic</Option>
    <Option name="UseBaggedBoost" modified="Yes">True</Option>
    <Option name="Shrinkage" modified="Yes">1.000000e-01</Option>
    <Option name="AdaBoostBeta" modified="No">5.000000e-01</Option>
    <Option name="UseRandomisedTrees" modified="No">False</Option>
    <Option name="UseNvars" modified="No">3</Option>
    <Option name="UsePoissonNvars" modified="No">True</Option>
    <Option name="BaggedSampleFraction" modified="Yes">5.000000e-01</Option>
    <Option name="UseYesNoLeaf" modified="No">True</Option>
    <Option name="NegWeightTreatment" modified="No">pray</Option>
    <Option name="Css" modified="No">1.000000e+00</Option>
    <Option name="Cts_sb" modified="No">1.000000e+00</Option>
    <Option name="Ctb_ss" modified="No">1.000000e+00</Option>
    <Option name="Cbb" modified="No">1.000000e+00</Option>
    <Option name="NodePurityLimit" modified="No">5.000000e-01</Option>
    <Option name="SeparationType" modified="No">giniindex</Option>
    <Option name="RegressionLossFunctionBDTG" modified="No">huber</Option>
    <Option name="HuberQuantile" modified="No">7.000000e-01</Option>
    <Option name="DoBoostMonitor" modified="No">False</Option>
    <Option name="UseFisherCuts" modified="No">False</Option>
    <Option name="MinLinCorrForFisher" modified="No">8.000000e-01</Option>
    <Option name="UseExclusiveVars" modified="No">False</Option>
    <Option name="DoPreselection" modified="No">False</Option>
    <Option name="SigToBkgFraction" modified="No">1.000000e+00</Option>
    <Option name="PruneMethod" modified="No">nopruning</Option>
    <Option name="PruneStrength" modified="No">0.000000e+00</Option>
    <Option name="PruningValFraction" modified="No">5.000000e-01</Option>
    <Option name="SkipNormalization" modified="No">False</Option>
    <Option name="nEventsMin" modified="No">0</Option>
    <Option name="UseBaggedGrad" modified="No">False</Option>
    <Option name="GradBaggingFraction" modified="No">5.000000e-01</Option>
    <Option name="UseNTrainEvents" modified="No">0</Option>
    <Option name="NNodesMax" modified="No">0</Option>
  </Options>
  <Variables NVar="9">
    <Variable VarIndex="0" Expression="length_over_startend" Label="length_over_startend" Title="length_over_startend" Unit="" Internal="length_over_startend" Type="D" Min="8.82976294e-01" Max="1.40941954e+00"/>
    <Variable VarIndex="1" Expression="track_length_over_longest" Label="track_length_over_longest" Title="track_length_over_longest" Unit="" Internal="track_length_over_longest" Type="D" Min="3.61955585e-03" Max="1.00000000e+00"/>
    <Variable VarIndex="2" Expression="ndaughters" Label="ndaughters" Title="ndaughters" Unit="" Internal="ndaughters" Type="D" Min="0.00000000e+00" Max="3.00000000e+00"/>
    <Variable VarIndex="3" Expression="lnLmipovermu" Label="lnLmipovermu" Title="lnLmipovermu" Unit="" Internal="lnLmipovermu" Type="D" Min="-2.64312630e+01" Max="1.12216272e+01"/>
    <Variable VarIndex="4" Expression="perc_used_hits" Label="perc_used_hits" Title="perc_used_hits" Unit="" Internal="perc_used_hits" Type="D" Min="1.27659574e-01" Max="1.00000000e+00"/>
    <Variable VarIndex="5" Expression="MCS_pi_maxScatter" Label="MCS_pi_maxScatter" Title="MCS_pi_maxScatter" Unit="" Internal="MCS_pi_maxScatter" Type="D" Min="-9.99000000e+02" Max="1.79235132e+03"/>
    <Variable VarIndex="6" Expression="MCS_pi_meanScatter" Label="MCS_pi_meanScatter" Title="MCS_pi_meanScatter" Unit="" Internal="MCS_pi_meanScatter" Type="D" Min="-9.99000000e+02" Max="9.08533813e+02"/>
    <Variable VarIndex="7" Expression="n_unused_hits_nearend" Label="n_unused_hits_nearend" Title="n_unused_hits_nearend" Unit="" Internal="n_unused_hits_nearend" Type="D" Min="0.00000000e+00" Max="3.10000000e+01"/>
    <Variable VarIndex="8" Expression="unmatched_charge_nearend_plane2" Label="unmatched_charge_nearend_plane2" Title="unmatched_charge_nearend_plane2" Unit="" Internal="unmatched_charge_nearend_plane2" Type="D" Min="-1.23525274e+00" Max="7.74916162e+03"/>
  </Variables>
  <Spectators NSpec="3">
    <Spectator SpecIndex="0" Expression="track_length" Label="track_length" Title="track_length" Unit="" Internal="track_length" Type="F" Min="1.00891125e+00" Max="7.99504700e+02"/>
    <Spectator SpecIndex="1" Expression="pandoraclassedastrack" Label="pandoraclassedastrack" Title="pandoraclassedastrack" Unit="" Internal="pandoraclassedastrack" Type="F" Min="0.00000000e+00" Max="1.00000000e+00"/>
    <Spectator SpecIndex="2" Expression="lnLmipoverpi" Label="lnLmipoverpi" Title="lnLmipoverpi" Unit="" Internal="lnLmipoverpi" Type="F" Min="-2.63804779e+01" Max="1.42720537e+01"/>
  </Spectators>
  <Classes NClass="2">
    <Class Name="Signal" Index="0"/>
    <Class Name="Background" Index="1"/>
  </Classes>
  <Transformations NTransformations="0"/>
  <MVAPdfs>
    <PDF Name="BDTG_PDFSig" MinNSmooth="0" MaxNSmooth="0" InterpolMethod="2" KDE_type="1" KDE_iter="1" KDE_border="1" KDE_finefactor="1.0000000000000000e+00">
      <Histogram Name="BDT_tr_S_original" NBins="40" XMin="-9.8895186185836792e-01" XMax="9.9618840217590332e-01" HasEquidistantBins="1">
        2.01698796e-02 2.01698796e-02 4.03397591e-02 4.03397591e-02 1.21019277e-01 8.06795182e-02 8.06795182e-02 1.00849398e-01 2.42038555e-01 6.05096387e-02 1.81528916e-01 2.42038555e-01 8.06795182e-02 1.41189157e-01 1.61359036e-01 2.42038555e-01 2.82378314e-01 2.62208434e-01 1.21019277e-01 2.62208434e-01 2.21868675e-01 3.22718073e-01 3.63057832e-01 4.43737350e-01 6.05096387e-01 4.23567471e-01 5.44586748e-01 3.63057832e-01 5.04246989e-01 6.65606026e-01 9.07644580e-01 8.06795182e-01 8.26965062e-01 9.88324099e-01 1.10934338e+00 1.21019277e+00 1.19002289e+00 1.67410000e+00 1.97664820e+00 2.21868675e+00 
      </Histogram>
    </PDF>
    <PDF Name="BDTG_PDFBkg" MinNSmooth="0" MaxNSmooth="0" InterpolMethod="2" KDE_type="1" KDE_iter="1" KDE_border="1" KDE_finefactor="1.0000000000000000e+00">
      <Histogram Name="BDT_tr_B_original" NBins="40" XMin="-9.8895186185836792e-01" XMax="9.9618840217590332e-01" HasEquidistantBins="1">
        3.28440268e+00 2.74036052e+00 1.63212648e+00 8.86587226e-01 9.06736936e-01 9.47036355e-01 5.84341581e-01 5.44042161e-01 6.44790710e-01 5.23892452e-01 4.63443323e-01 3.42545065e-01 5.23892452e-01 4.63443323e-01 4.02994194e-01 5.84341581e-01 2.21646807e-01 2.61946226e-01 4.43293613e-01 3.62694774e-01 3.42545065e-01 2.21646807e-01 3.02245645e-01 3.02245645e-01 3.22395355e-01 2.61946226e-01 3.42545065e-01 1.81347387e-01 2.21646807e-01 1.20898258e-01 1.20898258e-01 1.00748548e-01 1.20898258e-01 1.20898258e-01 1.00748548e-01 2.01497097e-02 6.04491290e-02 8.05988387e-02 4.02994194e-02 0.00000000e+00 
      </Histogram>
    </PDF>
  </MVAPdfs>
  <Weights NTrees="1000" AnalysisType="1">
    <BinaryTree type="DecisionTree" boostWeight="1.0000000000000000e+00" itree="0">
      <Node pos="s" depth="0" NCoef="0" IVar="1" Cut="9.5257061719894409e-01" cType="1" res="-1.1673151515424252e-02" rms="4.9986371397972107e-01" purity="4.8832684755325317e-01" nType="0">
        <Node pos="l" depth="1" NCoef="0" IVar="5" Cut="6.2113830566406250e+01" cType="1" res="2.2677595913410187e-01" rms="4.4561493396759033e-01" purity="7.2677594423294067e-01" nType="0">
          <Node pos="l" depth="2" NCoef="0" IVar="-1" Cut="0.0000000000000000e+00" cType="1" res="2.2658610716462135e-02" rms="4.8699557781219482e-01" purity="6.1329305171966553e-01" nType="-99"/>
          <Node pos="r" depth="2" NCoef="0" IVar="-1" Cut="0.0000000000000000e+00" cType="1" res="7.9816512763500214e-02" rms="3.0121937394142151e-01" purity="8.9908254146575928e-01" nType="-99"/>
        </Node>
        <Node pos="r" depth="1" NCoef="0" IVar="3" Cut="3.3952349424362183e-01" cType="1" res="-2.8496867418289185e-01" rms="4.1084405779838562e-01" purity="2.1503131091594696e-01" nType="0">
          <Node pos="l" depth="2" NCoef="0" IVar="-1" Cut="0.0000000000000000e+00" cType="1" res="-7.7894739806652069e-02" rms="3.1354466080665588e-01" purity="1.1052631586790085e-01" nType="-99"/>
          <Node pos="r" depth="2" NCoef="0" IVar="-1" Cut="0.0000000000000000e+00" cType="1" res="2.3232324048876762e-02" rms="4.8631930351257324e-01" purity="6.1616164445877075e-01" nType="-99"/>
        </Node>
      </Node>
    </BinaryTree>
    <BinaryTree type="DecisionTree" boostWeight="1.0000000000000000e+00" itree="1">
      <Node pos="s" depth="0" NCoef="0" IVar="1" Cut="9.5255333185195923e-01" cType="1" res="-1.5880940482020378e-02" rms="4.8205071687698364e-01" purity="4.8469388484954834e-01" nType="0">
        <Node pos="l" depth="1" NCoef="0" IVar="5" Cut="1.2202336883544922e+02" cType="1" res="1.7732207477092743e-01" rms="4.5473712682723999e-01" purity="7.0054447650909424e-01" nType="0">
          <Node pos="l" depth="2" NCoef="0" IVar="-1" Cut="0.0000000000000000e+00" cType="1" res="2.2709792479872704e-02" rms="4.8150160908699036e-01" purity="6.3080686330795288e-01" nType="-99"/>
          <Node pos="r" depth="2" NCoef="0" IVar="-1" Cut="0.0000000000000000e+00" cType="1" res="7.2778634727001190e-02" rms="2.9811280965805054e-01" purity="9.0140843391418457e-01" nType="-99"/>
        </Node>
        <Node pos="r" depth="1" NCoef="0" IVar="3" Cut="4.3729549646377563e-01" cType="1" res="-2.6402747631072998e-01" rms="3.9461001753807068e-01" purity="2.0745921134948730e-01" nType="0">
          <Node pos="l" depth="2" NCoef="0" IVar="-1" Cut="0.0000000000000000e+00" cType="1" res="-6.7976638674736023e-02" rms="3.2783702015876770e-01" purity="1.2637363374233246e-01" nType="-99"/>
          <Node pos="r" depth="2" NCoef="0" IVar="-1" Cut="0.0000000000000000e+00" cType="1" res="3.0001062899827957e-02" rms="4.7318634390830994e-01" purity="6.6153848171234131e-01" nType="-99"/>
        </Node>
      </Node>
    </BinaryTree>
    <BinaryTree type="DecisionTree" boostWeight="1.0000000000000000e+00" itree="2">
      <Node pos="s" depth="0" NCoef="0" IVar="1" Cut="9.5264345407485962e-01" cType="1" res="2.7956822887063026e-02" rms="4.6827641129493713e-01" purity="5.2766799926757812e-01" nType="0">
        <Node pos="l" depth="1" NCoef="0" IVar="6" Cut="5.3380084991455078e+01" cType="1" res="2.2227904200553894e-01" rms="4.2058694362640381e-01" purity="7.6283186674118042e-01" nType="0">
          <Node pos="l" depth="2" NCoef="0" IVar="-1" Cut="0.0000000000000000e+00" cType="1" res="3.2784249633550644e-02" rms="4.6240603923797607e-01" purity="6.8838524818420410e-01" nType="-99"/>
          <Node pos="r" depth="2" NCoef="0" IVar="-1" Cut="0.0000000000000000e+00" cType="1" res="6.5239012241363525e-02" rms="3.1632632017135620e-01" purity="8.8679248094558716e-01" nType="-99"/>
        </Node>
        <Node pos="r" depth="1" NCoef="0" IVar="3" Cut="3.7733098864555359e-01" cType="1" res="-2.1766297519207001e-01" rms="4.0596035122871399e-01" purity="2.3042505979537964e-01" nType="0">
          <Node pos="l" depth="2" NCoef="0" IVar="-1" Cut="0.0000000000000000e+00" cType="1" res="-5.9065312147140503e-02" rms="3.4574165940284729e-01" purity="1.3920454680919647e-01" nType="-99"/>
          <Node pos="r" depth="2" NCoef="0" IVar="-1" Cut="0.0000000000000000e+00" cType="1" res="9.5254732295870781e-03" rms="4.9319624900817871e-01" purity="5.6842106580734253e-01" nType="-99"/>
        </Node>
      </Node>
    </BinaryTree>
    <BinaryTree type="DecisionTree" boostWeight="1.0000000000000000e+00" itree="3">
      <Node pos="s" depth="0" NCoef="0" IVar="1" Cut="8.1030648946762085e-01" cType="1" res="-2.0128848031163216e-02" rms="4.5812794566154480e-01" purity="4.7551020979881287e-01" nType="0">
        <Node pos="l" depth="1" NCoef="0" IVar="3" Cut="1.0594063997268677e-01" cType="1" res="1.5082465112209320e-01" rms="4.4518935680389404e-01" purity="7.1172964572906494e-01" nType="0">
          <Node pos="l" depth="2" NCoef="0" IVar="-1" Cut="0.0000000000000000e+00" cType="1" res="4.9173112958669662e-02" rms="3.8955092430114746e-01" purity="8.0590718984603882e-01" nType="-99"/>
          <Node pos="r" depth="2" NCoef="0" IVar="-1" Cut="0.0000000000000000e+00" cType="1" res="1.4355119317770004e-02" rms="4.7531372308731079e-01" purity="6.2781953811645508e-01" nType="-99"/>
        </Node>
        <Node pos="r" depth="1" NCoef="0" IVar="2" Cut="1.4285714924335480e-01" cType="1" res="-2.0040057599544525e-01" rms="3.9860999584197998e-01" purity="2.2641509771347046e-01" nType="0">
          <Node pos="l" depth="2" NCoef="0" IVar="-1" Cut="0.0000000000000000e+00" cType="1" res="-5.3117245435714722e-02" rms="3.5098105669021606e-01" purity="1.6571427881717682e-01" nType="-99"/>
          <Node pos="r" depth="2" NCoef="0" IVar="-1" Cut="0.0000000000000000e+00" cType="1" res="-9.5633789896965027e-03" rms="4.7432413697242737e-01" purity="3.9370077848434448e-01" nType="-99"/>
        </Node>
      </Node>
    </BinaryTree>
    <BinaryTree type="DecisionTree" boostWeight="1.0000000000000000e+00" itree="4">
      <Node pos="s" depth="0" NCoef="0" IVar="1" Cut="7.6276654005050659e-01" cType="1" res="-2.2015860304236412e-03" rms="4.4895160198211670e-01" purity="4.9584200978279114e-01" nType="0">
        <Node pos="l" depth="1" NCoef="0" IVar="1" Cut="7.4299044907093048e-02" cType="1" res="1.7234775424003601e-01" rms="4.2677709460258484e-01" purity="7.4901962280273438e-01" nType="0">
          <Node pos="l" depth="2" NCoef="0" IVar="-1" Cut="0.0000000000000000e+00" cType="1" res="1.2125178240239620e-02" rms="4.8193082213401794e-01" purity="6.2303662300109863e-01" nType="-99"/>
          <Node pos="r" depth="2" NCoef="0" IVar="-1" Cut="0.0000000000000000e+00" cType="1" res="4.9616161733865738e-02" rms="3.7409698963165283e-01" purity="8.2445138692855835e-01" nType="-99"/>
        </Node>
        <Node pos="r" depth="1" NCoef="0" IVar="3" Cut="1.4218266308307648e-01" cType="1" res="-1.9914886355400085e-01" rms="3.8768920302391052e-01" purity="2.1017698943614960e-01" nType="0">
          <Node pos="l" depth="2" NCoef="0" IVar="-1" Cut="0.0000000000000000e+00" cType="1" res="-5.7498402893543243e-02" rms="3.1077650189399719e-01" purity="1.1526479572057724e-01" nType="-99"/>
          <Node pos="r" depth="2" NCoef="0" IVar="-1" Cut="0.0000000000000000e+00" cType="1" res="-5.0815180875360966e-03" rms="4.8907065391540527e-01" purity="4.4274809956550598e-01" nType="-99"/>
        </Node>
      </Node>
    </BinaryTree>
    <BinaryTree type="DecisionTree" boostWeight="1.0000000000000000e+00" itree="5">
      <Node pos="s" depth="0" NCoef="0" IVar="1" Cut="8.1021326780319214e-01" cType="1" res="-1.4421394094824791e-02" rms="4.4819533824920654e-01" purity="4.8255234956741333e-01" nType="0">
        <Node pos="l" depth="1" NCoef="0" IVar="6" Cut="6.7608787536621094e+01" cType="1" res="1.0711062699556351e-01" rms="4.4786345958709717e-01" purity="7.0057582855224609e-01" nType="0">
          <Node pos="l" depth="2" NCoef="0" IVar="-1" Cut="0.0000000000000000e+00" cType="1" res="7.9427249729633331e-03" rms="4.8445153236389160e-01" purity="6.1351352930068970e-01" nType="-99"/>
          <Node pos="r" depth="2" NCoef="0" IVar="-1" Cut="0.0000000000000000e+00" cType="1" res="5.9596937149763107e-02" rms="2.7838909626007080e-01" purity="9.1390728950500488e-01" nType="-99"/>
        </Node>
        <Node pos="r" depth="1" NCoef="0" IVar="6" Cut="1.0372637939453125e+02" cType="1" res="-1.4578692615032196e-01" rms="4.0985178947448730e-01" purity="2.4688796699047089e-01" nType="0">
          <Node pos="l" depth="2" NCoef="0" IVar="-1" Cut="0.0000000000000000e+00" cType="1" res="-3.8808543235063553e-02" rms="3.8592135906219482e-01" purity="2.1065989136695862e-01" nType="-99"/>
          <Node pos="r" depth="2" NCoef="0" IVar="-1" Cut="0.0000000000000000e+00" cType="1" res="2.8309975750744343e-03" rms="4.7147914767265320e-01" purity="4.0909090638160706e-01" nType="-99"/>
        </Node>
      </Node>
    </BinaryTree>
    <BinaryTree type="DecisionTree" boostWeight="1.0000000000000000e+00" itree="6">
      <Node pos="s" depth="0" NCoef="0" IVar="1" Cut="8.5765993595123291e-01" cType="1" res="-1.5389771200716496e-02" rms="4.3090417981147766e-01" purity="4.7517731785774231e-01" nType="0">
        <Node pos="l" depth="1" NCoef="0" IVar="2" Cut="9.5238097012042999e-02" cType="1" res="1.3205257058143616e-01" rms="4.2931872606277466e-01" purity="7.3673868179321289e-01" nType="0">
          <Node pos="l" depth="2" NCoef="0" IVar="-1" Cut="0.0000000000000000e+00" cType="1" res="1.7195791006088257e-02" rms="4.5193967223167419e-01" purity="6.8681317567825317e-01" nType="-99"/>
          <Node pos="r" depth="2" NCoef="0" IVar="-1" Cut="0.0000000000000000e+00" cType="1" res="5.4501172155141830e-02" rms="3.3417740464210510e-01" purity="8.6206895112991333e-01" nType="-99"/>
        </Node>
        <Node pos="r" depth="1" NCoef="0" IVar="3" Cut="2.3286145925521851e-01" cType="1" res="-1.7239427566528320e-01" rms="3.7327092885971069e-01" purity="1.9665272533893585e-01" nType="0">
          <Node pos="l" depth="2" NCoef="0" IVar="-1" Cut="0.0000000000000000e+00" cType="1" res="-5.5092893540859222e-02" rms="2.8457260131835938e-01" purity="9.3922652304172516e-02" nType="-99"/>
          <Node pos="r" depth="2" NCoef="0" IVar="-1" Cut="0.0000000000000000e+00" cType="1" res="1.2190475128591061e-02" rms="5.0025546550750732e-01" purity="5.1724135875701904e-01" nType="-99"/>
        </Node>
      </Node>
    </BinaryTree>
    <BinaryTree type="DecisionTree" boostWeight="1.0000000000000000e+00" itree="7">
      <Node pos="s" depth="0" NCoef="0" IVar="1" Cut="9.5267057418823242e-01" cType="1" res="-1.4442487619817257e-02" rms="4.3829759955406189e-01" purity="4.8393782973289490e-01" nType="0">
        <Node pos="l" depth="1" NCoef="0" IVar="2" Cut="9.5238097012042999e-02" cType="1" res="7.2571642696857452e-02" rms="4.4985648989677429e-01" purity="6.8726593255996704e-01" nType="0">
          <Node pos="l" depth="2" NCoef="0" IVar="-1" Cut="0.0000000000000000e+00" cType="1" res="3.5781203769147396e-03" rms="4.6812972426414490e-01" purity="6.2899261713027954e-01" nType="-99"/>
          <Node pos="r" depth="2" NCoef="0" IVar="-1" Cut="0.0000000000000000e+00" cType="1" res="5.3873926401138306e-02" rms="3.2672247290611267e-01" purity="8.7401574850082397e-01" nType="-99"/>
        </Node>
        <Node pos="r" depth="1" NCoef="0" IVar="3" Cut="-2.7197107672691345e-01" cType="1" res="-1.2225118279457092e-01" rms="3.9797201752662659e-01" purity="2.3201856017112732e-01" nType="0">
          <Node pos="l" depth="2" NCoef="0" IVar="-1" Cut="0.0000000000000000e+00" cType="1" res="-5.4411727935075760e-02" rms="2.6861715316772461e-01" purity="7.9295150935649872e-02" nType="-99"/>
          <Node pos="r" depth="2" NCoef="0" IVar="-1" Cut="0.0000000000000000e+00" cType="1" res="4.4895702740177512e-04" rms="4.7431567311286926e-01" purity="4.0196079015731812e-01" nType="-99"/>
        </Node>
      </Node>
    </BinaryTree>
    <BinaryTree type="DecisionTree" boostWeight="1.0000000000000000e+00" itree="8">
      <Node pos="s" depth="0" NCoef="0" IVar="1" Cut="9.5265311002731323e-01" cType="1" res="2.6560828555375338e-03" rms="4.2163646221160889e-01" purity="5.0147205591201782e-01" nType="0">
        <Node pos="l" depth="1" NCoef="0" IVar="5" Cut="6.4371932983398438e+01" cType="1" res="1.1975497752428055e-01" rms="4.2297902703285217e-01" purity="7.4159294366836548e-01" nType="0">
          <Node pos="l" depth="2" NCoef="0" IVar="-1" Cut="0.0000000000000000e+00" cType="1" res="1.0869091376662254e-02" rms="4.7310888767242432e-01" purity="6.4387464523315430e-01" nType="-99"/>
          <Node pos="r" depth="2" NCoef="0" IVar="-1" Cut="0.0000000000000000e+00" cType="1" res="5.2438106387853622e-02" rms="2.9255154728889465e-01" purity="9.0186917781829834e-01" nType="-99"/>
        </Node>
        <Node pos="r" depth="1" NCoef="0" IVar="4" Cut="9.6345514059066772e-01" cType="1" res="-1.4307270944118500e-01" rms="3.7157040834426880e-01" purity="2.0264317095279694e-01" nType="0">
          <Node pos="l" depth="2" NCoef="0" IVar="-1" Cut="0.0000000000000000e+00" cType="1" res="-9.7934622317552567e-03" rms="4.2642566561698914e-01" purity="3.1284916400909424e-01" nType="-99"/>
          <Node pos="r" depth="2" NCoef="0" IVar="-1" Cut="0.0000000000000000e+00" cType="1" res="-4.7901920974254608e-02" rms="3.1445342302322388e-01" purity="1.3090908527374268e-01" nType="-99"/>
        </Node>
      </Node>
    </BinaryTree>
    <BinaryTree type="DecisionTree" boostWeight="1.0000000000000000e+00" itree="9">
      <Node pos="s" depth="0" NCoef="0" IVar="1" Cut="9.5255333185195923e-01" cType="1" res="-5.6498213671147823e-03" rms="4.2451608180999756e-01" purity="4.8752599954605103e-01" nType="0">
        <Node pos="l" depth="1" NCoef="0" IVar="3" Cut="-3.1223309040069580e+00" cType="1" res="9.4349384307861328e-02" rms="4.3532413244247437e-01" purity="7.2639691829681396e-01" nType="0">
          <Node pos="l" depth="2" NCoef="0" IVar="-1" Cut="0.0000000000000000e+00" cType="1" res="6.6424809396266937e-02" rms="2.6169532537460327e-01" purity="9.2682927846908569e-01" nType="-99"/>
          <Node pos="r" depth="2" NCoef="0" IVar="-1" Cut="0.0000000000000000e+00" cType="1" res="1.6506625339388847e-02" rms="4.4208654761314392e-01" purity="7.0920503139495850e-01" nType="-99"/>
        </Node>
        <Node pos="r" depth="1" NCoef="0" IVar="4" Cut="9.6345514059066772e-01" cType="1" res="-1.2280464917421341e-01" rms="3.7932273745536804e-01" purity="2.0767495036125183e-01" nType="0">
          <Node pos="l" depth="2" NCoef="0" IVar="-1" Cut="0.0000000000000000e+00" cType="1" res="-3.3165288623422384e-03" rms="4.5105823874473572e-01" purity="3.4444445371627808e-01" nType="-99"/>
          <Node pos="r" depth="2" NCoef="0" IVar="-1" Cut="0.0000000000000000e+00" cType="1" res="-4.7169219702482224e-02" rms="2.9941117763519287e-01" purity="1.1406844109296799e-01" nType="-99"/>
        </Node>
      </Node>
    </BinaryTree>
    <BinaryTree type="DecisionTree" boostWeight="1.0000000000000000e+00" itree="10">
      <Node pos="s" depth="0" NCoef="0" IVar="1" Cut="8.1021326780319214e-01" cType="1" res="2.5984320789575577e-02" rms="4.1873323917388916e-01" purity="5.2272725105285645e-01" nType="0">
        <Node pos="l" depth="1" NCoef="0" IVar="7" Cut="9.5238095521926880e-01" cType="1" res="1.0279042273759842e-01" rms="4.1798710823059082e-01" purity="7.5000000000000000e-01" nType="0">
          <Node pos="l" depth="2" NCoef="0" IVar="-1" Cut="0.0000000000000000e+00" cType="1" res="3.2154556829482317e-03" rms="4.5319691300392151e-01" purity="6.6000002622604370e-01" nType="-99"/>
          <Node pos="r" depth="2" NCoef="0" IVar="-1" Cut="0.0000000000000000e+00" cType="1" res="3.9231531322002411e-02" rms="3.7008643150329590e-01" purity="8.2550334930419922e-01" nType="-99"/>
        </Node>
        <Node pos="r" depth="1" NCoef="0" IVar="3" Cut="-1.2563574314117432e-01" cType="1" res="-6.4726330339908600e-02" rms="4.0109762549400330e-01" purity="2.5431033968925476e-01" nType="0">
          <Node pos="l" depth="2" NCoef="0" IVar="-1" Cut="0.0000000000000000e+00" cType="1" res="-4.3314542621374130e-02" rms="2.9058587551116943e-01" purity="1.0238907486200333e-01" nType="-99"/>
          <Node pos="r" depth="2" NCoef="0" IVar="-1" Cut="0.0000000000000000e+00" cType="1" res="2.4739047512412071e-02" rms="4.9077454209327698e-01" purity="5.1461988687515259e-01" nType="-99"/>
        </Node>
      </Node>
    </BinaryTree>
    <BinaryTree type="DecisionTree" boostWeight="1.0000000000000000e+00" itree="11">
      <Node pos="s" depth="0" NCoef="0" IVar="1" Cut="7.1531987190246582e-01" cType="1" res="7.1781375445425510e-03" rms="4.2272132635116577e-01" purity="5.0840336084365845e-01" nType="0">
        <Node pos="l" depth="1" NCoef="0" IVar="6" Cut="4.3265655517578125e+01" cType="1" res="6.9454029202461243e-02" rms="4.2980948090553284e-01" purity="7.2564613819122314e-01" nType="0">
          <Node pos="l" depth="2" NCoef="0" IVar="-1" Cut="0.0000000000000000e+00" cType="1" res="-1.8122820183634758e-03" rms="4.8158821463584900e-01" purity="6.1224490404129028e-01" nType="-99"/>
          <Node pos="r" depth="2" NCoef="0" IVar="-1" Cut="0.0000000000000000e+00" cType="1" res="4.3388996273279190e-02" rms="3.1268852949142456e-01" purity="8.8516747951507568e-01" nType="-99"/>
        </Node>
        <Node pos="r" depth="1" NCoef="0" IVar="3" Cut="3.4410414099693298e-01" cType="1" res="-6.2587499618530273e-02" rms="4.0337544679641724e-01" purity="2.6503339409828186e-01" nType="0">
          <Node pos="l" depth="2" NCoef="0" IVar="-1" Cut="0.0000000000000000e+00" cType="1" res="-3.1789850443601608e-02" rms="3.4594607353210449e-01" purity="1.5384615957736969e-01" nType="-99"/>
          <Node pos="r" depth="2" NCoef="0" IVar="-1" Cut="0.0000000000000000e+00" cType="1" res="2.4927236139774323e-02" rms="4.9796724319458008e-01" purity="6.0360360145568848e-01" nType="-99"/>
        </Node>
      </Node>
    </BinaryTree>
    <BinaryTree type="DecisionTree" boostWeight="1.0000000000000000e+00" itree="12">
      <Node pos="s" depth="0" NCoef="0" IVar="1" Cut="5.2553313970565796e-01" cType="1" res="-1.0038880631327629e-02" rms="4.1445183753967285e-01" purity="4.8543688654899597e-01" nType="0">
        <Node pos="l" depth="1" NCoef="0" IVar="1" Cut="7.8123606741428375e-02" cType="1" res="6.2424417585134506e-02" rms="4.2458930611610413e-01" purity="7.2708755731582642e-01" nType="0">
          <Node pos="l" depth="2" NCoef="0" IVar="-1" Cut="0.0000000000000000e+00" cType="1" res="-1.0252291336655617e-02" rms="4.8059052228927612e-01" purity="5.7837837934494019e-01" nType="-99"/>
          <Node pos="r" depth="2" NCoef="0" IVar="-1" Cut="0.0000000000000000e+00" cType="1" res="3.0493628233671188e-02" rms="3.7132570147514343e-01" purity="8.1699347496032715e-01" nType="-99"/>
        </Node>
        <Node pos="r" depth="1" NCoef="0" IVar="6" Cut="1.7387605285644531e+02" cType="1" res="-7.6049044728279114e-02" rms="3.9354971051216125e-01" purity="2.6530611515045166e-01" nType="0">
          <Node pos="l" depth="2" NCoef="0" IVar="-1" Cut="0.0000000000000000e+00" cType="1" res="-2.3148106411099434e-02" rms="3.8176935911178589e-01" purity="2.4509803950786591e-01" nType="-99"/>
          <Node pos="r" depth="2" NCoef="0" IVar="-1" Cut="0.0000000000000000e+00" cType="1" res="5.2485413849353790e-02" rms="4.6867969632148743e-01" purity="6.2068963050842285e-01" nType="-99"/>
        </Node>
      </Node>
    </BinaryTree>
    <BinaryTree type="DecisionTree" boostWeight="1.0000000000000000e+00" itree="13">
      <Node pos="s" depth="0" NCoef="0" IVar="2" Cut="1.4285714924335480e-01" cType="1" res="-7.4009313248097897e-03" rms="4.1363486647605896e-01" purity="4.9572649598121643e-01" nType="0">
        <Node pos="l" depth="1" NCoef="0" IVar="3" Cut="-1.2301726341247559e+00" cType="1" res="-4.7816701233386993e-02" rms="4.0045988559722900e-01" purity="4.3781095743179321e-01" nType="0">
          <Node pos="l" depth="2" NCoef="0" IVar="-1" Cut="0.0000000000000000e+00" cType="1" res="3.4029055386781693e-02" rms="3.7571918964385986e-01" purity="7.7876108884811401e-01" nType="-99"/>
          <Node pos="r" depth="2" NCoef="0" IVar="-1" Cut="0.0000000000000000e+00" cType="1" res="-1.9522087648510933e-02" rms="3.9506775140762329e-01" purity="3.8205498456954956e-01" nType="-99"/>
        </Node>
        <Node pos="r" depth="1" NCoef="0" IVar="3" Cut="3.7542447447776794e-01" cType="1" res="1.2309818714857101e-01" rms="4.2827776074409485e-01" purity="6.8273091316223145e-01" nType="0">
          <Node pos="l" depth="2" NCoef="0" IVar="-1" Cut="0.0000000000000000e+00" cType="1" res="4.9538329243659973e-02" rms="3.7181761860847473e-01" purity="7.2992700338363647e-01" nType="-99"/>
          <Node pos="r" depth="2" NCoef="0" IVar="-1" Cut="0.0000000000000000e+00" cType="1" res="7.3912395164370537e-03" rms="4.7366544604301453e-01" purity="6.2500000000000000e-01" nType="-99"/>
        </Node>
      </Node>
    </BinaryTree>
    <BinaryTree type="DecisionTree" boostWeight="1.0000000000000000e+00" itree="14">
      <Node pos="s" depth="0" NCoef="0" IVar="1" Cut="4.3063974380493164e-01" cType="1" res="2.1396381780505180e-02" rms="4.1285091638565063e-01" purity="5.2604699134826660e-01" nType="0">
        <Node pos="l" depth="1" NCoef="0" IVar="3" Cut="4.3379122018814087e-01" cType="1" res="8.6677923798561096e-02" rms="4.1213148832321167e-01" purity="7.5475686788558960e-01" nType="0">
          <Node pos="l" depth="2" NCoef="0" IVar="-1" Cut="0.0000000000000000e+00" cType="1" res="3.3721182495355606e-02" rms="3.6557006835937500e-01" purity="8.2653063535690308e-01" nType="-99"/>
          <Node pos="r" depth="2" NCoef="0" IVar="-1" Cut="0.0000000000000000e+00" cType="1" res="-1.3712587533518672e-03" rms="4.6416541934013367e-01" purity="6.3687151670455933e-01" nType="-99"/>
        </Node>
        <Node pos="r" depth="1" NCoef="0" IVar="6" Cut="1.0289369201660156e+02" cType="1" res="-3.9627667516469955e-02" rms="4.0409529209136963e-01" purity="3.1225296854972839e-01" nType="0">
          <Node pos="l" depth="2" NCoef="0" IVar="-1" Cut="0.0000000000000000e+00" cType="1" res="-2.0196670666337013e-02" rms="3.8087454438209534e-01" purity="2.5999999046325684e-01" nType="-99"/>
          <Node pos="r" depth="2" NCoef="0" IVar="-1" Cut="0.0000000000000000e+00" cType="1" res="2.6859743520617485e-02" rms="4.5083090662956238e-01" purity="5.0943398475646973e-01" nType="-99"/>
        </Node>
      </Node>
    </BinaryTree>
    <BinaryTree type="DecisionTree" boostWeight="1.0000000000000000e+00" itree="15">
      <Node pos="s" depth="0" NCoef="0" IVar="3" Cut="1.1920214891433716e+00" cType="1" res="1.6374164260923862e-04" rms="4.0510833263397217e-01" purity="5.0813007354736328e-01" nType="0">
        <Node pos="l" depth="1" NCoef="0" IVar="1" Cut="9.0534120798110962e-01" cType="1" res="2.0602669566869736e-02" rms="3.9304140210151672e-01" purity="5.1959687471389771e-01" nType="0">
          <Node pos="l" depth="2" NCoef="0" IVar="-1" Cut="0.0000000000000000e+00" cType="1" res="2.3137634620070457e-02" rms="3.9874303340911865e-01" purity="7.8435516357421875e-01" nType="-99"/>
          <Node pos="r" depth="2" NCoef="0" IVar="-1" Cut="0.0000000000000000e+00" cType="1" res="-1.6993181779980659e-02" rms="3.6772924661636353e-01" purity="2.2142857313156128e-01" nType="-99"/>
        </Node>
        <Node pos="r" depth="1" NCoef="0" IVar="5" Cut="2.3908170700073242e+01" cType="1" res="-2.0040726661682129e-01" rms="4.6292284131050110e-01" purity="3.9560440182685852e-01" nType="0">
          <Node pos="l" depth="2" NCoef="0" IVar="-1" Cut="0.0000000000000000e+00" cType="1" res="-5.8040313422679901e-02" rms="4.4473716616630554e-01" purity="3.0303031206130981e-01" nType="-99"/>
          <Node pos="r" depth="2" NCoef="0" IVar="-1" Cut="0.0000000000000000e+00" cType="1" res="1.8481236184015870e-03" rms="4.4477999210357666e-01" purity="6.3999998569488525e-01" nType="-99"/>
        </Node>
      </Node>
    </BinaryTree>
    <BinaryTree type="DecisionTree" boostWeight="1.0000000000000000e+00" itree="16">
      <Node pos="s" depth="0" NCoef="0" IVar="6" Cut="1.3115275573730469e+02" cType="1" res="-1.8233196809887886e-02" rms="4.1066604852676392e-01" purity="4.7676768898963928e-01" nType="0">
        <Node pos="l" depth="1" NCoef="0" IVar="2" Cut="1.4285714924335480e-01" cType="1" res="-4.0661040693521500e-02" rms="4.1370517015457153e-01" purity="4.3678161501884460e-01" nType="0">
          <Node pos="l" depth="2" NCoef="0" IVar="-1" Cut="0.0000000000000000e+00" cType="1" res="-1.8060451373457909e-02" rms="4.0701583027839661e-01" purity="3.8871473073959351e-01" nType="-99"/>
          <Node pos="r" depth="2" NCoef="0" IVar="-1" Cut="0.0000000000000000e+00" cType="1" res="1.1973635293543339e-02" rms="4.1847521066665649e-01" purity="5.6896549463272095e-01" nType="-99"/>
        </Node>
        <Node pos="r" depth="1" NCoef="0" IVar="1" Cut="9.5345062017440796e-01" cType="1" res="1.4436866343021393e-01" rms="3.4698197245597839e-01" purity="7.6666665077209473e-01" nType="0">
          <Node pos="l" depth="2" NCoef="0" IVar="-1" Cut="0.0000000000000000e+00" cType="1" res="5.0561632961034775e-02" rms="2.4326951801776886e-01" purity="9.3902438879013062e-01" nType="-99"/>
          <Node pos="r" depth="2" NCoef="0" IVar="-1" Cut="0.0000000000000000e+00" cType="1" res="1.2750082649290562e-02" rms="4.9038177728652954e-01" purity="3.9473685622215271e-01" nType="-99"/>
        </Node>
      </Node>
    </BinaryTree>
    <BinaryTree type="DecisionTree" boostWeight="1.0000000000000000e+00" itree="17">
      <Node pos="s" depth="0" NCoef="0" IVar="2" Cut="9.5238097012042999e-02" cType="1" res="1.2049836106598377e-02" rms="4.0686321258544922e-01" purity="5.0334286689758301e-01" nType="0">
        <Node pos="l" depth="1" NCoef="0" IVar="0" Cut="9.5818245410919189e-01" cType="1" res="-2.4404495954513550e-02" rms="4.0944290161132812e-01" purity="4.4487679004669189e-01" nType="0">
          <Node pos="l" depth="2" NCoef="0" IVar="-1" Cut="0.0000000000000000e+00" cType="1" res="4.4092681258916855e-02" rms="3.4739422798156738e-01" purity="7.9365080595016479e-01" nType="-99"/>
          <Node pos="r" depth="2" NCoef="0" IVar="-1" Cut="0.0000000000000000e+00" cType="1" res="-1.0866294614970684e-02" rms="4.0917733311653137e-01" purity="4.1384181380271912e-01" nType="-99"/>
        </Node>
        <Node pos="r" depth="1" NCoef="0" IVar="1" Cut="9.0584671497344971e-01" cType="1" res="1.1388421803712845e-01" rms="3.8153976202011108e-01" purity="6.6666668653488159e-01" nType="0">
          <Node pos="l" depth="2" NCoef="0" IVar="-1" Cut="0.0000000000000000e+00" cType="1" res="5.0873871892690659e-02" rms="2.6228770613670349e-01" purity="9.1891890764236450e-01" nType="-99"/>
          <Node pos="r" depth="2" NCoef="0" IVar="-1" Cut="0.0000000000000000e+00" cType="1" res="2.4229823611676693e-03" rms="4.6311071515083313e-01" purity="3.7500000000000000e-01" nType="-99"/>
        </Node>
      </Node>
    </BinaryTree>
    <BinaryTree type="DecisionTree" boostWeight="1.0000000000000000e+00" itree="18">
      <Node pos="s" depth="0" NCoef="0" IVar="6" Cut="1.8185426330566406e+02" cType="1" res="-4.0861074812710285e-03" rms="4.1221153736114502e-01" purity="4.8855721950531006e-01" nType="0">
        <Node pos="l" depth="1" NCoef="0" IVar="0" Cut="9.9072426557540894e-01" cType="1" res="-1.9117541611194611e-02" rms="4.1377499699592590e-01" purity="4.5997866988182068e-01" nType="0">
          <Node pos="l" depth="2" NCoef="0" IVar="-1" Cut="0.0000000000000000e+00" cType="1" res="1.1179700493812561e-02" rms="4.3229717016220093e-01" purity="5.8591550588607788e-01" nType="-99"/>
          <Node pos="r" depth="2" NCoef="0" IVar="-1" Cut="0.0000000000000000e+00" cType="1" res="-1.5079862438142300e-02" rms="3.9665824174880981e-01" purity="3.8316151499748230e-01" nType="-99"/>
        </Node>
        <Node pos="r" depth="1" NCoef="0" IVar="4" Cut="8.8758784532546997e-01" cType="1" res="2.0303823053836823e-01" rms="3.2574498653411865e-01" purity="8.8235294818878174e-01" nType="0">
          <Node pos="l" depth="2" NCoef="0" IVar="-1" Cut="0.0000000000000000e+00" cType="1" res="2.9124572873115540e-02" rms="3.8440459966659546e-01" purity="8.0000001192092896e-01" nType="-99"/>
          <Node pos="r" depth="2" NCoef="0" IVar="-1" Cut="0.0000000000000000e+00" cType="1" res="8.1222169101238251e-02" rms="2.0209707319736481e-01" purity="9.6969699859619141e-01" nType="-99"/>
        </Node>
      </Node>
    </BinaryTree>
    <BinaryTree type="DecisionTree" boostWeight="1.0000000000000000e+00" itree="19">
      <Node pos="s" depth="0" NCoef="0" IVar="1" Cut="8.1021326780319214e-01" cType="1" res="1.7428793013095856e-02" rms="3.8433226943016052e-01" purity="5.0779724121093750e-01" nType="0">
        <Node pos="l" depth="1" NCoef="0" IVar="3" Cut="8.0031365156173706e-01" cType="1" res="8.7029382586479187e-02" rms="3.8988593220710754e-01" purity="7.7509295940399170e-01" nType="0">
          <Node pos="l" depth="2" NCoef="0" IVar="-1" Cut="0.0000000000000000e+00" cType="1" res="3.3109415322542191e-02" rms="3.4778320789337158e-01" purity="8.4146338701248169e-01" nType="-99"/>
          <Node pos="r" depth="2" NCoef="0" IVar="-1" Cut="0.0000000000000000e+00" cType="1" res="-1.3103472068905830e-02" rms="4.7246491909027100e-01" purity="5.6250000000000000e-01" nType="-99"/>
        </Node>
        <Node pos="r" depth="1" NCoef="0" IVar="3" Cut="3.5034112632274628e-02" cType="1" res="-5.9303008019924164e-02" rms="3.6296367645263672e-01" purity="2.1311475336551666e-01" nType="0">
          <Node pos="l" depth="2" NCoef="0" IVar="-1" Cut="0.0000000000000000e+00" cType="1" res="-3.5839878022670746e-02" rms="2.8123471140861511e-01" purity="9.6491225063800812e-02" nType="-99"/>
          <Node pos="r" depth="2" NCoef="0" IVar="-1" Cut="0.0000000000000000e+00" cType="1" res="1.7524732276797295e-02" rms="4.7636374831199646e-01" purity="4.8630136251449585e-01" nType="-99"/>
        </Node>
      </Node>
    </BinaryTree>
    <BinaryTree type="DecisionTree" boostWeight="1.0000000000000000e+00" itree="20">
      <Node pos="s" depth="0" NCoef="0" IVar="4" Cut="8.8758784532546997e-01" cType="1" res="3.0535506084561348e-02" rms="3.9745080471038818e-01" purity="5.3007137775421143e-01" nType="0">
        <Node pos="l" depth="1" NCoef="0" IVar="6" Cut="1.8437848985195160e-01" cType="1" res="1.1213593930006027e-01" rms="3.9622637629508972e-01" purity="7.4708169698715210e-01" nType="0">
          <Node pos="l" depth="2" NCoef="0" IVar="-1" Cut="0.0000000000000000e+00" cType="1" res="-1.1345700360834599e-02" rms="4.7616609930992126e-01" purity="5.9574466943740845e-01" nType="-99"/>
          <Node pos="r" depth="2" NCoef="0" IVar="-1" Cut="0.0000000000000000e+00" cType="1" res="3.7073422223329544e-02" rms="3.6618503928184509e-01" purity="7.8095239400863647e-01" nType="-99"/>
        </Node>
        <Node pos="r" depth="1" NCoef="0" IVar="7" Cut="9.5238095521926880e-01" cType="1" res="1.5696054324507713e-03" rms="3.9383938908576965e-01" purity="4.5303866267204285e-01" nType="0">
          <Node pos="l" depth="2" NCoef="0" IVar="-1" Cut="0.0000000000000000e+00" cType="1" res="-1.2779097072780132e-02" rms="4.0395179390907288e-01" purity="3.9572191238403320e-01" nType="-99"/>
          <Node pos="r" depth="2" NCoef="0" IVar="-1" Cut="0.0000000000000000e+00" cType="1" res="1.4352325350046158e-02" rms="3.7528875470161438e-01" purity="5.1428574323654175e-01" nType="-99"/>
        </Node>
      </Node>
    </BinaryTree>
    <BinaryTree type="DecisionTree" boostWeight="1.0000000000000000e+00" itree="21">
      <Node pos="s" depth="0" NCoef="0" IVar="2" Cut="9.5238097012042999e-02" cType="1" res="8.0356458202004433e-03" rms="4.0842500329017639e-01" purity="5.0716334581375122e-01" nType="0">
        <Node pos="l" depth="1" NCoef="0" IVar="6" Cut="1.7146371459960938e+02" cType="1" res="-2.8943048790097237e-02" rms="4.0345975756645203e-01" purity="4.4791665673255920e-01" nType="0">
          <Node pos="l" depth="2" NCoef="0" IVar="-1" Cut="0.0000000000000000e+00" cType="1" res="-1.3089941814541817e-02" rms="4.0909543633460999e-01" purity="3.9647576212882996e-01" nType="-99"/>
          <Node pos="r" depth="2" NCoef="0" IVar="-1" Cut="0.0000000000000000e+00" cType="1" res="4.2877014726400375e-02" rms="3.0407106876373291e-01" purity="8.5057473182678223e-01" nType="-99"/>
        </Node>
        <Node pos="r" depth="1" NCoef="0" IVar="8" Cut="8.9449966430664062e+01" cType="1" res="1.0982646048069000e-01" rms="4.0470004081726074e-01" purity="6.7025089263916016e-01" nType="0">
          <Node pos="l" depth="2" NCoef="0" IVar="-1" Cut="0.0000000000000000e+00" cType="1" res="2.0315608009696007e-02" rms="4.1793781518936157e-01" purity="6.3157892227172852e-01" nType="-99"/>
          <Node pos="r" depth="2" NCoef="0" IVar="-1" Cut="0.0000000000000000e+00" cType="1" res="6.2117338180541992e-02" rms="3.0768701434135437e-01" purity="8.4313726425170898e-01" nType="-99"/>
        </Node>
      </Node>
    </BinaryTree>
    <BinaryTree type="DecisionTree" boostWeight="1.0000000000000000e+00" itree="22">
      <Node pos="s" depth="0" NCoef="0" IVar="2" Cut="9.5238097012042999e-02" cType="1" res="-7.9437037929892540e-03" rms="4.0107935667037964e-01" purity="5.0000000000000000e-01" nType="0">
        <Node pos="l" depth="1" NCoef="0" IVar="6" Cut="1.8185426330566406e+02" cType="1" res="-3.0506089329719543e-02" rms="3.9793094992637634e-01" purity="4.5034012198448181e-01" nType="0">
          <Node pos="l" depth="2" NCoef="0" IVar="-1" Cut="0.0000000000000000e+00" cType="1" res="-1.1997214518487453e-02" rms="4.0446484088897705e-01" purity="4.0929535031318665e-01" nType="-99"/>
          <Node pos="r" depth="2" NCoef="0" IVar="-1" Cut="0.0000000000000000e+00" cType="1" res="3.9863381534814835e-02" rms="2.7709579467773438e-01" purity="8.5294115543365479e-01" nType="-99"/>
        </Node>
        <Node pos="r" depth="1" NCoef="0" IVar="5" Cut="1.4698622131347656e+02" cType="1" res="6.5760090947151184e-02" rms="4.0247622132301331e-01" purity="6.6222220659255981e-01" nType="0">
          <Node pos="l" depth="2" NCoef="0" IVar="-1" Cut="0.0000000000000000e+00" cType="1" res="7.5392024591565132e-03" rms="4.0778011083602905e-01" purity="6.2631577253341675e-01" nType="-99"/>
          <Node pos="r" depth="2" NCoef="0" IVar="-1" Cut="0.0000000000000000e+00" cType="1" res="7.4357546865940094e-02" rms="3.0806094408035278e-01" purity="8.5714286565780640e-01" nType="-99"/>
        </Node>
      </Node>
    </BinaryTree>
    <BinaryTree type="DecisionTree" boostWeight="1.0000000000000000e+00" itree="23">
      <Node pos="s" depth="0" NCoef="0" IVar="8" Cut="7.3721990966796875e+02" cType="1" res="1.3255092315375805e-02" rms="4.0257519483566284e-01" purity="5.0844091176986694e-01" nType="0">
        <Node pos="l" depth="1" NCoef="0" IVar="6" Cut="9.1019325256347656e+01" cType="1" res="3.1514153815805912e-03" rms="3.9892762899398804e-01" purity="4.9794238805770874e-01" nType="0">
          <Node pos="l" depth="2" NCoef="0" IVar="-1" Cut="0.0000000000000000e+00" cType="1" res="-5.6705814786255360e-03" rms="4.0715038776397705e-01" purity="4.4704264402389526e-01" nType="-99"/>
          <Node pos="r" depth="2" NCoef="0" IVar="-1" Cut="0.0000000000000000e+00" cType="1" res="2.2788355126976967e-02" rms="3.6289253830909729e-01" purity="6.4897960424423218e-01" nType="-99"/>
        </Node>
        <Node pos="r" depth="1" NCoef="0" IVar="-1" Cut="0.0000000000000000e+00" cType="1" res="6.9613970816135406e-02" rms="4.0210664272308350e-01" purity="8.0000001192092896e-01" nType="-99"/>
      </Node>
    </BinaryTree>
    <BinaryTree type="DecisionTree" boostWeight="1.0000000000000000e+00" itree="24">
      <Node pos="s" depth="0" NCoef="0" IVar="1" Cut="9.5257061719894409e-01" cType="1" res="-7.4504669755697250e-03" rms="3.9519983530044556e-01" purity="5.0380951166152954e-01" nType="0">
        <Node pos="l" depth="1" NCoef="0" IVar="3" Cut="1.0509376525878906e+00" cType="1" res="4.0849525481462479e-02" rms="4.1058915853500366e-01" purity="7.3534339666366577e-01" nType="0">
          <Node pos="l" depth="2" NCoef="0" IVar="-1" Cut="0.0000000000000000e+00" cType="1" res="1.9407669082283974e-02" rms="3.9123788475990295e-01" purity="7.8714859485626221e-01" nType="-99"/>
          <Node pos="r" depth="2" NCoef="0" IVar="-1" Cut="0.0000000000000000e+00" cType="1" res="-3.0568875372409821e-02" rms="4.5605540275573730e-01" purity="4.7474747896194458e-01" nType="-99"/>
        </Node>
        <Node pos="r" depth="1" NCoef="0" IVar="4" Cut="9.7796732187271118e-01" cType="1" res="-7.1104094386100769e-02" rms="3.6429959535598755e-01" purity="1.9867549836635590e-01" nType="0">
          <Node pos="l" depth="2" NCoef="0" IVar="-1" Cut="0.0000000000000000e+00" cType="1" res="1.0848555248230696e-03" rms="4.2175790667533875e-01" purity="3.0288460850715637e-01" nType="-99"/>
          <Node pos="r" depth="2" NCoef="0" IVar="-1" Cut="0.0000000000000000e+00" cType="1" res="-3.9055872708559036e-02" rms="2.9233667254447937e-01" purity="1.1020407825708389e-01" nType="-99"/>
        </Node>
      </Node>
    </BinaryTree>
    <BinaryTree type="DecisionTree" boostWeight="1.0000000000000000e+00" itree="25">
      <Node pos="s" depth="0" NCoef="0" IVar="3" Cut="5.6318223476409912e-01" cType="1" res="-2.4059887975454330e-02" rms="4.1045376658439636e-01" purity="4.6485942602157593e-01" nType="0">
        <Node pos="l" depth="1" NCoef="0" IVar="2" Cut="9.5238097012042999e-02" cType="1" res="8.9138727635145187e-03" rms="3.8813704252243042e-01" purity="4.6318608522415161e-01" nType="0">
          <Node pos="l" depth="2" NCoef="0" IVar="-1" Cut="0.0000000000000000e+00" cType="1" res="-6.4292200841009617e-03" rms="3.7762361764907837e-01" purity="4.0102389454841614e-01" nType="-99"/>
          <Node pos="r" depth="2" NCoef="0" IVar="-1" Cut="0.0000000000000000e+00" cType="1" res="3.3385213464498520e-02" rms="4.0381616353988647e-01" purity="6.8944096565246582e-01" nType="-99"/>
        </Node>
        <Node pos="r" depth="1" NCoef="0" IVar="5" Cut="1.0174097442626953e+02" cType="1" res="-1.2298116832971573e-01" rms="4.5704585313796997e-01" purity="4.6987950801849365e-01" nType="0">
          <Node pos="l" depth="2" NCoef="0" IVar="-1" Cut="0.0000000000000000e+00" cType="1" res="-3.5319536924362183e-02" rms="4.6179556846618652e-01" purity="4.0865385532379150e-01" nType="-99"/>
          <Node pos="r" depth="2" NCoef="0" IVar="-1" Cut="0.0000000000000000e+00" cType="1" res="2.2577015683054924e-02" rms="3.6440172791481018e-01" purity="7.8048777580261230e-01" nType="-99"/>
        </Node>
      </Node>
    </BinaryTree>
    <BinaryTree type="DecisionTree" boostWeight="1.0000000000000000e+00" itree="26">
      <Node pos="s" depth="0" NCoef="0" IVar="4" Cut="9.6428573131561279e-01" cType="1" res="-2.1787088364362717e-02" rms="4.0520635247230530e-01" purity="4.8028311133384705e-01" nType="0">
        <Node pos="l" depth="1" NCoef="0" IVar="6" Cut="1.8437848985195160e-01" cType="1" res="1.7788901925086975e-02" rms="4.0951728820800781e-01" purity="5.8964145183563232e-01" nType="0">
          <Node pos="l" depth="2" NCoef="0" IVar="-1" Cut="0.0000000000000000e+00" cType="1" res="-2.4805292487144470e-02" rms="4.7765088081359863e-01" purity="5.0000000000000000e-01" nType="-99"/>
          <Node pos="r" depth="2" NCoef="0" IVar="-1" Cut="0.0000000000000000e+00" cType="1" res="9.9604977294802666e-03" rms="3.9440068602561951e-01" purity="6.0321098566055298e-01" nType="-99"/>
        </Node>
        <Node pos="r" depth="1" NCoef="0" IVar="2" Cut="4.7619048506021500e-02" cType="1" res="-6.2582053244113922e-02" rms="3.9660185575485229e-01" purity="3.6755648255348206e-01" nType="0">
          <Node pos="l" depth="2" NCoef="0" IVar="-1" Cut="0.0000000000000000e+00" cType="1" res="-2.6515774428844452e-02" rms="3.7809163331985474e-01" purity="2.9310345649719238e-01" nType="-99"/>
          <Node pos="r" depth="2" NCoef="0" IVar="-1" Cut="0.0000000000000000e+00" cType="1" res="6.7280465736985207e-03" rms="4.2676499485969543e-01" purity="5.5395680665969849e-01" nType="-99"/>
        </Node>
      </Node>
    </BinaryTree>
    <BinaryTree type="DecisionTree" boostWeight="1.0000000000000000e+00" itree="27">
      <Node pos="s" depth="0" NCoef="0" IVar="2" Cut="1.4285714924335480e-01" cType="1" res="4.7906292602419853e-03" rms="3.8825193047523499e-01" purity="5.0101011991500854e-01" nType="0">
        <Node pos="l" depth="1" NCoef="0" IVar="6" Cut="1.7158990478515625e+02" cType="1" res="-2.7645779773592949e-02" rms="3.8546547293663025e-01" purity="4.3706777691841125e-01" nType="0">
          <Node pos="l" depth="2" NCoef="0" IVar="-1" Cut="0.0000000000000000e+00" cType="1" res="-1.1060507036745548e-02" rms="3.9058187603950500e-01" purity="3.9605462551116943e-01" nType="-99"/>
          <Node pos="r" depth="2" NCoef="0" IVar="-1" Cut="0.0000000000000000e+00" cType="1" res="3.9596643298864365e-02" rms="2.8843644261360168e-01" purity="8.5937500000000000e-01" nType="-99"/>
        </Node>
        <Node pos="r" depth="1" NCoef="0" IVar="1" Cut="7.6612621545791626e-01" cType="1" res="9.2624045908451080e-02" rms="3.8211748003959656e-01" purity="6.7415732145309448e-01" nType="0">
          <Node pos="l" depth="2" NCoef="0" IVar="-1" Cut="0.0000000000000000e+00" cType="1" res="4.5604106038808823e-02" rms="2.4721659719944000e-01" purity="9.2741936445236206e-01" nType="-99"/>
          <Node pos="r" depth="2" NCoef="0" IVar="-1" Cut="0.0000000000000000e+00" cType="1" res="8.6488276720046997e-03" rms="4.6179887652397156e-01" purity="4.5454546809196472e-01" nType="-99"/>
        </Node>
      </Node>
    </BinaryTree>
    <BinaryTree type="DecisionTree" boostWeight="1.0000000000000000e+00" itree="28">
      <Node pos="s" depth="0" NCoef="0" IVar="1" Cut="2.8855940699577332e-01" cType="1" res="-1.7459321767091751e-02" rms="4.0258175134658813e-01" purity="4.7897437214851379e-01" nType="0">
        <Node pos="l" depth="1" NCoef="0" IVar="3" Cut="2.3933315277099609e-01" cType="1" res="3.3884413540363312e-02" rms="4.1291254758834839e-01" purity="7.1989530324935913e-01" nType="0">
          <Node pos="l" depth="2" NCoef="0" IVar="-1" Cut="0.0000000000000000e+00" cType="1" res="2.6745375245809555e-02" rms="3.6608171463012695e-01" purity="8.2777780294418335e-01" nType="-99"/>
          <Node pos="r" depth="2" NCoef="0" IVar="-1" Cut="0.0000000000000000e+00" cType="1" res="-6.2972703017294407e-03" rms="4.4179469347000122e-01" purity="6.2376236915588379e-01" nType="-99"/>
        </Node>
        <Node pos="r" depth="1" NCoef="0" IVar="3" Cut="-3.2745327800512314e-02" cType="1" res="-5.0534036010503769e-02" rms="3.9224088191986084e-01" purity="3.2377740740776062e-01" nType="0">
          <Node pos="l" depth="2" NCoef="0" IVar="-1" Cut="0.0000000000000000e+00" cType="1" res="-3.3489599823951721e-02" rms="3.0820661783218384e-01" purity="1.8487395346164703e-01" nType="-99"/>
          <Node pos="r" depth="2" NCoef="0" IVar="-1" Cut="0.0000000000000000e+00" cType="1" res="6.8440581671893597e-03" rms="4.8173481225967407e-01" purity="5.3389829397201538e-01" nType="-99"/>
        </Node>
      </Node>
    </BinaryTree>
    <BinaryTree type="DecisionTree" boostWeight="1.0000000000000000e+00" itree="29">
      <Node pos="s" depth="0" NCoef="0" IVar="0" Cut="9.9223566055297852e-01" cType="1" res="4.3049193918704987e-03" rms="3.9874789118766785e-01" purity="4.9122807383537292e-01" nType="0">
        <Node pos="l" depth="1" NCoef="0" IVar="4" Cut="7.1428573131561279e-01" cType="1" res="1.0219272971153259e-01" rms="4.1867536306381226e-01" purity="6.4498645067214966e-01" nType="0">
          <Node pos="l" depth="2" NCoef="0" IVar="-1" Cut="0.0000000000000000e+00" cType="1" res="-1.0873243212699890e-02" rms="4.8006239533424377e-01" purity="6.0000002384185791e-01" nType="-99"/>
          <Node pos="r" depth="2" NCoef="0" IVar="-1" Cut="0.0000000000000000e+00" cType="1" res="3.0217926949262619e-02" rms="4.0688005089759827e-01" purity="6.5045595169067383e-01" nType="-99"/>
        </Node>
        <Node pos="r" depth="1" NCoef="0" IVar="1" Cut="9.0530622005462646e-01" cType="1" res="-5.0673168152570724e-02" rms="3.7609425187110901e-01" purity="4.0487062931060791e-01" nType="0">
          <Node pos="l" depth="2" NCoef="0" IVar="-1" Cut="0.0000000000000000e+00" cType="1" res="3.5237975680502132e-05" rms="4.2687872052192688e-01" purity="7.0065790414810181e-01" nType="-99"/>
          <Node pos="r" depth="2" NCoef="0" IVar="-1" Cut="0.0000000000000000e+00" cType="1" res="-2.8216250240802765e-02" rms="3.1967267394065857e-01" purity="1.5014164149761200e-01" nType="-99"/>
        </Node>
      </Node>
    </BinaryTree>
    <BinaryTree type="DecisionTree" boostWeight="1.0000000000000000e+00" itree="30">
      <Node pos="s" depth="0" NCoef="0" IVar="1" Cut="2.8965193033218384e-01" cType="1" res="1.0344523936510086e-02" rms="3.8658681511878967e-01" purity="5.1322233676910400e-01" nType="0">
        <Node pos="l" depth="1" NCoef="0" IVar="1" Cut="1.8918229267001152e-02" cType="1" res="6.7087419331073761e-02" rms="3.8520279526710510e-01" purity="7.5539571046829224e-01" nType="0">
          <Node pos="l" depth="2" NCoef="0" IVar="-1" Cut="0.0000000000000000e+00" cType="1" res="-4.6978872269392014e-02" rms="4.5295491814613342e-01" purity="3.5897436738014221e-01" nType="-99"/>
          <Node pos="r" depth="2" NCoef="0" IVar="-1" Cut="0.0000000000000000e+00" cType="1" res="2.4579800665378571e-02" rms="3.6496677994728088e-01" purity="7.9629629850387573e-01" nType="-99"/>
        </Node>
        <Node pos="r" depth="1" NCoef="0" IVar="5" Cut="6.9185089111328125e+01" cType="1" res="-2.8830621391534805e-02" rms="3.8266071677207947e-01" purity="3.4602648019790649e-01" nType="0">
          <Node pos="l" depth="2" NCoef="0" IVar="-1" Cut="0.0000000000000000e+00" cType="1" res="1.9734697416424751e-02" rms="4.8833185434341431e-01" purity="6.1029410362243652e-01" nType="-99"/>
          <Node pos="r" depth="2" NCoef="0" IVar="-1" Cut="0.0000000000000000e+00" cType="1" res="-1.9046185538172722e-02" rms="3.3876702189445496e-01" purity="2.6923078298568726e-01" nType="-99"/>
        </Node>
      </Node>
    </BinaryTree>
    <BinaryTree type="DecisionTree" boostWeight="1.0000000000000000e+00" itree="31">
      <Node pos="s" depth="0" NCoef="0" IVar="4" Cut="9.6571427583694458e-01" cType="1" res="2.3012079298496246e-02" rms="3.8914227485656738e-01" purity="5.2077001333236694e-01" nType="0">
        <Node pos="l" depth="1" NCoef="0" IVar="3" Cut="9.5334750413894653e-01" cType="1" res="5.6740399450063705e-02" rms="4.0482360124588013e-01" purity="6.2615102529525757e-01" nType="0">
          <Node pos="l" depth="2" NCoef="0" IVar="-1" Cut="0.0000000000000000e+00" cType="1" res="1.9817467778921127e-02" rms="3.9754608273506165e-01" purity="6.3617020845413208e-01" nType="-99"/>
          <Node pos="r" depth="2" NCoef="0" IVar="-1" Cut="0.0000000000000000e+00" cType="1" res="-1.0939571075141430e-02" rms="4.3445411324501038e-01" purity="5.6164383888244629e-01" nType="-99"/>
        </Node>
        <Node pos="r" depth="1" NCoef="0" IVar="1" Cut="8.5798877477645874e-01" cType="1" res="-1.8236743286252022e-02" rms="3.6484575271606445e-01" purity="3.9189189672470093e-01" nType="0">
          <Node pos="l" depth="2" NCoef="0" IVar="-1" Cut="0.0000000000000000e+00" cType="1" res="1.3899671845138073e-02" rms="3.9861634373664856e-01" purity="7.5418996810913086e-01" nType="-99"/>
          <Node pos="r" depth="2" NCoef="0" IVar="-1" Cut="0.0000000000000000e+00" cType="1" res="-2.1852107718586922e-02" rms="3.3121564984321594e-01" purity="1.4716981351375580e-01" nType="-99"/>
        </Node>
      </Node>
    </BinaryTree>
    <BinaryTree type="DecisionTree" boostWeight="1.0000000000000000e+00" itree="32">
      <Node pos="s" depth="0" NCoef="0" IVar="1" Cut="9.5255333185195923e-01" cType="1" res="5.6444448418915272e-03" rms="3.8311848044395447e-01" purity="4.9845838546752930e-01" nType="0">
        <Node pos="l" depth="1" NCoef="0" IVar="0" Cut="9.8265928030014038e-01" cType="1" res="4.6046067029237747e-02" rms="3.9438360929489136e-01" purity="7.5285172462463379e-01" nType="0">
          <Node pos="l" depth="2" NCoef="0" IVar="-1" Cut="0.0000000000000000e+00" cType="1" res="3.6765404045581818e-02" rms="3.3496508002281189e-01" purity="8.5443037748336792e-01" nType="-99"/>
          <Node pos="r" depth="2" NCoef="0" IVar="-1" Cut="0.0000000000000000e+00" cType="1" res="1.1958606773987412e-03" rms="4.1040194034576416e-01" purity="7.0923912525177002e-01" nType="-99"/>
        </Node>
        <Node pos="r" depth="1" NCoef="0" IVar="5" Cut="1.4427893066406250e+02" cType="1" res="-4.1897509247064590e-02" rms="3.6371991038322449e-01" purity="1.9910514354705811e-01" nType="0">
          <Node pos="l" depth="2" NCoef="0" IVar="-1" Cut="0.0000000000000000e+00" cType="1" res="8.9597167971078306e-05" rms="3.9268165826797485e-01" purity="2.4723246693611145e-01" nType="-99"/>
          <Node pos="r" depth="2" NCoef="0" IVar="-1" Cut="0.0000000000000000e+00" cType="1" res="-3.3107075840234756e-02" rms="3.0264881253242493e-01" purity="1.2500000000000000e-01" nType="-99"/>
        </Node>
      </Node>
    </BinaryTree>
    <BinaryTree type="DecisionTree" boostWeight="1.0000000000000000e+00" itree="33">
      <Node pos="s" depth="0" NCoef="0" IVar="6" Cut="7.4897315979003906e+01" cType="1" res="-1.6476279124617577e-02" rms="3.9701294898986816e-01" purity="4.8254621028900146e-01" nType="0">
        <Node pos="l" depth="1" NCoef="0" IVar="8" Cut="7.6522119140625000e+02" cType="1" res="-4.0426097810268402e-02" rms="4.0313407778739929e-01" purity="4.3959242105484009e-01" nType="0">
          <Node pos="l" depth="2" NCoef="0" IVar="-1" Cut="0.0000000000000000e+00" cType="1" res="-1.3854639604687691e-02" rms="4.0498709678649902e-01" purity="4.2089092731475830e-01" nType="-99"/>
          <Node pos="r" depth="2" NCoef="0" IVar="-1" Cut="0.0000000000000000e+00" cType="1" res="4.6351157128810883e-02" rms="2.9387840628623962e-01" purity="7.7777779102325439e-01" nType="-99"/>
        </Node>
        <Node pos="r" depth="1" NCoef="0" IVar="8" Cut="1.1692021942138672e+02" cType="1" res="4.0853079408407211e-02" rms="3.7581324577331543e-01" purity="5.8536583185195923e-01" nType="0">
          <Node pos="l" depth="2" NCoef="0" IVar="-1" Cut="0.0000000000000000e+00" cType="1" res="2.3436160758137703e-02" rms="3.6231383681297302e-01" purity="6.0669457912445068e-01" nType="-99"/>
          <Node pos="r" depth="2" NCoef="0" IVar="-1" Cut="0.0000000000000000e+00" cType="1" res="-3.9626125246286392e-02" rms="3.9313223958015442e-01" purity="4.7916665673255920e-01" nType="-99"/>
        </Node>
      </Node>
    </BinaryTree>
    <BinaryTree type="DecisionTree" boostWeight="1.0000000000000000e+00" itree="34">
      <Node pos="s" depth="0" NCoef="0" IVar="7" Cut="9.6666669845581055e+00" cType="1" res="4.5507695176638663e-04" rms="3.9570340514183044e-01" purity="4.9696969985961914e-01" nType="0">
        <Node pos="l" depth="1" NCoef="0" IVar="3" Cut="1.6693578660488129e-01" cType="1" res="-4.9144593067467213e-03" rms="3.9449533820152283e-01" purity="4.9222797155380249e-01" nType="0">
          <Node pos="l" depth="2" NCoef="0" IVar="-1" Cut="0.0000000000000000e+00" cType="1" res="-9.1411368921399117e-03" rms="3.4153559803962708e-01" purity="4.0689656138420105e-01" nType="-99"/>
          <Node pos="r" depth="2" NCoef="0" IVar="-1" Cut="0.0000000000000000e+00" cType="1" res="7.1829711087048054e-03" rms="4.6064928174018860e-01" purity="6.2077921628952026e-01" nType="-99"/>
        </Node>
        <Node pos="r" depth="1" NCoef="0" IVar="-1" Cut="0.0000000000000000e+00" cType="1" res="5.2137564867734909e-02" rms="3.8646858930587769e-01" purity="6.8000000715255737e-01" nType="-99"/>
      </Node>
    </BinaryTree>
    <BinaryTree type="DecisionTree" boostWeight="1.0000000000000000e+00" itree="35">
      <Node pos="s" depth="0" NCoef="0" IVar="4" Cut="9.6252930164337158e-01" cType="1" res="1.1360852979123592e-02" rms="3.8592851161956787e-01" purity="5.0964188575744629e-01" nType="0">
        <Node pos="l" depth="1" NCoef="0" IVar="3" Cut="-5.3443378210067749e-01" cType="1" res="6.3362307846546173e-02" rms="4.0823164582252502e-01" purity="6.5090906620025635e-01" nType="0">
          <Node pos="l" depth="2" NCoef="0" IVar="-1" Cut="0.0000000000000000e+00" cType="1" res="3.8433037698268890e-02" rms="3.7944844365119934e-01" purity="7.6582276821136475e-01" nType="-99"/>
          <Node pos="r" depth="2" NCoef="0" IVar="-1" Cut="0.0000000000000000e+00" cType="1" res="9.2477332800626755e-03" rms="4.1623523831367493e-01" purity="6.0459184646606445e-01" nType="-99"/>
        </Node>
        <Node pos="r" depth="1" NCoef="0" IVar="1" Cut="5.2653104066848755e-01" cType="1" res="-4.1701853275299072e-02" rms="3.5396623611450195e-01" purity="3.6549165844917297e-01" nType="0">
          <Node pos="l" depth="2" NCoef="0" IVar="-1" Cut="0.0000000000000000e+00" cType="1" res="5.1200431771576405e-03" rms="4.0964511036872864e-01" purity="7.1078431606292725e-01" nType="-99"/>
          <Node pos="r" depth="2" NCoef="0" IVar="-1" Cut="0.0000000000000000e+00" cType="1" res="-2.6355270296335220e-02" rms="3.0926823616027832e-01" purity="1.5522387623786926e-01" nType="-99"/>
        </Node>
      </Node>
    </BinaryTree>
    <BinaryTree type="DecisionTree" boostWeight="1.0000000000000000e+00" itree="36">
      <Node pos="s" depth="0" NCoef="0" IVar="4" Cut="9.5845997333526611e-01" cType="1" res="5.7985405437648296e-03" rms="3.8752445578575134e-01" purity="5.0776696205139160e-01" nType="0">
        <Node pos="l" depth="1" NCoef="0" IVar="8" Cut="6.5445922851562500e+02" cType="1" res="4.9446646124124527e-02" rms="3.9461651444435120e-01" purity="6.6260164976119995e-01" nType="0">
          <Node pos="l" depth="2" NCoef="0" IVar="-1" Cut="0.0000000000000000e+00" cType="1" res="1.6871068626642227e-02" rms="3.8421583175659180e-01" purity="6.7505723237991333e-01" nType="-99"/>
          <Node pos="r" depth="2" NCoef="0" IVar="-1" Cut="0.0000000000000000e+00" cType="1" res="-1.6480738297104836e-02" rms="4.5415666699409485e-01" purity="5.6363636255264282e-01" nType="-99"/>
        </Node>
        <Node pos="r" depth="1" NCoef="0" IVar="5" Cut="2.4700657653808594e+02" cType="1" res="-3.4117572009563446e-02" rms="3.7651953101158142e-01" purity="3.6617100238800049e-01" nType="0">
          <Node pos="l" depth="2" NCoef="0" IVar="-1" Cut="0.0000000000000000e+00" cType="1" res="-1.3304202817380428e-02" rms="3.7435412406921387e-01" purity="3.5555556416511536e-01" nType="-99"/>
          <Node pos="r" depth="2" NCoef="0" IVar="-1" Cut="0.0000000000000000e+00" cType="1" res="3.1954497098922729e-02" rms="3.7598183751106262e-01" purity="4.8837208747863770e-01" nType="-99"/>
        </Node>
      </Node>
    </BinaryTree>
    <BinaryTree type="DecisionTree" boostWeight="1.0000000000000000e+00" itree="37">
      <Node pos="s" depth="0" NCoef="0" IVar="2" Cut="9.5238097012042999e-02" cType="1" res="-1.5976199880242348e-02" rms="3.7950533628463745e-01" purity="4.7466391324996948e-01" nType="0">
        <Node pos="l" depth="1" NCoef="0" IVar="0" Cut="9.7235345840454102e-01" cType="1" res="-3.5638734698295593e-02" rms="3.6474412679672241e-01" purity="4.2323651909828186e-01" nType="0">
          <Node pos="l" depth="2" NCoef="0" IVar="-1" Cut="0.0000000000000000e+00" cType="1" res="1.9408764317631721e-02" rms="3.5077470541000366e-01" purity="6.9306927919387817e-01" nType="-99"/>
          <Node pos="r" depth="2" NCoef="0" IVar="-1" Cut="0.0000000000000000e+00" cType="1" res="-1.5571685507893562e-02" rms="3.6396899819374084e-01" purity="3.7942123413085938e-01" nType="-99"/>
        </Node>
        <Node pos="r" depth="1" NCoef="0" IVar="4" Cut="8.4848487377166748e-01" cType="1" res="4.2286150157451630e-02" rms="4.1477355360984802e-01" purity="6.2704920768737793e-01" nType="0">
          <Node pos="l" depth="2" NCoef="0" IVar="-1" Cut="0.0000000000000000e+00" cType="1" res="-3.3627748489379883e-02" rms="4.3373546004295349e-01" purity="6.0606062412261963e-01" nType="-99"/>
          <Node pos="r" depth="2" NCoef="0" IVar="-1" Cut="0.0000000000000000e+00" cType="1" res="1.8386870622634888e-02" rms="4.0581238269805908e-01" purity="6.3033175468444824e-01" nType="-99"/>
        </Node>
      </Node>
    </BinaryTree>
    <BinaryTree type="DecisionTree" boostWeight="1.0000000000000000e+00" itree="38">
      <Node pos="s" depth="0" NCoef="0" IVar="0" Cut="9.5964777469635010e-01" cType="1" res="2.3927420261316001e-04" rms="3.9410316944122314e-01" purity="4.9498999118804932e-01" nType="0">
        <Node pos="l" depth="1" NCoef="0" IVar="4" Cut="9.6571427583694458e-01" cType="1" res="1.2963926792144775e-01" rms="3.4161257743835449e-01" purity="7.9710143804550171e-01" nType="0">
          <Node pos="l" depth="2" NCoef="0" IVar="-1" Cut="0.0000000000000000e+00" cType="1" res="1.0106256231665611e-02" rms="3.6892017722129822e-01" purity="7.4418604373931885e-01" nType="-99"/>
          <Node pos="r" depth="2" NCoef="0" IVar="-1" Cut="0.0000000000000000e+00" cType="1" res="7.4198655784130096e-02" rms="2.1455377340316772e-01" purity="8.8461536169052124e-01" nType="-99"/>
        </Node>
        <Node pos="r" depth="1" NCoef="0" IVar="6" Cut="3.4849948883056641e+01" cType="1" res="-9.3717053532600403e-03" rms="3.9604237675666809e-01" purity="4.7255113720893860e-01" nType="0">
          <Node pos="l" depth="2" NCoef="0" IVar="-1" Cut="0.0000000000000000e+00" cType="1" res="-1.5174950473010540e-02" rms="4.5939266681671143e-01" purity="4.9196141958236694e-01" nType="-99"/>
          <Node pos="r" depth="2" NCoef="0" IVar="-1" Cut="0.0000000000000000e+00" cType="1" res="5.5871913209557533e-03" rms="3.5688126087188721e-01" purity="4.6278315782546997e-01" nType="-99"/>
        </Node>
      </Node>
    </BinaryTree>
    <BinaryTree type="DecisionTree" boostWeight="1.0000000000000000e+00" itree="39">
      <Node pos="s" depth="0" NCoef="0" IVar="3" Cut="-7.4593394994735718e-01" cType="1" res="-3.6412780173122883e-03" rms="3.9455282688140869e-01" purity="4.8705655336380005e-01" nType="0">
        <Node pos="l" depth="1" NCoef="0" IVar="0" Cut="9.9856215715408325e-01" cType="1" res="6.3554659485816956e-02" rms="3.8014683127403259e-01" purity="6.9230771064758301e-01" nType="0">
          <Node pos="l" depth="2" NCoef="0" IVar="-1" Cut="0.0000000000000000e+00" cType="1" res="2.9691224917769432e-02" rms="3.3992516994476318e-01" purity="7.7391302585601807e-01" nType="-99"/>
          <Node pos="r" depth="2" NCoef="0" IVar="-1" Cut="0.0000000000000000e+00" cType="1" res="2.8863269835710526e-03" rms="4.1837915778160095e-01" purity="5.9139782190322876e-01" nType="-99"/>
        </Node>
        <Node pos="r" depth="1" NCoef="0" IVar="5" Cut="4.8428140258789062e+02" cType="1" res="-2.0379908382892609e-02" rms="3.9629158377647400e-01" purity="4.3592813611030579e-01" nType="0">
          <Node pos="l" depth="2" NCoef="0" IVar="-1" Cut="0.0000000000000000e+00" cType="1" res="-3.7458401639014482e-03" rms="3.9806815981864929e-01" purity="4.3750000000000000e-01" nType="-99"/>
          <Node pos="r" depth="2" NCoef="0" IVar="-1" Cut="0.0000000000000000e+00" cType="1" res="-5.3814049810171127e-02" rms="3.1116220355033875e-01" purity="4.0000000596046448e-01" nType="-99"/>
        </Node>
      </Node>
    </BinaryTree>
    <BinaryTree type="DecisionTree" boostWeight="1.0000000000000000e+00" itree="40">
      <Node pos="s" depth="0" NCoef="0" IVar="3" Cut="-5.1704134792089462e-02" cType="1" res="1.5407426282763481e-02" rms="3.8204646110534668e-01" purity="5.0049853324890137e-01" nType="0">
        <Node pos="l" depth="1" NCoef="0" IVar="1" Cut="4.7808644175529480e-01" cType="1" res="-2.6834504678845406e-02" rms="3.1623131036758423e-01" purity="3.9054289460182190e-01" nType="0">
          <Node pos="l" depth="2" NCoef="0" IVar="-1" Cut="0.0000000000000000e+00" cType="1" res="1.9158380106091499e-02" rms="3.5184931755065918e-01" purity="8.4158414602279663e-01" nType="-99"/>
          <Node pos="r" depth="2" NCoef="0" IVar="-1" Cut="0.0000000000000000e+00" cType="1" res="-2.7709070593118668e-02" rms="2.8297895193099976e-01" purity="1.4363144338130951e-01" nType="-99"/>
        </Node>
        <Node pos="r" depth="1" NCoef="0" IVar="1" Cut="1.4775611460208893e-01" cType="1" res="7.1241088211536407e-02" rms="4.4858443737030029e-01" purity="6.4583331346511841e-01" nType="0">
          <Node pos="l" depth="2" NCoef="0" IVar="-1" Cut="0.0000000000000000e+00" cType="1" res="-6.8180663511157036e-03" rms="4.4175618886947632e-01" purity="6.1428570747375488e-01" nType="-99"/>
          <Node pos="r" depth="2" NCoef="0" IVar="-1" Cut="0.0000000000000000e+00" cType="1" res="2.8737887740135193e-02" rms="4.4385817646980286e-01" purity="6.6095888614654541e-01" nType="-99"/>
        </Node>
      </Node>
    </BinaryTree>
    <BinaryTree type="DecisionTree" boostWeight="1.0000000000000000e+00" itree="41">
      <Node pos="s" depth="0" NCoef="0" IVar="6" Cut="1.7305564880371094e+02" cType="1" res="4.0631890296936035e-03" rms="3.8256767392158508e-01" purity="5.0884085893630981e-01" nType="0">
        <Node pos="l" depth="1" NCoef="0" IVar="5" Cut="1.3836784362792969e+02" cType="1" res="-8.6218984797596931e-03" rms="3.9050433039665222e-01" purity="4.6789988875389099e-01" nType="0">
          <Node pos="l" depth="2" NCoef="0" IVar="-1" Cut="0.0000000000000000e+00" cType="1" res="3.8389789406210184e-03" rms="4.1763150691986084e-01" purity="5.3857564926147461e-01" nType="-99"/>
          <Node pos="r" depth="2" NCoef="0" IVar="-1" Cut="0.0000000000000000e+00" cType="1" res="-2.5460008531808853e-02" rms="2.9413151741027832e-01" purity="2.7346938848495483e-01" nType="-99"/>
        </Node>
        <Node pos="r" depth="1" NCoef="0" IVar="1" Cut="5.3533947467803955e-01" cType="1" res="1.2181667238473892e-01" rms="2.7210769057273865e-01" purity="8.8888889551162720e-01" nType="0">
          <Node pos="l" depth="2" NCoef="0" IVar="-1" Cut="0.0000000000000000e+00" cType="1" res="3.9045620709657669e-02" rms="2.0171876251697540e-01" purity="9.5833331346511841e-01" nType="-99"/>
          <Node pos="r" depth="2" NCoef="0" IVar="-1" Cut="0.0000000000000000e+00" cType="1" res="5.2333761006593704e-02" rms="3.8883283734321594e-01" purity="7.0370370149612427e-01" nType="-99"/>
        </Node>
      </Node>
    </BinaryTree>
    <BinaryTree type="DecisionTree" boostWeight="1.0000000000000000e+00" itree="42">
      <Node pos="s" depth="0" NCoef="0" IVar="6" Cut="3.7005207061767578e+01" cType="1" res="-6.3368305563926697e-03" rms="3.9459919929504395e-01" purity="5.0295275449752808e-01" nType="0">
        <Node pos="l" depth="1" NCoef="0" IVar="3" Cut="-1.4707851409912109e-01" cType="1" res="-5.7368882000446320e-02" rms="4.3397656083106995e-01" purity="5.1662403345108032e-01" nType="0">
          <Node pos="l" depth="2" NCoef="0" IVar="-1" Cut="0.0000000000000000e+00" cType="1" res="8.7035829201340675e-03" rms="3.7633955478668213e-01" purity="6.0000002384185791e-01" nType="-99"/>
          <Node pos="r" depth="2" NCoef="0" IVar="-1" Cut="0.0000000000000000e+00" cType="1" res="-2.5328893214464188e-02" rms="4.5885354280471802e-01" purity="4.6186441183090210e-01" nType="-99"/>
        </Node>
        <Node pos="r" depth="1" NCoef="0" IVar="3" Cut="-2.3376776278018951e-01" cType="1" res="2.5588819757103920e-02" rms="3.6420947313308716e-01" purity="4.9439999461174011e-01" nType="0">
          <Node pos="l" depth="2" NCoef="0" IVar="-1" Cut="0.0000000000000000e+00" cType="1" res="-1.6038762405514717e-02" rms="3.0991810560226440e-01" purity="3.2692307233810425e-01" nType="-99"/>
          <Node pos="r" depth="2" NCoef="0" IVar="-1" Cut="0.0000000000000000e+00" cType="1" res="2.5557812303304672e-02" rms="4.0008285641670227e-01" purity="6.6134184598922729e-01" nType="-99"/>
        </Node>
      </Node>
    </BinaryTree>
    <BinaryTree type="DecisionTree" boostWeight="1.0000000000000000e+00" itree="43">
      <Node pos="s" depth="0" NCoef="0" IVar="3" Cut="2.2584669589996338e+00" cType="1" res="-1.8395077437162399e-02" rms="3.9337307214736938e-01" purity="4.7914546728134155e-01" nType="0">
        <Node pos="l" depth="1" NCoef="0" IVar="6" Cut="3.2039691925048828e+01" cType="1" res="-2.5700539350509644e-02" rms="3.9192983508110046e-01" purity="4.6917450428009033e-01" nType="0">
          <Node pos="l" depth="2" NCoef="0" IVar="-1" Cut="0.0000000000000000e+00" cType="1" res="-1.8198374658823013e-02" rms="4.5537739992141724e-01" purity="5.1485151052474976e-01" nType="-99"/>
          <Node pos="r" depth="2" NCoef="0" IVar="-1" Cut="0.0000000000000000e+00" cType="1" res="-4.7487413394264877e-04" rms="3.5615542531013489e-01" purity="4.4801223278045654e-01" nType="-99"/>
        </Node>
        <Node pos="r" depth="1" NCoef="0" IVar="-1" Cut="0.0000000000000000e+00" cType="1" res="5.7307444512844086e-02" rms="3.4955513477325439e-01" purity="8.4615385532379150e-01" nType="-99"/>
      </Node>
    </BinaryTree>
    <BinaryTree type="DecisionTree" boostWeight="1.0000000000000000e+00" itree="44">
      <Node pos="s" depth="0" NCoef="0" IVar="6" Cut="2.2895344543457031e+02" cType="1" res="3.0045129824429750e-03" rms="3.8065189123153687e-01" purity="5.0687623023986816e-01" nType="0">
        <Node pos="l" depth="1" NCoef="0" IVar="3" Cut="8.3722293376922607e-02" cType="1" res="-4.2256005108356476e-03" rms="3.8396736979484558e-01" purity="4.8066875338554382e-01" nType="0">
          <Node pos="l" depth="2" NCoef="0" IVar="-1" Cut="0.0000000000000000e+00" cType="1" res="-1.2406253255903721e-02" rms="3.3513191342353821e-01" purity="3.8448277115821838e-01" nType="-99"/>
          <Node pos="r" depth="2" NCoef="0" IVar="-1" Cut="0.0000000000000000e+00" cType="1" res="1.1027608066797256e-02" rms="4.4394758343696594e-01" purity="6.2864720821380615e-01" nType="-99"/>
        </Node>
        <Node pos="r" depth="1" NCoef="0" IVar="1" Cut="2.1007706224918365e-01" cType="1" res="1.1643432080745697e-01" rms="3.0238643288612366e-01" purity="9.1803276538848877e-01" nType="0">
          <Node pos="l" depth="2" NCoef="0" IVar="-1" Cut="0.0000000000000000e+00" cType="1" res="1.5240008011460304e-02" rms="2.9660031199455261e-01" purity="9.0625000000000000e-01" nType="-99"/>
          <Node pos="r" depth="2" NCoef="0" IVar="-1" Cut="0.0000000000000000e+00" cType="1" res="7.0273183286190033e-02" rms="2.8167933225631714e-01" purity="9.3103450536727905e-01" nType="-99"/>
        </Node>
      </Node>
    </BinaryTree>
    <BinaryTree type="DecisionTree" boostWeight="1.0000000000000000e+00" itree="45">
      <Node pos="s" depth="0" NCoef="0" IVar="2" Cut="9.5238097012042999e-02" cType="1" res="5.7578890118747950e-04" rms="3.9373072981834412e-01" purity="5.1124143600463867e-01" nType="0">
        <Node pos="l" depth="1" NCoef="0" IVar="7" Cut="8.2857141494750977e+00" cType="1" res="-1.7216607928276062e-02" rms="3.8826525211334229e-01" purity="4.6163848042488098e-01" nType="0">
          <Node pos="l" depth="2" NCoef="0" IVar="-1" Cut="0.0000000000000000e+00" cType="1" res="-7.7370014041662216e-03" rms="3.8813412189483643e-01" purity="4.5116919279098511e-01" nType="-99"/>
          <Node pos="r" depth="2" NCoef="0" IVar="-1" Cut="0.0000000000000000e+00" cType="1" res="4.0709190070629120e-02" rms="3.5148879885673523e-01" purity="6.4285713434219360e-01" nType="-99"/>
        </Node>
        <Node pos="r" depth="1" NCoef="0" IVar="4" Cut="8.2571429014205933e-01" cType="1" res="5.4443322122097015e-02" rms="4.0509688854217529e-01" purity="6.6141730546951294e-01" nType="0">
          <Node pos="l" depth="2" NCoef="0" IVar="-1" Cut="0.0000000000000000e+00" cType="1" res="-1.8110495060682297e-02" rms="4.3003284931182861e-01" purity="6.4516127109527588e-01" nType="-99"/>
          <Node pos="r" depth="2" NCoef="0" IVar="-1" Cut="0.0000000000000000e+00" cType="1" res="1.9956341013312340e-02" rms="3.9862078428268433e-01" purity="6.6367715597152710e-01" nType="-99"/>
        </Node>
      </Node>
    </BinaryTree>
    <BinaryTree type="DecisionTree" boostWeight="1.0000000000000000e+00" itree="46">
      <Node pos="s" depth="0" NCoef="0" IVar="4" Cut="9.6252930164337158e-01" cType="1" res="-2.2207158617675304e-03" rms="3.8204491138458252e-01" purity="4.9473685026168823e-01" nType="0">
        <Node pos="l" depth="1" NCoef="0" IVar="4" Cut="5.6976419687271118e-01" cType="1" res="3.5559881478548050e-02" rms="3.9783480763435364e-01" purity="6.3265305757522583e-01" nType="0">
          <Node pos="l" depth="2" NCoef="0" IVar="-1" Cut="0.0000000000000000e+00" cType="1" res="-2.4768637493252754e-02" rms="4.6551984548568726e-01" purity="6.4583331346511841e-01" nType="-99"/>
          <Node pos="r" depth="2" NCoef="0" IVar="-1" Cut="0.0000000000000000e+00" cType="1" res="1.3074854388833046e-02" rms="3.8837686181068420e-01" purity="6.3136458396911621e-01" nType="-99"/>
        </Node>
        <Node pos="r" depth="1" NCoef="0" IVar="3" Cut="-1.9469407796859741e+00" cType="1" res="-4.2465262115001678e-02" rms="3.6014014482498169e-01" purity="3.4782609343528748e-01" nType="0">
          <Node pos="l" depth="2" NCoef="0" IVar="-1" Cut="0.0000000000000000e+00" cType="1" res="3.6118194460868835e-02" rms="3.6830201745033264e-01" purity="8.4210526943206787e-01" nType="-99"/>
          <Node pos="r" depth="2" NCoef="0" IVar="-1" Cut="0.0000000000000000e+00" cType="1" res="-1.8082227557897568e-02" rms="3.5502225160598755e-01" purity="3.0769231915473938e-01" nType="-99"/>
        </Node>
      </Node>
    </BinaryTree>
    <BinaryTree type="DecisionTree" boostWeight="1.0000000000000000e+00" itree="47">
      <Node pos="s" depth="0" NCoef="0" IVar="4" Cut="9.5845997333526611e-01" cType="1" res="-3.5808638203889132e-03" rms="3.8164922595024109e-01" purity="4.7859922051429749e-01" nType="0">
        <Node pos="l" depth="1" NCoef="0" IVar="2" Cut="1.4285714924335480e-01" cType="1" res="2.4754507467150688e-02" rms="3.8656693696975708e-01" purity="6.3655030727386475e-01" nType="0">
          <Node pos="l" depth="2" NCoef="0" IVar="-1" Cut="0.0000000000000000e+00" cType="1" res="6.2500772764906287e-04" rms="3.9329326152801514e-01" purity="5.9114581346511841e-01" nType="-99"/>
          <Node pos="r" depth="2" NCoef="0" IVar="-1" Cut="0.0000000000000000e+00" cType="1" res="3.0063744634389877e-02" rms="3.4780803322792053e-01" purity="8.0582523345947266e-01" nType="-99"/>
        </Node>
        <Node pos="r" depth="1" NCoef="0" IVar="3" Cut="9.9808037281036377e-01" cType="1" res="-2.9087934643030167e-02" rms="3.7534248828887939e-01" purity="3.3641403913497925e-01" nType="0">
          <Node pos="l" depth="2" NCoef="0" IVar="-1" Cut="0.0000000000000000e+00" cType="1" res="-4.4065127149224281e-03" rms="3.6083349585533142e-01" purity="3.3195021748542786e-01" nType="-99"/>
          <Node pos="r" depth="2" NCoef="0" IVar="-1" Cut="0.0000000000000000e+00" cType="1" res="-3.4955691546201706e-02" rms="4.5773741602897644e-01" purity="3.7288135290145874e-01" nType="-99"/>
        </Node>
      </Node>
    </BinaryTree>
    <BinaryTree type="DecisionTree" boostWeight="1.0000000000000000e+00" itree="48">
      <Node pos="s" depth="0" NCoef="0" IVar="8" Cut="1.2636043548583984e+02" cType="1" res="1.6634773928672075e-03" rms="3.8995689153671265e-01" purity="5.0052136182785034e-01" nType="0">
        <Node pos="l" depth="1" NCoef="0" IVar="6" Cut="1.4900033569335938e+02" cType="1" res="1.7909035086631775e-02" rms="3.9147123694419861e-01" purity="5.1450186967849731e-01" nType="0">
          <Node pos="l" depth="2" NCoef="0" IVar="-1" Cut="0.0000000000000000e+00" cType="1" res="1.6207828884944320e-03" rms="3.9936402440071106e-01" purity="4.7503566741943359e-01" nType="-99"/>
          <Node pos="r" depth="2" NCoef="0" IVar="-1" Cut="0.0000000000000000e+00" cType="1" res="4.0010992437601089e-02" rms="3.0976396799087524e-01" purity="8.1521737575531006e-01" nType="-99"/>
        </Node>
        <Node pos="r" depth="1" NCoef="0" IVar="8" Cut="8.6335095214843750e+02" cType="1" res="-7.5943313539028168e-02" rms="3.7300097942352295e-01" purity="4.3373495340347290e-01" nType="0">
          <Node pos="l" depth="2" NCoef="0" IVar="-1" Cut="0.0000000000000000e+00" cType="1" res="-3.4978326410055161e-02" rms="3.7638884782791138e-01" purity="3.8524588942527771e-01" nType="-99"/>
          <Node pos="r" depth="2" NCoef="0" IVar="-1" Cut="0.0000000000000000e+00" cType="1" res="1.8370149657130241e-02" rms="3.2190620899200439e-01" purity="5.6818181276321411e-01" nType="-99"/>
        </Node>
      </Node>
    </BinaryTree>
    <BinaryTree type="DecisionTree" boostWeight="1.0000000000000000e+00" itree="49">
      <Node pos="s" depth="0" NCoef="0" IVar="8" Cut="5.0914749145507812e+02" cType="1" res="-7.2572618955746293e-04" rms="3.8583007454872131e-01" purity="4.9800798296928406e-01" nType="0">
        <Node pos="l" depth="1" NCoef="0" IVar="2" Cut="9.5238097012042999e-02" cType="1" res="8.5897054523229599e-03" rms="3.7970885634422302e-01" purity="5.0268530845642090e-01" nType="0">
          <Node pos="l" depth="2" NCoef="0" IVar="-1" Cut="0.0000000000000000e+00" cType="1" res="-2.0750521216541529e-03" rms="3.7566441297531128e-01" purity="4.5084270834922791e-01" nType="-99"/>
          <Node pos="r" depth="2" NCoef="0" IVar="-1" Cut="0.0000000000000000e+00" cType="1" res="1.7038684338331223e-02" rms="3.8827988505363464e-01" purity="6.7123287916183472e-01" nType="-99"/>
        </Node>
        <Node pos="r" depth="1" NCoef="0" IVar="7" Cut="5.1428570747375488e+00" cType="1" res="-1.1952938884496689e-01" rms="4.3978017568588257e-01" purity="4.3835616111755371e-01" nType="0">
          <Node pos="l" depth="2" NCoef="0" IVar="-1" Cut="0.0000000000000000e+00" cType="1" res="-2.8961212956346571e-04" rms="4.1989091038703918e-01" purity="6.2068963050842285e-01" nType="-99"/>
          <Node pos="r" depth="2" NCoef="0" IVar="-1" Cut="0.0000000000000000e+00" cType="1" res="-5.0404861569404602e-02" rms="4.3512225151062012e-01" purity="3.1818181276321411e-01" nType="-99"/>
        </Node>
      </Node>
    </BinaryTree>
    <BinaryTree type="DecisionTree" boostWeight="1.0000000000000000e+00" itree="50">
      <Node pos="s" depth="0" NCoef="0" IVar="3" Cut="1.8353818655014038e+00" cType="1" res="-3.5635016392916441e-03" rms="3.8403621315956116e-01" purity="4.9326923489570618e-01" nType="0">
        <Node pos="l" depth="1" NCoef="0" IVar="2" Cut="9.5238097012042999e-02" cType="1" res="2.6657588314265013e-03" rms="3.7958446145057678e-01" purity="4.9850150942802429e-01" nType="0">
          <Node pos="l" depth="2" NCoef="0" IVar="-1" Cut="0.0000000000000000e+00" cType="1" res="-4.2740721255540848e-03" rms="3.6760562658309937e-01" purity="4.4736841320991516e-01" nType="-99"/>
          <Node pos="r" depth="2" NCoef="0" IVar="-1" Cut="0.0000000000000000e+00" cType="1" res="1.5622222796082497e-02" rms="4.1062787175178528e-01" purity="6.5975105762481689e-01" nType="-99"/>
        </Node>
        <Node pos="r" depth="1" NCoef="0" IVar="-1" Cut="0.0000000000000000e+00" cType="1" res="-3.4348718822002411e-02" rms="4.5626482367515564e-01" purity="3.5897436738014221e-01" nType="-99"/>
      </Node>
    </BinaryTree>
    <BinaryTree type="DecisionTree" boostWeight="1.0000000000000000e+00" itree="51">
      <Node pos="s" depth="0" NCoef="0" IVar="6" Cut="1.0873458862304688e+02" cType="1" res="1.9796457141637802e-02" rms="3.8243183493614197e-01" purity="5.2559053897857666e-01" nType="0">
        <Node pos="l" depth="1" NCoef="0" IVar="5" Cut="1.2058288574218750e+02" cType="1" res="2.7159461751580238e-03" rms="3.9022803306579590e-01" purity="4.7335812449455261e-01" nType="0">
          <Node pos="l" depth="2" NCoef="0" IVar="-1" Cut="0.0000000000000000e+00" cType="1" res="6.7507796920835972e-03" rms="4.1942507028579712e-01" purity="5.5829226970672607e-01" nType="-99"/>
          <Node pos="r" depth="2" NCoef="0" IVar="-1" Cut="0.0000000000000000e+00" cType="1" res="-2.5427091866731644e-02" rms="2.6931610703468323e-01" purity="2.1212121844291687e-01" nType="-99"/>
        </Node>
        <Node pos="r" depth="1" NCoef="0" IVar="2" Cut="4.7619048506021500e-02" cType="1" res="8.5748478770256042e-02" rms="3.4280973672866821e-01" purity="7.2727274894714355e-01" nType="0">
          <Node pos="l" depth="2" NCoef="0" IVar="-1" Cut="0.0000000000000000e+00" cType="1" res="1.5688166022300720e-02" rms="3.2335302233695984e-01" purity="6.9398909807205200e-01" nType="-99"/>
          <Node pos="r" depth="2" NCoef="0" IVar="-1" Cut="0.0000000000000000e+00" cType="1" res="1.2653017044067383e-01" rms="3.3523592352867126e-01" purity="9.6153843402862549e-01" nType="-99"/>
        </Node>
      </Node>
    </BinaryTree>
    <BinaryTree type="DecisionTree" boostWeight="1.0000000000000000e+00" itree="52">
      <Node pos="s" depth="0" NCoef="0" IVar="4" Cut="9.3174600601196289e-01" cType="1" res="-1.0287868644809350e-04" rms="3.8424643874168396e-01" purity="5.0198805332183838e-01" nType="0">
        <Node pos="l" depth="1" NCoef="0" IVar="4" Cut="7.1520292758941650e-01" cType="1" res="3.4205660223960876e-02" rms="3.9093488454818726e-01" purity="6.6666668653488159e-01" nType="0">
          <Node pos="l" depth="2" NCoef="0" IVar="-1" Cut="0.0000000000000000e+00" cType="1" res="-1.2436333112418652e-02" rms="4.6274340152740479e-01" purity="6.2352943420410156e-01" nType="-99"/>
          <Node pos="r" depth="2" NCoef="0" IVar="-1" Cut="0.0000000000000000e+00" cType="1" res="1.6525354236364365e-02" rms="3.6356815695762634e-01" purity="6.7931032180786133e-01" nType="-99"/>
        </Node>
        <Node pos="r" depth="1" NCoef="0" IVar="1" Cut="1.0090520232915878e-01" cType="1" res="-2.0492265000939369e-02" rms="3.7874636054039001e-01" purity="4.0412044525146484e-01" nType="0">
          <Node pos="l" depth="2" NCoef="0" IVar="-1" Cut="0.0000000000000000e+00" cType="1" res="-2.2831719368696213e-02" rms="4.4244551658630371e-01" purity="5.3333336114883423e-01" nType="-99"/>
          <Node pos="r" depth="2" NCoef="0" IVar="-1" Cut="0.0000000000000000e+00" cType="1" res="-1.7104373546317220e-03" rms="3.6281973123550415e-01" purity="3.7832698225975037e-01" nType="-99"/>
        </Node>
      </Node>
    </BinaryTree>
    <BinaryTree type="DecisionTree" boostWeight="1.0000000000000000e+00" itree="53">
      <Node pos="s" depth="0" NCoef="0" IVar="5" Cut="4.2675213623046875e+02" cType="1" res="-3.3929806202650070e-02" rms="3.8668268918991089e-01" purity="4.6435844898223877e-01" nType="0">
        <Node pos="l" depth="1" NCoef="0" IVar="5" Cut="1.9855575561523438e+01" cType="1" res="-2.7916930615901947e-02" rms="3.8768842816352844e-01" purity="4.6417111158370972e-01" nType="0">
          <Node pos="l" depth="2" NCoef="0" IVar="-1" Cut="0.0000000000000000e+00" cType="1" res="-2.1669106557965279e-02" rms="4.6814930438995361e-01" purity="5.0000000000000000e-01" nType="-99"/>
          <Node pos="r" depth="2" NCoef="0" IVar="-1" Cut="0.0000000000000000e+00" cType="1" res="-2.8417995199561119e-03" rms="3.6008924245834351e-01" purity="4.5429739356040955e-01" nType="-99"/>
        </Node>
        <Node pos="r" depth="1" NCoef="0" IVar="-1" Cut="0.0000000000000000e+00" cType="1" res="-5.2324071526527405e-02" rms="3.4496730566024780e-01" purity="4.6808511018753052e-01" nType="-99"/>
      </Node>
    </BinaryTree>
    <BinaryTree type="DecisionTree" boostWeight="1.0000000000000000e+00" itree="54">
      <Node pos="s" depth="0" NCoef="0" IVar="3" Cut="-2.0452024936676025e+00" cType="1" res="5.3009320981800556e-03" rms="3.8903081417083740e-01" purity="5.0809717178344727e-01" nType="0">
        <Node pos="l" depth="1" NCoef="0" IVar="4" Cut="8.6394560337066650e-01" cType="1" res="1.0743635147809982e-01" rms="3.6066269874572754e-01" purity="8.2926827669143677e-01" nType="0">
          <Node pos="l" depth="2" NCoef="0" IVar="-1" Cut="0.0000000000000000e+00" cType="1" res="7.7005219645798206e-03" rms="3.9250659942626953e-01" purity="7.7499997615814209e-01" nType="-99"/>
          <Node pos="r" depth="2" NCoef="0" IVar="-1" Cut="0.0000000000000000e+00" cType="1" res="4.5046053826808929e-02" rms="3.0895751714706421e-01" purity="8.8095235824584961e-01" nType="-99"/>
        </Node>
        <Node pos="r" depth="1" NCoef="0" IVar="6" Cut="2.1631906127929688e+02" cType="1" res="-3.9431122131645679e-03" rms="3.9017975330352783e-01" purity="4.7902870178222656e-01" nType="0">
          <Node pos="l" depth="2" NCoef="0" IVar="-1" Cut="0.0000000000000000e+00" cType="1" res="-3.2310213427990675e-03" rms="3.9590701460838318e-01" purity="4.4733726978302002e-01" nType="-99"/>
          <Node pos="r" depth="2" NCoef="0" IVar="-1" Cut="0.0000000000000000e+00" cType="1" res="3.8646638393402100e-02" rms="2.8157418966293335e-01" purity="9.1803276538848877e-01" nType="-99"/>
        </Node>
      </Node>
    </BinaryTree>
    <BinaryTree type="DecisionTree" boostWeight="1.0000000000000000e+00" itree="55">
      <Node pos="s" depth="0" NCoef="0" IVar="3" Cut="-2.2608890533447266e+00" cType="1" res="9.4136118423193693e-04" rms="3.9067152142524719e-01" purity="4.8300001025199890e-01" nType="0">
        <Node pos="l" depth="1" NCoef="0" IVar="0" Cut="9.9168145656585693e-01" cType="1" res="1.2668842077255249e-01" rms="3.5310953855514526e-01" purity="8.4507042169570923e-01" nType="0">
          <Node pos="l" depth="2" NCoef="0" IVar="-1" Cut="0.0000000000000000e+00" cType="1" res="1.2569224461913109e-02" rms="4.0712296962738037e-01" purity="7.8125000000000000e-01" nType="-99"/>
          <Node pos="r" depth="2" NCoef="0" IVar="-1" Cut="0.0000000000000000e+00" cType="1" res="5.2211169153451920e-02" rms="2.8581991791725159e-01" purity="8.9743590354919434e-01" nType="-99"/>
        </Node>
        <Node pos="r" depth="1" NCoef="0" IVar="8" Cut="7.3801538085937500e+02" cType="1" res="-8.6690168827772141e-03" rms="3.9173790812492371e-01" purity="4.5532831549644470e-01" nType="0">
          <Node pos="l" depth="2" NCoef="0" IVar="-1" Cut="0.0000000000000000e+00" cType="1" res="-5.0747874192893505e-03" rms="3.9139911532402039e-01" purity="4.4494891166687012e-01" nType="-99"/>
          <Node pos="r" depth="2" NCoef="0" IVar="-1" Cut="0.0000000000000000e+00" cType="1" res="3.6585364490747452e-02" rms="3.6581128835678101e-01" purity="6.4583331346511841e-01" nType="-99"/>
        </Node>
      </Node>
    </BinaryTree>
    <BinaryTree type="DecisionTree" boostWeight="1.0000000000000000e+00" itree="56">
      <Node pos="s" depth="0" NCoef="0" IVar="7" Cut="8.8571424484252930e+00" cType="1" res="-5.3191501647233963e-03" rms="3.8976413011550903e-01" purity="5.0000000000000000e-01" nType="0">
        <Node pos="l" depth="1" NCoef="0" IVar="6" Cut="2.1632055664062500e+02" cType="1" res="-1.1343331076204777e-02" rms="3.8759550452232361e-01" purity="4.9297297000885010e-01" nType="0">
          <Node pos="l" depth="2" NCoef="0" IVar="-1" Cut="0.0000000000000000e+00" cType="1" res="-5.8227530680596828e-03" rms="3.9658343791961670e-01" purity="4.6109175682067871e-01" nType="-99"/>
          <Node pos="r" depth="2" NCoef="0" IVar="-1" Cut="0.0000000000000000e+00" cType="1" res="4.5756515115499496e-02" rms="2.0100151002407074e-01" purity="9.2187500000000000e-01" nType="-99"/>
        </Node>
        <Node pos="r" depth="1" NCoef="0" IVar="-1" Cut="0.0000000000000000e+00" cType="1" res="4.6182576566934586e-02" rms="4.1187253594398499e-01" purity="6.9696968793869019e-01" nType="-99"/>
      </Node>
    </BinaryTree>
    <BinaryTree type="DecisionTree" boostWeight="1.0000000000000000e+00" itree="57">
      <Node pos="s" depth="0" NCoef="0" IVar="1" Cut="2.8979659080505371e-01" cType="1" res="-1.4966725138947368e-03" rms="3.7653261423110962e-01" purity="5.0183486938476562e-01" nType="0">
        <Node pos="l" depth="1" NCoef="0" IVar="1" Cut="1.8005597591400146e-01" cType="1" res="3.7759941071271896e-02" rms="3.8459038734436035e-01" purity="7.4561405181884766e-01" nType="0">
          <Node pos="l" depth="2" NCoef="0" IVar="-1" Cut="0.0000000000000000e+00" cType="1" res="4.4521335512399673e-03" rms="4.0321207046508789e-01" purity="7.0277780294418335e-01" nType="-99"/>
          <Node pos="r" depth="2" NCoef="0" IVar="-1" Cut="0.0000000000000000e+00" cType="1" res="3.7762653082609177e-02" rms="2.9178285598754883e-01" purity="9.0625000000000000e-01" nType="-99"/>
        </Node>
        <Node pos="r" depth="1" NCoef="0" IVar="7" Cut="5.4285712242126465e+00" cType="1" res="-2.9731715098023415e-02" rms="3.6804902553558350e-01" purity="3.2649841904640198e-01" nType="0">
          <Node pos="l" depth="2" NCoef="0" IVar="-1" Cut="0.0000000000000000e+00" cType="1" res="-5.3587830625474453e-03" rms="3.6978888511657715e-01" purity="3.2976827025413513e-01" nType="-99"/>
          <Node pos="r" depth="2" NCoef="0" IVar="-1" Cut="0.0000000000000000e+00" cType="1" res="-3.8012519478797913e-02" rms="3.3788838982582092e-01" purity="3.0136987566947937e-01" nType="-99"/>
        </Node>
      </Node>
    </BinaryTree>
    <BinaryTree type="DecisionTree" boostWeight="1.0000000000000000e+00" itree="58">
      <Node pos="s" depth="0" NCoef="0" IVar="0" Cut="9.6046972274780273e-01" cType="1" res="-1.6043702140450478e-02" rms="3.8039878010749817e-01" purity="4.6799999475479126e-01" nType="0">
        <Node pos="l" depth="1" NCoef="0" IVar="1" Cut="4.3274524807929993e-01" cType="1" res="8.6641781032085419e-02" rms="3.4160476922988892e-01" purity="7.4725276231765747e-01" nType="0">
          <Node pos="l" depth="2" NCoef="0" IVar="-1" Cut="0.0000000000000000e+00" cType="1" res="4.8465836793184280e-02" rms="2.6497301459312439e-01" purity="9.3220341205596924e-01" nType="-99"/>
          <Node pos="r" depth="2" NCoef="0" IVar="-1" Cut="0.0000000000000000e+00" cType="1" res="-1.6122832894325256e-02" rms="4.1277331113815308e-01" purity="4.0625000000000000e-01" nType="-99"/>
        </Node>
        <Node pos="r" depth="1" NCoef="0" IVar="1" Cut="1.0040901601314545e-01" cType="1" res="-2.6323547586798668e-02" rms="3.8255196809768677e-01" purity="4.4004401564598083e-01" nType="0">
          <Node pos="l" depth="2" NCoef="0" IVar="-1" Cut="0.0000000000000000e+00" cType="1" res="-2.4968691170215607e-02" rms="4.3247792124748230e-01" purity="5.2083331346511841e-01" nType="-99"/>
          <Node pos="r" depth="2" NCoef="0" IVar="-1" Cut="0.0000000000000000e+00" cType="1" res="-1.7723687924444675e-03" rms="3.6523336172103882e-01" purity="4.1841003298759460e-01" nType="-99"/>
        </Node>
      </Node>
    </BinaryTree>
    <BinaryTree type="DecisionTree" boostWeight="1.0000000000000000e+00" itree="59">
      <Node pos="s" depth="0" NCoef="0" IVar="6" Cut="5.3380084991455078e+01" cType="1" res="6.1642895452678204e-03" rms="3.9289513230323792e-01" purity="4.9143370985984802e-01" nType="0">
        <Node pos="l" depth="1" NCoef="0" IVar="3" Cut="1.8351967334747314e+00" cType="1" res="-3.1640950590372086e-02" rms="4.1436856985092163e-01" purity="4.4612795114517212e-01" nType="0">
          <Node pos="l" depth="2" NCoef="0" IVar="-1" Cut="0.0000000000000000e+00" cType="1" res="-1.2253964319825172e-02" rms="4.0855884552001953e-01" purity="4.3454545736312866e-01" nType="-99"/>
          <Node pos="r" depth="2" NCoef="0" IVar="-1" Cut="0.0000000000000000e+00" cType="1" res="2.8651379048824310e-02" rms="4.4929119944572449e-01" purity="5.9090906381607056e-01" nType="-99"/>
        </Node>
        <Node pos="r" depth="1" NCoef="0" IVar="4" Cut="7.6767677068710327e-01" cType="1" res="4.9768779426813126e-02" rms="3.6169451475143433e-01" purity="5.4368931055068970e-01" nType="0">
          <Node pos="l" depth="2" NCoef="0" IVar="-1" Cut="0.0000000000000000e+00" cType="1" res="-1.8887206912040710e-02" rms="4.2779368162155151e-01" purity="6.9090908765792847e-01" nType="-99"/>
          <Node pos="r" depth="2" NCoef="0" IVar="-1" Cut="0.0000000000000000e+00" cType="1" res="2.1205382421612740e-02" rms="3.5092601180076599e-01" purity="5.2608698606491089e-01" nType="-99"/>
        </Node>
      </Node>
    </BinaryTree>
    <BinaryTree type="DecisionTree" boostWeight="1.0000000000000000e+00" itree="60">
      <Node pos="s" depth="0" NCoef="0" IVar="1" Cut="9.5257663726806641e-01" cType="1" res="1.1949803680181503e-02" rms="3.8186764717102051e-01" purity="5.1509052515029907e-01" nType="0">
        <Node pos="l" depth="1" NCoef="0" IVar="3" Cut="6.0249841213226318e-01" cType="1" res="4.7818731516599655e-02" rms="3.9220070838928223e-01" purity="7.5266903638839722e-01" nType="0">
          <Node pos="l" depth="2" NCoef="0" IVar="-1" Cut="0.0000000000000000e+00" cType="1" res="2.4666590616106987e-02" rms="3.5463094711303711e-01" purity="8.3597886562347412e-01" nType="-99"/>
          <Node pos="r" depth="2" NCoef="0" IVar="-1" Cut="0.0000000000000000e+00" cType="1" res="-6.1373086646199226e-03" rms="4.5096606016159058e-01" purity="5.8152174949645996e-01" nType="-99"/>
        </Node>
        <Node pos="r" depth="1" NCoef="0" IVar="5" Cut="2.2039779663085938e+02" cType="1" res="-3.4713011234998703e-02" rms="3.6272066831588745e-01" purity="2.0601852238178253e-01" nType="0">
          <Node pos="l" depth="2" NCoef="0" IVar="-1" Cut="0.0000000000000000e+00" cType="1" res="-3.3812562469393015e-03" rms="3.7380498647689819e-01" purity="2.2689075767993927e-01" nType="-99"/>
          <Node pos="r" depth="2" NCoef="0" IVar="-1" Cut="0.0000000000000000e+00" cType="1" res="-4.7981850802898407e-02" rms="2.7659842371940613e-01" purity="1.0666666924953461e-01" nType="-99"/>
        </Node>
      </Node>
    </BinaryTree>
    <BinaryTree type="DecisionTree" boostWeight="1.0000000000000000e+00" itree="61">
      <Node pos="s" depth="0" NCoef="0" IVar="8" Cut="1.1069820556640625e+03" cType="1" res="1.4039270579814911e-02" rms="3.8056141138076782e-01" purity="4.9397590756416321e-01" nType="0">
        <Node pos="l" depth="1" NCoef="0" IVar="8" Cut="5.2344628906250000e+02" cType="1" res="9.0301064774394035e-03" rms="3.8023120164871216e-01" purity="4.8707342147827148e-01" nType="0">
          <Node pos="l" depth="2" NCoef="0" IVar="-1" Cut="0.0000000000000000e+00" cType="1" res="5.1631527021527290e-03" rms="3.7820839881896973e-01" purity="4.9113082885742188e-01" nType="-99"/>
          <Node pos="r" depth="2" NCoef="0" IVar="-1" Cut="0.0000000000000000e+00" cType="1" res="-3.0539618805050850e-02" rms="3.9017546176910400e-01" purity="4.3076923489570618e-01" nType="-99"/>
        </Node>
        <Node pos="r" depth="1" NCoef="0" IVar="-1" Cut="0.0000000000000000e+00" cType="1" res="4.6199914067983627e-02" rms="3.5280132293701172e-01" purity="7.2413790225982666e-01" nType="-99"/>
      </Node>
    </BinaryTree>
    <BinaryTree type="DecisionTree" boostWeight="1.0000000000000000e+00" itree="62">
      <Node pos="s" depth="0" NCoef="0" IVar="1" Cut="3.3574637770652771e-01" cType="1" res="1.1880465783178806e-02" rms="3.7920680642127991e-01" purity="5.0998002290725708e-01" nType="0">
        <Node pos="l" depth="1" NCoef="0" IVar="5" Cut="4.5851394653320312e+01" cType="1" res="5.3954642266035080e-02" rms="3.8816589117050171e-01" purity="7.6537585258483887e-01" nType="0">
          <Node pos="l" depth="2" NCoef="0" IVar="-1" Cut="0.0000000000000000e+00" cType="1" res="5.0012255087494850e-03" rms="4.4381582736968994e-01" purity="6.6274511814117432e-01" nType="-99"/>
          <Node pos="r" depth="2" NCoef="0" IVar="-1" Cut="0.0000000000000000e+00" cType="1" res="3.4472133964300156e-02" rms="2.8798690438270569e-01" purity="9.0760868787765503e-01" nType="-99"/>
        </Node>
